svm_type c_svc
kernel_type rbf
gamma 0.1
nr_class 2
total_sv 6528
rho -0.244321
label 1 -1
nr_sv 3344 3184
SV
1 1:1.2222222 2:1.1 3:0.36923077 4:0.50769231 5:0.8 6:6.6 7:3.3846154 8:5.5 9:11 10:-22 
1 1:1.1893939 2:0.94152924 3:0.54396135 4:0.60676329 5:0.84407796 6:6.0384615 7:5.5087719 8:6.0384615 9:8.4864865 10:-19.625 
1 1:1.4038462 2:1.1774194 3:0.35384615 4:0.56153846 5:0.74193548 6:6.0833333 7:3.5609756 8:4.5625 9:7.3 10:-24.333333 
1 1:1.2826087 2:0.96721311 3:0.36434109 4:0.45736434 5:0.7704918 6:3.6875 7:4.2142857 8:4.2142857 9:5.9 10:-19.666667 
1 1:1.2027027 2:0.90585242 3:0.42469471 4:0.48303935 5:0.79643766 6:7.4166667 7:4.3414634 8:4.45 9:6.5925926 10:-17.8 
1 1:1.2272727 2:1.1868132 3:0.36945813 4:0.5320197 5:0.82417582 6:6.75 7:3 8:6.75 9:10.8 10:-27 
1 1:1.1973684 2:0.89434889 3:0.37675607 4:0.46487867 5:0.72481572 6:4.1363636 7:4.1363636 8:3.25 9:6.7407407 10:-30.333333 
1 1:1.3888889 2:1.1075949 3:0.36024845 4:0.54347826 5:0.73417722 6:4.8611111 7:3.7634409 8:4.1666667 9:9.7222222 10:-19.444444 
1 1:1.3083333 2:1.0572391 3:0.37042925 4:0.49920509 5:0.78451178 6:3.925 7:4.5507246 8:4.90625 9:8.2631579 10:-22.428571 
1 1:1.0357143 2:0.83453237 3:0.45816733 4:0.46215139 5:0.82733813 6:4.8333333 7:2.32 8:4.8333333 9:6.4444444 10:-14.5 
1 1:1.1888889 2:0.96396396 3:0.45812808 4:0.5270936 5:0.83783784 6:4.8636364 7:4.4583333 8:5.9444444 9:9.7272727 10:-17.833333 
1 1:1.0555556 2:0.81545064 3:0.50670241 4:0.50938338 5:0.8111588 6:5.9375 7:4.75 8:4.3181818 9:6.7857143 10:-23.75 
1 1:1.1857143 2:1.0199693 3:0.40511232 4:0.51432998 5:0.80337942 6:4.3684211 7:3.5698925 8:5.1875 9:7.3777778 10:-23.714286 
1 1:1.4722222 2:1.2045455 3:0.36170213 4:0.56382979 5:0.77272727 6:6.625 7:3.7857143 8:5.3 9:13.25 10:-17.666667 
1 1:1.340708 2:1.1149954 3:0.49078727 4:0.67671692 5:0.80864765 6:5.05 7:4.4888889 8:5.8269231 9:8.3013699 10:-25.25 
1 1:1.1408451 2:0.91525424 3:0.45686901 4:0.51757188 5:0.8079096 6:5.4 7:4.6956522 8:4.7647059 9:9 10:-20.25 
1 1:1.0462963 2:0.8968254 3:0.49074074 4:0.52314815 5:0.84126984 6:4.7083333 7:3.5873016 8:5.65 9:6.2777778 10:-28.25 
1 1:1.2315789 2:0.98216159 3:0.39334424 4:0.5106383 5:0.75655824 6:4.1785714 7:3.6850394 8:4.0344828 9:12 10:-19.5 
1 1:1.1449275 2:0.9362963 3:0.44216571 4:0.51845775 5:0.79851852 6:5.2666667 7:4.5797101 8:4.6470588 9:8.1025641 10:-31.6 
1 1:1.1555556 2:0.85071575 3:0.39707537 4:0.46794151 5:0.72188139 6:3.25 7:2.8493151 8:3.0588235 9:5.9428571 10:-20.8 
1 1:1.24 2:1.0122449 3:0.41418764 4:0.56750572 5:0.73877551 6:6.2 7:3.4444444 8:3.875 9:13.777778 10:-20.666667 
1 1:1.0952381 2:0.88888889 3:0.39066339 4:0.45208845 5:0.76811594 6:5.75 7:4.8421053 8:3.8333333 9:6.1333333 10:-15.333333 
1 1:1.1408451 2:0.82758621 3:0.44601638 4:0.48250186 5:0.76500639 6:6.2307692 7:3.5604396 8:3.5217391 9:7.902439 10:-16.2 
0.6192410545877935 1:1.2397959 2:0.99082569 3:0.42761319 4:0.54332029 5:0.77981651 6:4.1896552 7:4.1896552 8:4.5 9:9.9183673 10:-24.3 
1 1:1.2135922 2:1.0729614 3:0.41649049 4:0.52854123 5:0.84549356 6:5 7:4.0983607 8:6.9444444 9:8.0645161 10:-35.714286 
1 1:1.3412698 2:1.0384025 3:0.3634277 4:0.517215 5:0.7296467 6:4.9705882 7:3.5578947 8:3.8409091 9:7.5111111 10:-33.8 
1 1:1.1791045 2:1.0015848 3:0.38461538 4:0.49106449 5:0.7844691 6:5.6428571 7:3.3617021 8:4.6470588 9:8.5405405 10:-19.75 
1 1:1.3035714 2:1.0103806 3:0.41767764 4:0.50606586 5:0.83391003 6:7.3 7:4.7096774 8:6.0833333 9:9.7333333 10:-14.6 
1 1:1.1590909 2:0.94226328 3:0.41656366 4:0.50432633 5:0.77829099 6:4.25 7:3.4 8:4.25 9:6.5806452 10:-34 
1 1:1.1666667 2:0.90566038 3:0.44157815 4:0.50986343 5:0.78436658 6:6 7:3.1111111 8:4.2 9:6.2222222 10:-28 
1 1:1.1346154 2:0.94779116 3:0.44766147 4:0.52561247 5:0.80722892 6:7.375 7:3.6875 8:4.9166667 9:10.727273 10:-29.5 
1 1:1.1136364 2:0.93422307 3:0.48096515 4:0.52546917 5:0.8551001 6:4.9 7:4.8039216 8:6.4473684 9:8.5964912 10:-15.3125 
1 1:1.1875 2:0.9947644 3:0.41333333 4:0.50666667 5:0.81151832 6:4.3181818 7:4.0425532 8:5.2777778 9:10.555556 10:-19 
1 1:1.2323944 2:1.0785824 3:0.39925651 4:0.5204461 5:0.82742681 6:4.375 7:5.0724638 8:6.25 9:12.962963 10:-15.909091 
0.6781814794120947 1:1.2045455 2:1.0392157 3:0.40952381 4:0.5047619 5:0.84313725 6:4.4166667 7:4.4166667 8:6.625 9:13.25 10:-26.5 
1 1:1.1388889 2:0.91364903 3:0.43661972 4:0.51330203 5:0.77715877 6:6.8333333 7:2.8275862 8:4.1 9:8.6315789 10:-16.4 
1 1:1.2272727 2:0.93103448 3:0.40186916 4:0.5046729 5:0.74137931 6:5.4 7:3.5409836 8:3.6 9:6.75 10:-21.6 
1 1:1.2857143 2:1.1550802 3:0.37984496 4:0.55813953 5:0.78609626 6:3.8571429 7:3.375 8:5.4 9:9.8181818 10:-27 
1 1:1.3666667 2:1.1043771 3:0.33817126 4:0.47605225 5:0.78451178 6:5.8571429 7:3.4166667 8:5.125 9:7.8095238 10:-20.5 
1 1:1.1346154 2:1.0442478 3:0.37349398 4:0.47389558 5:0.82300885 6:3.6875 7:2.8780488 8:5.9 9:8.4285714 10:-19.666667 
1 1:0.94444444 2:0.83435583 3:0.45017182 4:0.46735395 5:0.80368098 6:5.6666667 7:2.9565217 8:4.25 9:9.7142857 10:-17 
1 1:1 2:0.88311688 3:0.39393939 4:0.41212121 5:0.84415584 6:5.6666667 7:2.8333333 8:5.6666667 9:6.8 10:-17 
1 1:1.1041667 2:1.0392157 3:0.42056075 4:0.4953271 5:0.88235294 6:4.4166667 7:4.24 8:8.8333333 9:13.25 10:-13.25 
1 1:1.2727273 2:0.97391304 3:0.38461538 4:0.50678733 5:0.73913043 6:5.0909091 7:3.3939394 8:3.7333333 9:7 10:-28 
1 1:1.3333333 2:1.0118577 3:0.45762712 4:0.61985472 5:0.74703557 6:6.4 7:4.4137931 8:4 9:6.0952381 10:-32 
1 1:1.1336634 2:0.90873016 3:0.41880342 4:0.48931624 5:0.77777778 6:3.9482759 7:3.8813559 8:4.0892857 9:6.7352941 10:-14.3125 
1 1:1.0166667 2:0.77707006 3:0.40484429 4:0.42214533 5:0.74522293 6:5.0833333 7:3.4857143 8:3.05 9:5.5454545 10:-20.333333 
1 1:1.1666667 2:0.94915254 3:0.38461538 4:0.44562334 5:0.81920904 6:7 7:4 8:5.25 9:7.6363636 10:-14 
1 1:1.2719298 2:1.0086957 3:0.41736695 4:0.54154995 5:0.7773913 6:4.2647059 7:3.9726027 8:4.53125 9:10 10:-20.714286 
1 1:1.2658228 2:1.1126565 3:0.37980456 4:0.52117264 5:0.8108484 6:4.7619048 7:4.1666667 8:5.8823529 9:9.7560976 10:-18.181818 
1 1:1.2368421 2:1.0444444 3:0.42222222 4:0.52222222 5:0.84444444 6:4.2727273 7:5.5294118 8:6.7142857 9:8.5454545 10:-23.5 
1 1:1.2631579 2:1.0029851 3:0.44768439 4:0.57632933 5:0.77910448 6:5.4193548 7:4.7659574 8:4.5405405 9:7.1489362 10:-30.545455 
1 1:0.9 2:0.71523179 3:0.46863469 4:0.39852399 5:0.8410596 6:4.5 7:3.1764706 8:4.5 9:7.7142857 10:-13.5 
1 1:1.0967742 2:0.8802589 3:0.47388781 4:0.52611219 5:0.79288026 6:4.8571429 7:3.7777778 8:4.25 9:9.0666667 10:-34 
1 1:1.3095238 2:1.0576923 3:0.36363636 4:0.5 5:0.76923077 6:5.5 7:3.7931034 8:4.5833333 9:6.875 10:-27.5 
1 1:1.1826923 2:1.0357895 3:0.43286788 4:0.52846402 5:0.84842105 6:4.3928571 7:4.6415094 8:6.8333333 9:10.695652 10:-17.571429 
1 1:1.15 2:0.95833333 3:0.46511628 4:0.53488372 5:0.83333333 6:5.75 7:4.6 8:5.75 9:7.6666667 10:-23 
1 1:1.5365854 2:1.1586207 3:0.48531469 4:0.7048951 5:0.79770115 6:6.3 7:3.8181818 8:5.7272727 9:6.4615385 10:-21 
1 1:1.2380952 2:1.003861 3:0.38430584 4:0.52313883 5:0.73745174 6:4.4827586 7:2.9885057 8:3.8235294 9:10 10:-26 
1 1:1.109375 2:0.91909385 3:0.48243993 4:0.52495379 5:0.84466019 6:5.0714286 7:4.4375 8:5.9166667 9:7.4736842 10:-23.666667 
1 1:1.6454545 2:1.3284404 3:0.3381066 4:0.57597454 5:0.77981651 6:6.9615385 7:4.7631579 8:6.0333333 9:13.407407 10:-16.454545 
1 1:1.18 2:0.91119691 3:0.4422658 4:0.51416122 5:0.78378378 6:5.9 7:3.5757576 8:4.2142857 9:9.0769231 10:-14.75 
1 1:0.84285714 2:0.69822485 3:0.40401146 4:0.33810888 5:0.83431953 6:4.9166667 7:3.1891892 8:4.2142857 9:7.375 10:-9.8333333 
0.4706481338603368 1:1.0918367 2:0.82625483 3:0.46539379 4:0.51073986 5:0.75289575 6:4.4583333 7:3.754386 8:3.34375 9:6.6875 10:-21.4 
1 1:1.3 2:1.0446429 3:0.38679245 4:0.55188679 5:0.73214286 6:4.5 7:3.8360656 8:3.9 9:8.3571429 10:-29.25 
1 1:1.38 2:1.1196755 3:0.36532811 4:0.54064643 5:0.75659229 6:4.3125 7:4.3809524 8:4.6 9:8.3636364 10:-23 
1 1:1.2236842 2:0.95140665 3:0.34610473 4:0.47509579 5:0.69309463 6:3.5769231 7:2.8615385 8:3.1 9:7.44 10:-18.6 
1 1:1.2 2:0.93506494 3:0.37254902 4:0.47058824 5:0.74025974 6:6 7:2.6666667 8:3.6 9:7.2 10:-18 
1 1:1.4487179 2:1.2417582 3:0.33333333 4:0.56218905 5:0.73626374 6:4.3461538 7:4.0357143 8:4.7083333 9:8.0714286 10:-28.25 
1 1:1.3916667 2:1.1577123 3:0.36965633 4:0.55993294 5:0.76429809 6:4.9117647 7:3.9761905 8:4.9117647 9:8.5641026 10:-41.75 
1 1:1.3841463 2:1.2139037 3:0.3764988 4:0.54436451 5:0.83957219 6:5.675 7:3.7213115 8:7.5666667 9:10.318182 10:-20.636364 
1 1:1.1975309 2:1.0157068 3:0.43440233 4:0.56559767 5:0.78010471 6:3.3448276 7:3.4336283 8:4.6190476 9:6.6896552 10:-27.714286 
1 1:1.3870968 2:1.1862069 3:0.43554007 4:0.59930314 5:0.86206897 6:5.7333333 7:5.2923077 8:8.6 9:14.333333 10:-19.111111 
1 1:1.0434783 2:0.89302326 3:0.42459397 4:0.44547564 5:0.85116279 6:4 7:3.5555556 8:6 9:8.7272727 10:-12 
1 1:1.3030303 2:1.1986063 3:0.30935252 4:0.49496403 5:0.74912892 6:4.3 7:3.44 8:4.7777778 9:10.117647 10:-28.666667 
1 1:1.2708333 2:1.042735 3:0.30566038 4:0.46037736 5:0.69230769 6:6.1 7:2.9756098 8:3.3888889 9:7.625 10:-30.5 
1 1:0.98039216 2:0.82474227 3:0.43626943 4:0.41450777 5:0.86804124 6:4.5454545 7:4.8780488 8:6.25 9:11.764706 10:-12.5 
1 1:1.3928571 2:1.1243243 3:0.3144606 4:0.47742923 5:0.74054054 6:5.2 7:3.0891089 8:4.3333333 9:10.064516 10:-15.6 
1 1:1.1697248 2:1.021021 3:0.43054869 4:0.50420168 5:0.87187187 6:5.5434783 7:4.7222222 8:7.96875 9:12.439024 10:-15 
1 1:1.1269841 2:0.94352159 3:0.38461538 4:0.44583987 5:0.81395349 6:4.4375 7:3.5061728 8:5.0714286 9:10.142857 10:-15.777778 
1 1:1.175 2:0.98947368 3:0.48538012 4:0.5497076 5:0.87368421 6:8.5454545 7:6.0645161 8:7.8333333 9:11.75 10:-17.090909 
0.2382528802693782 1:1.1521739 2:0.9339207 3:0.44416873 4:0.52605459 5:0.78854626 6:5.3 7:5.5789474 8:4.4166667 9:11.777778 10:-17.666667 
1 1:1.0833333 2:0.7761194 3:0.30512249 4:0.34743875 5:0.68159204 6:3.25 7:2.4375 8:2.4375 9:6 10:-9.75 
1 1:1.212766 2:0.96815287 3:0.40882002 4:0.54350417 5:0.72823779 6:3.8 7:3.04 8:3.5625 9:12 10:-28.5 
1 1:1.0263158 2:0.84782609 3:0.48717949 4:0.5 5:0.82608696 6:6.5 7:3.3913043 8:4.875 9:9.75 10:-39 
1 1:1.2307692 2:1 3:0.35294118 4:0.47058824 5:0.75 6:5.3333333 7:3.7647059 8:4 9:8 10:-16 
1 1:1.3235294 2:1.2 3:0.37423313 4:0.55214724 5:0.81333333 6:3.75 7:4.2857143 8:6.4285714 9:10 10:-18 
1 1:1.28125 2:1.055794 3:0.39468303 4:0.50306748 5:0.82832618 6:6.8333333 7:3.7846154 8:6.15 9:8.7857143 10:-13.666667 
1 1:1.0357143 2:0.7483871 3:0.50617284 4:0.47736626 5:0.79354839 6:7.25 7:3.625 8:3.625 9:5.2727273 10:-14.5 
1 1:1.3611111 2:1.1104816 3:0.42589704 4:0.61154446 5:0.7733711 6:4.9 7:4.7804878 8:4.9 9:9.3333333 10:-24.5 
1 1:1.2407407 2:1.0268199 3:0.4251497 4:0.53493014 5:0.81609195 6:4.7857143 7:4.3225806 8:5.5833333 9:8.9333333 10:-22.333333 
1 1:1.1666667 2:0.8630137 3:0.41880342 4:0.53846154 5:0.67123288 6:4.5 7:3 8:2.625 9:7 10:-31.5 
0.5154987305033271 1:1.2965116 2:1.1690695 3:0.42136695 4:0.59190445 5:0.83224115 6:6.96875 7:3.779661 8:6.96875 9:15.37931 10:-18.583333 
1 1:1.1330275 2:0.988 3:0.40562249 4:0.49598394 5:0.808 6:4.1166667 7:3.2715232 8:5.1458333 9:10.291667 10:-14.529412 
1 1:1.1858974 2:0.9762533 3:0.43178622 4:0.52039381 5:0.81002639 6:4.0217391 7:4.1573034 8:5.1388889 9:10.882353 10:-20.555556 
1 1:1.2142857 2:1.0342205 3:0.46436285 4:0.587473 5:0.81749049 6:5.6666667 7:4.6896552 8:5.6666667 9:9.0666667 10:-22.666667 
1 1:1.12 2:0.90322581 3:0.46153846 4:0.53846154 5:0.77419355 6:4.6666667 7:2.9473684 8:4 9:14 10:-18.666667 
1 1:1.2105263 2:0.91770574 3:0.39213026 4:0.49932157 5:0.72069825 6:5.1111111 7:3.68 8:3.2857143 9:6.8148148 10:-23 
1 1:1.2326733 2:1.035343 3:0.46424518 4:0.56526674 5:0.85031185 6:4.98 7:5.4130435 8:6.9166667 9:11.318182 10:-17.785714 
1 1:1.2413793 2:1.0510949 3:0.38566553 4:0.49146758 5:0.82481752 6:5.1428571 7:5.76 8:6 9:12 10:-14.4 
1 1:1.1707317 2:0.95522388 3:0.43236074 4:0.50928382 5:0.81094527 6:5.3333333 7:5.3333333 8:5.0526316 9:8.3478261 10:-19.2 
1 1:1.1666667 2:0.88888889 3:0.392 4:0.448 5:0.77777778 6:4.6666667 7:3.1111111 8:4 9:7 10:-14 
1 1:1.25 2:1.0423453 3:0.42342342 4:0.57657658 5:0.76547231 6:4.4444444 7:3.4042553 8:4.4444444 9:7.6190476 10:-26.666667 
1 1:1.15 2:0.92929293 3:0.46716698 4:0.51782364 5:0.83838384 6:4.9285714 7:4.6 8:5.75 9:9.2 10:-23 
1 1:0.85365854 2:0.68796069 3:0.48241913 4:0.39381153 5:0.84275184 6:4.375 7:2.8571429 8:4.375 9:8.2352941 10:-11.666667 
1 1:1.6268657 2:1.4754653 3:0.34612177 4:0.72727273 5:0.70219966 6:5.45 7:3.2058824 8:4.9545455 9:9.2765957 10:-36.333333 
1 1:1.1603774 2:0.88172043 3:0.503386 4:0.55530474 5:0.79928315 6:6.8333333 7:4.6415094 8:4.3928571 9:9.4615385 10:-24.6 
1 1:1.2244898 2:1.038961 3:0.45316456 4:0.60759494 5:0.77489177 6:5.4545455 7:2.6373626 8:4.6153846 9:10.909091 10:-20 
1 1:1.0974026 2:0.92729767 3:0.45384019 4:0.52443755 5:0.80246914 6:4.6944444 7:4.0722892 8:4.6944444 9:16.095238 10:-18.777778 
0.8188305722378997 1:1.3333333 2:1.0118577 3:0.42733189 4:0.55531453 5:0.77865613 6:6.4 7:4.9230769 8:4.5714286 9:7.5294118 10:-32 
1 1:1.2183099 2:1.054878 3:0.41317365 4:0.51796407 5:0.84146341 6:5.0882353 7:5.3230769 8:6.6538462 9:14.416667 10:-19.222222 
1 1:1.2916667 2:1.0829694 3:0.43859649 4:0.56750572 5:0.83697234 6:5.1666667 7:4.65 8:6.6428571 9:9.5384615 10:-16.909091 
1 1:1.19 2:0.9500998 3:0.46666667 4:0.53785311 5:0.8243513 6:8.5 7:5.4090909 8:5.4090909 9:11.333333 10:-19.833333 
1 1:1.16 2:1.0175439 3:0.41690962 4:0.50728863 5:0.83625731 6:4.35 7:3.1926606 8:6.2142857 9:11.6 10:-24.857143 
1 1:1.173913 2:0.87096774 3:0.36666667 4:0.45 5:0.70967742 6:4.5 7:2.7 8:3 9:6.75 10:-18 
1 1:1.2156863 2:1.0666667 3:0.36863137 4:0.4955045 5:0.79354839 6:3.875 7:3.7575758 8:5.1666667 9:9.1851852 10:-15.5 
1 1:1.1544715 2:0.99824253 3:0.41318477 4:0.5273909 5:0.78207381 6:3.55 7:3.1381215 8:4.5806452 9:8.1142857 10:-21.846154 
1 1:1.4342105 2:1.1978022 3:0.33333333 4:0.55897436 5:0.71428571 6:5.45 7:4.5416667 8:4.1923077 9:9.9090909 10:-18.166667 
1 1:1.2735849 2:1.011236 3:0.41747573 4:0.52427184 5:0.80524345 6:4.5 7:5.1923077 8:5.1923077 9:7.9411765 10:-19.285714 
1 1:1.2647059 2:1.0268657 3:0.37411095 4:0.48933144 5:0.78507463 6:6.1428571 7:4.195122 8:4.7777778 9:13.230769 10:-17.2 
1 1:0.96808511 2:0.74437628 3:0.4041621 4:0.39868565 5:0.75460123 6:3.25 7:2.8 8:3.0333333 9:4.9189189 10:-18.2 
1 1:1.4393939 2:1.091954 3:0.4379085 4:0.62091503 5:0.77011494 6:6.7857143 7:4.2222222 8:4.75 9:7.9166667 10:-23.75 
1 1:1.2232143 2:1.0320151 3:0.44774688 4:0.52540748 5:0.87947269 6:5.7083333 7:5.1698113 8:8.5625 9:7.8285714 10:-19.571429 
1 1:1.3448276 2:1.1885714 3:0.43482587 4:0.62089552 5:0.83238095 6:6 7:3.3548387 8:7.0909091 9:13.565217 10:-17.333333 
1 1:1.0188679 2:0.95364238 3:0.42054054 4:0.46702703 5:0.85871965 6:3.8571429 7:4.2352941 8:6.75 9:9.3913043 10:-18 
1 1:1.1911765 2:1.022082 3:0.45187602 4:0.52854812 5:0.87381703 6:5.7857143 7:4.7647059 8:8.1 9:10.8 10:-27 
1 1:1.1397059 2:0.86834734 3:0.50087873 4:0.54481547 5:0.79831933 6:4.84375 7:3.1 8:4.3055556 9:7.0454545 10:-17.222222 
1 1:1.4090909 2:1.1698113 3:0.33333333 4:0.52991453 5:0.73584906 6:3.4444444 7:3.1 8:4.4285714 9:7.75 10:-20.666667 
1 1:1.2173913 2:0.96969697 3:0.4021978 4:0.49230769 5:0.79220779 6:5.6 7:3.862069 8:4.6666667 9:8.6153846 10:-18.666667 
1 1:1.3636364 2:1.0169492 3:0.42056075 4:0.56074766 5:0.76271186 6:6 7:5.4545455 8:4.2857143 9:7.5 10:-20 
1 1:1.46 2:1.140625 3:0.37984496 4:0.56589147 5:0.765625 6:7.3 7:5.4074074 8:4.8666667 9:9.125 10:-18.25 
1 1:1.0762712 2:0.88271069 3:0.49975382 4:0.50024618 5:0.88184188 6:7.9375 7:4.2333333 8:7.4705882 9:6.7733333 10:-14.111111 
1 1:1.2407407 2:0.9981378 3:0.45057232 4:0.55775234 5:0.80633147 6:5.1538462 7:4.1875 8:5.1538462 9:10.72 10:-19.142857 
1 1:1.2340426 2:1.0892019 3:0.39393939 4:0.54079254 5:0.79342723 6:3.8666667 7:4 8:5.2727273 9:19.333333 10:-19.333333 
1 1:1.1741573 2:1.0372208 3:0.36612022 4:0.4568306 5:0.83126551 6:4.5434783 7:5.4285714 8:6.1470588 9:12.294118 10:-17.416667 
1 1:1.4583333 2:1.1864407 3:0.39255014 4:0.6017192 5:0.7740113 6:4.375 7:4.375 8:5.25 9:8.75 10:-21 
1 1:1.037037 2:0.80286738 3:0.44689379 4:0.4488978 5:0.79928315 6:5.0909091 7:3.1111111 8:4 9:7 10:-18.666667 
1 1:0.96153846 2:0.80645161 3:0.51020408 4:0.51020408 5:0.80645161 6:6.25 7:3.5714286 8:4.1666667 9:12.5 10:-12.5 
1 1:1.4 2:1.05 3:0.34883721 4:0.48837209 5:0.75 6:5.25 7:4.6666667 8:4.2 9:7 10:-21 
1 1:1.25 2:1.0526316 3:0.47222222 4:0.55555556 5:0.89473684 6:6.6666667 7:5 8:10 9:10 10:-20 
1 1:1.1454545 2:0.91387126 3:0.45873911 4:0.51665812 5:0.81142339 6:5.04 7:4.1652893 8:4.8461538 9:10.285714 10:-18 
1 1:1.0869565 2:0.90909091 3:0.4368932 4:0.48543689 5:0.81818182 6:6.25 7:4.3478261 8:5 9:12.5 10:-25 
1 1:1.2413793 2:0.96969697 3:0.40949033 4:0.50615114 5:0.78451178 6:5.1428571 7:4.2352941 8:4.5 9:8.4705882 10:-14.4 
1 1:1.0408163 2:0.86257928 3:0.39559286 4:0.42812172 5:0.79704017 6:4.25 7:3.6428571 8:4.25 9:8.16 10:-14.571429 
1 1:1.2647059 2:1.1025641 3:0.33333333 4:0.49425287 5:0.74358974 6:4.3 7:2.3243243 8:4.3 9:8.6 10:-14.333333 
1 1:1.3409091 2:1.1053864 3:0.37485844 4:0.53454134 5:0.77517564 6:4.9166667 7:5.1304348 8:4.9166667 9:10.26087 10:-19.666667 
1 1:1 2:0.82051282 3:0.38866064 4:0.39441249 5:0.80854701 6:5.4545455 7:3.8095238 8:4.2857143 9:7.7419355 10:-10.909091 
1 1:1.3695652 2:1.0413223 3:0.40148148 4:0.56 5:0.74655647 6:4.9736842 7:3.2033898 8:4.1086957 9:7.2692308 10:-18.9 
1 1:1.0918367 2:0.79112754 3:0.5234474 4:0.54245881 5:0.76340111 6:8.9166667 7:3.1014493 8:3.34375 9:5.7837838 10:-17.833333 
1 1:1.1315789 2:0.91489362 3:0.41052632 4:0.45263158 5:0.82978723 6:5.375 7:5.0588235 8:5.375 9:7.1666667 10:-21.5 
1 1:1.1587302 2:0.98151261 3:0.41246798 4:0.49871904 5:0.81176471 6:3.65 7:4.358209 8:5.2142857 9:8.3428571 10:-20.857143 
1 1:1.3829787 2:1.2177986 3:0.41284404 4:0.68152031 5:0.73770492 6:5.9090909 7:3.0232558 8:4.6428571 9:15.294118 10:-32.5 
1 1:1.23125 2:0.96097561 3:0.38618926 4:0.50383632 5:0.73658537 6:4.2826087 7:3.1269841 8:3.6481481 9:9.3809524 10:-21.888889 
1 1:1.1081081 2:0.86089239 3:0.40864714 4:0.45746165 5:0.76902887 6:5.125 7:3.2156863 8:3.7272727 9:7.8095238 10:-20.5 
1 1:1.1363636 2:0.92592593 3:0.46808511 4:0.53191489 5:0.81481481 6:6.25 7:4.7619048 8:5 9:6.25 10:-25 
1 1:1.1882353 2:0.98416565 3:0.42074364 4:0.5270711 5:0.78562728 6:4.2083333 7:4.344086 8:4.5909091 9:7.6226415 10:-20.2 
1 1:1.5 2:1.2741313 3:0.37384899 4:0.60773481 5:0.78378378 6:5.5 7:6.4705882 8:5.8928571 9:13.75 10:-33 
1 1:1.1707317 2:1.0756303 3:0.39346405 4:0.50196078 5:0.84313725 6:4.3636364 7:3.84 8:6.8571429 9:8.3478261 10:-19.2 
1 1:1.4411765 2:1.4736842 3:0.24409449 4:0.5144357 5:0.69924812 6:3.5 7:3.7692308 8:4.9 9:14 10:-24.5 
1 1:1.4375 2:1.2488688 3:0.36268344 4:0.57861635 5:0.78280543 6:4.9285714 7:3.3658537 8:5.75 9:10.615385 10:-34.5 
1 1:1.5462963 2:1.2532833 3:0.33834586 4:0.55806182 5:0.75984991 6:4.9117647 7:4.9850746 8:5.21875 9:13.36 10:-20.875 
0.6973914292545107 1:1.4565217 2:1.0677291 3:0.31261426 4:0.48994516 5:0.6812749 6:5.5833333 7:4.6206897 8:3.35 9:8.9333333 10:-22.333333 
1 1:1.1571429 2:0.91525424 3:0.40869565 4:0.46956522 5:0.79661017 6:6.75 7:5.4 8:4.5 9:7.3636364 10:-20.25 
1 1:1.1307692 2:0.96710526 3:0.35672515 4:0.42982456 5:0.80263158 6:3.5 7:3.6296296 8:4.9 9:16.333333 10:-10.5 
1 1:1.125 2:0.98181818 3:0.37190083 4:0.44628099 5:0.81818182 6:6.75 7:3.8571429 8:5.4 9:7.7142857 10:-13.5 
1 1:0.89230769 2:0.68639053 3:0.57676349 4:0.4813278 5:0.82248521 6:9.6666667 7:4.0701754 8:3.8666667 9:8.9230769 10:-11.6 
1 1:1.1186441 2:0.94964029 3:0.390681 4:0.47311828 5:0.78417266 6:5.0769231 7:4.6315789 8:4.4 9:7.3333333 10:-18.857143 
1 1:1.1428571 2:0.93658537 3:0.39951574 4:0.46489104 5:0.80487805 6:4.8 7:4.5714286 8:4.8 9:7.3846154 10:-24 
0.6113642362276974 1:1.3602941 2:1.0995542 3:0.35178933 4:0.49966239 5:0.77414562 6:4.4047619 7:5.2112676 8:4.8684211 9:9.0243902 10:-26.428571 
1 1:1.125 2:0.87567568 3:0.40425532 4:0.49240122 5:0.71891892 6:4.5 7:3.375 8:3.1153846 9:6.75 10:-40.5 
1 1:1.3333333 2:1.1972789 3:0.36063936 4:0.52747253 5:0.8185941 6:4.7142857 7:5.0769231 8:6.6 9:14.666667 10:-18.857143 
0.1586319142780619 1:1.1052632 2:0.8 3:0.39459459 4:0.45405405 5:0.6952381 6:10.5 7:4.4210526 8:2.625 9:8.4 10:-21 
1 1:1.377193 2:1.162963 3:0.35153584 4:0.53583618 5:0.76296296 6:3.925 7:3.6941176 8:4.90625 9:8.7222222 10:-31.4 
1 1:1.1454545 2:1.05 3:0.46846847 4:0.56756757 5:0.86666667 6:5.25 7:3.8769231 8:7.875 9:15.75 10:-21 
1 1:1.2227723 2:1.0020284 3:0.41833509 4:0.52054795 5:0.80527383 6:4.4107143 7:4.2956522 8:5.1458333 9:7.4848485 10:-15.4375 
1 1:1.1764706 2:0.94674556 3:0.41214058 4:0.51118211 5:0.76331361 6:5 7:3.0769231 8:4 9:5.3333333 10:-13.333333 
0.02822575017972378 1:1.2598039 2:1.0889831 3:0.38818565 4:0.54219409 5:0.77966102 6:4.015625 7:3.9538462 8:4.9423077 9:16.0625 10:-17.133333 
1 1:1.2179487 2:0.95118899 3:0.39642621 4:0.50297816 5:0.74968711 6:5.2777778 7:4.1758242 8:3.8 9:8.8372093 10:-21.111111 
1 1:1.3287671 2:1.0615595 3:0.43302622 4:0.54996456 5:0.83584131 6:8.0833333 7:3.4954955 8:6.4666667 9:7.6078431 10:-16.166667 
0.6828393367012352 1:1.2972973 2:0.97959184 3:0.34134615 4:0.46153846 5:0.7244898 6:3.84 7:4.626506 8:3.5555556 9:12 10:-17.454545 
1 1:1.2692308 2:1.0102041 3:0.39795918 4:0.50510204 5:0.79591837 6:5.5 7:4.4 8:4.95 9:7.6153846 10:-16.5 
0.3179607601415474 1:1.2068966 2:1.0071942 3:0.38351254 4:0.50179211 5:0.76978417 6:5.8333333 7:3.7837838 8:4.375 9:14 10:-17.5 
1 1:1.1388889 2:0.97619048 3:0.34782609 4:0.44565217 5:0.76190476 6:4.1 7:3.5652174 8:4.1 9:13.666667 10:-20.5 
1 1:1.1444444 2:0.9321267 3:0.42298289 4:0.50366748 5:0.78280543 6:3.9615385 7:3.6140351 8:4.2916667 9:8.5833333 10:-20.6 
1 1:1.1031746 2:0.94880546 3:0.43545611 4:0.47848537 5:0.86348123 6:4.9642857 7:4.4126984 8:6.95 9:10.692308 10:-23.166667 
1 1:1.2328767 2:0.92544987 3:0.44588745 4:0.51948052 5:0.79434447 6:5.625 7:5.1428571 8:4.5 9:6.6666667 10:-16.363636 
1 1:1.2105263 2:0.97354497 3:0.36246787 4:0.47300771 5:0.74603175 6:4.6 7:3.0666667 8:3.8333333 9:6.1333333 10:-23 
1 1:1.0785714 2:0.81401617 3:0.50592217 4:0.51099831 5:0.80592992 6:5.8076923 7:3.8717949 8:4.1944444 9:6.2916667 10:-16.777778 
1 1:1.1290323 2:0.77994429 3:0.39280125 4:0.43818466 5:0.69916435 6:5 7:2.8571429 8:2.5925926 9:5 10:-23.333333 
1 1:1.1555556 2:0.94117647 3:0.43358396 4:0.52130326 5:0.78280543 6:4.952381 7:3.4957983 8:4.3333333 9:9.9047619 10:-16 
1 1:1.1944444 2:1.0361446 3:0.39181287 4:0.50292398 5:0.80722892 6:5.375 7:3.7391304 8:5.375 9:10.75 10:-21.5 
1 1:1.2898551 2:1.0113636 3:0.37222222 4:0.49444444 5:0.76136364 6:4.45 7:4.2891566 8:4.2380952 9:7.4166667 10:-17.8 
1 1:1.109375 2:0.84776119 3:0.44186047 4:0.50805009 5:0.73731343 6:5.4615385 7:3.9444444 8:3.2272727 9:6.4545455 10:-28.4 
1 1:1.22 2:0.98585859 3:0.43179256 4:0.55016911 5:0.77373737 6:4.6923077 7:3.6969697 8:4.3571429 9:10.608696 10:-20.333333 
1 1:1.0775862 2:0.89605735 3:0.46292585 4:0.501002 5:0.82795699 6:4.8076923 7:4.3103448 8:5.2083333 9:7.8125 10:-25 
1 1:1.3636364 2:1.0084034 3:0.43127962 4:0.56872038 5:0.76470588 6:7.5 7:5 8:4.2857143 9:6.6666667 10:-20 
1 1:1.25 2:1.0240964 3:0.4248366 4:0.55555556 5:0.78313253 6:4.7222222 7:4.1463415 8:4.7222222 9:10.625 10:-28.333333 
1 1:1.328125 2:1.1003236 3:0.36744186 4:0.52713178 5:0.76699029 6:4.25 7:3.7777778 8:4.7222222 9:10 10:-14.166667 
1 1:1.0344828 2:0.85714286 3:0.46666667 4:0.5 5:0.8 6:6 7:2.7906977 8:4.2857143 9:10 10:-20 
1 1:1.2128713 2:1.0134436 3:0.44558744 4:0.53059015 5:0.85108583 6:6.125 7:3.828125 8:6.8055556 9:11.395349 10:-24.5 
1 1:1.2105263 2:0.96335079 3:0.43019943 4:0.52421652 5:0.79057592 6:5.75 7:3.68 8:4.6 9:10.222222 10:-23 
0.582830376555052 1:1.4285714 2:1.1428571 3:0.37321937 4:0.56980057 5:0.74857143 6:8.3333333 7:3.2258065 8:4.5454545 9:10 10:-20 
0.4515875831606053 1:1.3863636 2:1.1090909 3:0.41747573 4:0.59223301 5:0.78181818 6:7.625 7:4.0666667 8:5.0833333 9:15.25 10:-30.5 
1 1:1.2125 2:0.97121402 3:0.42289874 4:0.51356717 5:0.79974969 6:5.3888889 7:4.9113924 8:4.85 9:8.6222222 10:-16.166667 
1 1:1.1129032 2:0.96167247 3:0.40691928 4:0.45469522 5:0.86062718 6:4.9285714 7:4.9285714 8:6.9 9:8.1176471 10:-17.25 
0.1187185199845697 1:1.1111111 2:0.91954023 3:0.43558282 4:0.49079755 5:0.81609195 6:6.6666667 7:4.4444444 8:5 9:20 10:-13.333333 
1 1:1.3928571 2:1.2356436 3:0.36675462 4:0.54881266 5:0.82574257 6:4.5882353 7:4.3943662 8:7.0909091 9:12.48 10:-17.333333 
1 1:1.1772152 2:0.93702771 3:0.48613139 4:0.54306569 5:0.83879093 6:5.8125 7:4.96 8:5.8125 9:7.75 10:-16.909091 
1 1:0.98672566 2:0.79148181 3:0.55372871 4:0.52378156 5:0.83673469 6:4.46 7:4.2075472 8:4.8478261 9:7.559322 10:-20.272727 
1 1:1.1533333 2:0.90932983 3:0.4474651 4:0.50844967 5:0.80026281 6:6.1785714 7:3.7204301 8:4.5526316 9:7.0612245 10:-28.833333 
1 1:1.1 2:0.80487805 3:0.43661972 4:0.46478873 5:0.75609756 6:4.125 7:2.75 8:3.3 9:6.6 10:-16.5 
1 1:1.2373737 2:1.026178 3:0.43338954 4:0.55087128 5:0.80732984 6:3.9516129 7:4.7115385 8:5.326087 9:11.95122 10:-16.333333 
1 1:1.4835165 2:1.0609037 3:0.46371464 4:0.66420664 5:0.74066798 6:6.1363636 7:5.5102041 8:4.0909091 9:6.5853659 10:-22.5 
1 1:1.2142857 2:1.0967742 3:0.41538462 4:0.52307692 5:0.87096774 6:4.25 7:4.8571429 8:8.5 9:17 10:-17 
1 1:1.037037 2:0.80286738 3:0.44689379 4:0.4488978 5:0.79928315 6:5.0909091 7:3.1111111 8:4 9:7 10:-18.666667 
1 1:1.0357143 2:0.87218045 3:0.3808948 4:0.42079807 5:0.78947368 6:4.8333333 7:3.1926606 8:4.1428571 9:7.9090909 10:-19.333333 
1 1:1.1119403 2:0.92260062 3:0.39116203 4:0.48772504 5:0.73993808 6:6.2083333 7:3.8701299 8:3.547619 9:7.8421053 10:-24.833333 
1 1:1.1829268 2:0.93719807 3:0.43324251 4:0.52861035 5:0.76811594 6:4.4090909 7:4.6190476 8:4.0416667 9:6.4666667 10:-24.25 
1 1:1.5333333 2:1.1719745 3:0.34346505 4:0.55927052 5:0.71974522 6:5.1111111 7:4.2790698 8:4.1818182 9:7.6666667 10:-46 
1 1:1.2407407 2:0.97810219 3:0.38461538 4:0.49084249 5:0.76642336 6:4.1875 7:3.8285714 8:4.1875 9:8.375 10:-16.75 
1 1:1.0795455 2:0.95 3:0.41237113 4:0.48969072 5:0.8 6:5.2777778 7:3.8 8:4.75 9:23.75 10:-15.833333 
1 1:1.140625 2:0.86646884 3:0.4516696 4:0.51318102 5:0.76261128 6:3.65 7:3.7435897 8:3.65 9:6.952381 10:-24.333333 
1 1:1.3478261 2:0.99398798 3:0.41715629 4:0.58284371 5:0.71142285 6:5.1666667 7:3.1794872 8:3.4444444 9:11.809524 10:-24.8 
1 1:1.4086022 2:1.1428571 3:0.38037135 4:0.55596817 5:0.78189749 6:4.6785714 7:4.2258065 8:5.24 9:11.644444 10:-17.466667 
1 1:1.1864407 2:1.038961 3:0.38931298 4:0.4749788 5:0.85157699 6:5 7:3.5443038 8:7 9:8.4848485 10:-17.5 
1 1:1.1931818 2:1.0194175 3:0.40096618 4:0.50724638 5:0.80582524 6:4.7727273 7:2.9577465 8:5.25 9:13.125 10:-17.5 
0.01433043457693089 1:1.46 2:1.1726908 3:0.36196319 4:0.59713701 5:0.71084337 6:6.0833333 7:4.5625 8:4.0555556 9:11.230769 10:-36.5 
1 1:1.0625 2:0.85858586 3:0.48823529 4:0.5 5:0.83838384 6:4.7222222 7:3.8202247 8:5.3125 9:6.5384615 10:-15.454545 
1 1:0.95454545 2:0.77300613 3:0.40836013 4:0.40514469 5:0.7791411 6:3.9375 7:2.7391304 8:3.5 9:7.875 10:-15.75 
0.5483245992780287 1:1.25 2:1.0169492 3:0.3495935 4:0.48780488 5:0.72881356 6:5.625 7:3.2142857 8:3.75 9:10 10:-15 
1 1:1.1397059 2:0.86834734 3:0.50087873 4:0.54481547 5:0.79831933 6:4.84375 7:3.1 8:4.3055556 9:7.0454545 10:-17.222222 
1 1:1.352459 2:1.1262799 3:0.36466775 4:0.53484603 5:0.76791809 6:3.9285714 7:4.125 8:4.8529412 9:11 10:-23.571429 
1 1:1.1893939 2:0.94152924 3:0.54396135 4:0.60676329 5:0.84407796 6:6.0384615 7:5.5087719 8:6.0384615 9:8.4864865 10:-19.625 
1 1:1.1 2:0.94964029 3:0.38909091 4:0.48 5:0.76978417 6:4.125 7:2.64 8:4.125 9:7.3333333 10:-16.5 
1 1:1 2:0.73758865 3:0.37546468 4:0.3866171 5:0.71631206 6:4.3333333 7:2.4761905 8:2.6 9:5.7777778 10:-13 
1 1:1.1666667 2:0.88687783 3:0.39192399 4:0.46555819 5:0.74660633 6:4.0833333 7:3.6296296 8:3.5 9:6.5333333 10:-16.333333 
1 1:1.1636364 2:1.024 3:0.45606695 4:0.53556485 5:0.872 6:4.9230769 7:4.4912281 8:8 9:9.8461538 10:-18.285714 
1 1:1.2916667 2:1.0214168 3:0.40765957 4:0.52765957 5:0.78912685 6:4.84375 7:4.3055556 8:4.84375 9:7.5609756 10:-19.375 
1 1:1.2462687 2:0.95839311 3:0.39456282 4:0.49081558 5:0.77044476 6:3.9761905 7:4.6388889 8:4.175 9:6.8163265 10:-20.875 
1 1:1.4107143 2:1.1205674 3:0.42322097 4:0.5917603 5:0.80141844 6:4.9375 7:5.2666667 8:5.6428571 9:14.363636 10:-22.571429 
0.1557588648937946 1:1.2741935 2:1.0711864 3:0.44973545 4:0.55731922 5:0.86440678 6:5.6428571 7:5.6428571 8:7.9 9:9.2941176 10:-39.5 
1 1:1.32 2:1.1733333 3:0.34502924 4:0.51461988 5:0.78666667 6:3.6666667 7:4.4 8:5.5 9:10.153846 10:-22 
1 1:1.1029412 2:0.90909091 3:0.40923077 4:0.46153846 5:0.80606061 6:5.3571429 7:4.0540541 8:4.6875 9:8.3333333 10:-18.75 
1 1:1.2053571 2:1.0577865 3:0.46477446 4:0.54738976 5:0.89813908 6:4.5 7:5.1428571 8:10.384615 9:7.826087 10:-24.545455 
1 1:1.1811594 2:0.97751124 3:0.48744589 4:0.56450216 5:0.84407796 6:6.2692308 7:4.6571429 8:6.2692308 9:7.9512195 10:-27.166667 
0.3088438371284344 1:1.0540541 2:0.93413174 3:0.51890034 4:0.53608247 5:0.90419162 6:4.875 7:6 8:9.75 9:11.142857 10:-15.6 
1 1:1.1969697 2:1.0047695 3:0.50617284 4:0.60018993 5:0.84737679 6:5.2666667 7:5.6428571 8:6.5833333 9:11.703704 10:-26.333333 
1 1:1.4615385 2:1.1343284 3:0.35877863 4:0.58015267 5:0.70149254 6:6.3333333 7:4 8:3.8 9:9.5 10:-19 
0.1150969426792673 1:1.3916667 2:1.1577123 3:0.35429057 4:0.5675446 5:0.72270364 6:3.7954545 7:3.9761905 8:4.175 9:8.5641026 10:-33.4 
1 1:1.1311475 2:0.92 3:0.5826087 4:0.6 5:0.89333333 6:6.2727273 7:6.4186047 8:8.625 9:9.8571429 10:-19.714286 
1 1:1.0333333 2:0.79657388 3:0.44759556 4:0.45869297 5:0.77730193 6:4.65 7:2.4635762 8:3.5769231 9:5.8125 10:-16.909091 
1 1:1.1842105 2:0.93425606 3:0.39414802 4:0.46471601 5:0.79238754 6:4.8214286 7:4.4262295 8:4.5 9:6.1363636 10:-16.875 
1 1:1.0416667 2:0.82304527 3:0.46539379 4:0.47732697 5:0.80246914 6:6.25 7:4.7619048 8:4.1666667 9:20 10:-16.666667 
1 1:1.2741935 2:1.1126761 3:0.31736527 4:0.47305389 5:0.74647887 6:3.5909091 7:2.9259259 8:4.3888889 9:8.7777778 10:-26.333333 
0.6066213065428531 1:1.1153846 2:0.96185738 3:0.44734625 4:0.48862679 5:0.88059701 6:4.0277778 7:6.3043478 8:8.0555556 9:9.3548387 10:-24.166667 
1 1:1.0729167 2:0.88412017 3:0.35378323 4:0.42126789 5:0.74248927 6:3.21875 7:2.7466667 8:3.4333333 9:6.0588235 10:-20.6 
1 1:1.4104478 2:1.0588235 3:0.38239538 4:0.54545455 5:0.74229692 6:6.3 7:5.90625 8:4.1086957 9:8.2173913 10:-18.9 
0.01533281210229159 1:1.0882353 2:0.90797546 3:0.41137124 4:0.49498328 5:0.75460123 6:9.25 7:2.1142857 8:3.7 9:14.8 10:-18.5 
1 1:1.1203704 2:0.98274112 3:0.47816473 4:0.53510227 5:0.87817259 6:4.6538462 7:5.0416667 8:8.0666667 9:9.1320755 10:-18.615385 
1 1:1.4705882 2:1.2048193 3:0.3236715 4:0.48309179 5:0.80722892 6:3.5714286 7:2.8571429 8:6.25 9:7.1428571 10:-50 
1 1:1.1076923 2:0.87671233 3:0.45683152 4:0.48281643 5:0.82952816 6:5.1428571 7:4.4307692 8:5.1428571 9:7.0243902 10:-18 
0.09750731718754239 1:0.94444444 2:0.68 3:0.34 4:0.34 5:0.68 6:2.8333333 7:2.9565217 8:2.125 9:8.5 10:-11.333333 
1 1:0.90909091 2:0.73394495 3:0.41463415 4:0.3902439 5:0.77981651 6:5 7:2.6666667 8:3.3333333 9:5.7142857 10:-20 
1 1:1.1349206 2:0.98876404 3:0.47850732 4:0.54038734 5:0.87554019 6:4.7666667 7:4.7272727 8:7.9444444 9:12.170213 10:-15.888889 
1 1:1.53125 2:1.2645161 3:0.32394366 4:0.55211268 5:0.74193548 6:3.5 7:6.125 8:4.9 9:10.888889 10:-24.5 
1 1:1.2931034 2:1.0714286 3:0.453125 4:0.5859375 5:0.82857143 6:5.3571429 7:3.75 8:6.25 9:7.5 10:-37.5 
1 1:1.3684211 2:1.0721649 3:0.33333333 4:0.51741294 5:0.69072165 6:4.3333333 7:3.4098361 8:3.4666667 9:6.5 10:-17.333333 
1 1:1.3854167 2:1.1981982 3:0.41293532 4:0.66169154 5:0.74774775 6:5.5416667 7:3.0930233 8:4.75 9:14.777778 10:-26.6 
1 1:1.4591837 2:1.1818182 3:0.35632184 4:0.54789272 5:0.76859504 6:7.15 7:4.6129032 8:5.1071429 9:7.15 10:-20.428571 
1 1:1.2241379 2:0.96598639 3:0.42857143 4:0.54826255 5:0.75510204 6:4.4375 7:4.8965517 8:3.9444444 9:7.8888889 10:-17.75 
1 1:1.2836538 2:1.0298939 3:0.42534633 4:0.54797332 5:0.79942141 6:7.4166667 7:4.9444444 8:5.1346154 9:9.7090909 10:-20.538462 
1 1:1.3214286 2:1.0724638 3:0.37588652 4:0.5248227 5:0.76811594 6:4.625 7:4.625 8:4.625 9:7.4 10:-37 
1 1:1.2333333 2:0.95308188 3:0.43894066 4:0.5080922 5:0.82336707 6:5.18 7:5.6923077 8:5.3958333 9:7.9692308 10:-16.1875 
1 1:1.030303 2:0.82424242 3:0.50929368 4:0.50557621 5:0.83030303 6:6.8 7:5.2307692 8:4.8571429 9:6.8 10:-17 
0.2224925066314071 1:1.2380952 2:1.029703 3:0.3492823 4:0.49760766 5:0.72277228 6:6.5 7:3.3548387 8:3.7142857 9:26 10:-13 
0.1281349930308327 1:1.1860465 2:1.0174564 3:0.39470366 4:0.51450189 5:0.78054863 6:5.1 7:4.3404255 8:4.6363636 9:22.666667 10:-20.4 
1 1:1.6746032 2:1.4938053 3:0.35839599 4:0.70509607 5:0.75929204 6:4.7954545 7:3.080292 8:6.2058824 9:10.820513 10:-30.142857 
1 1:1.0294118 2:0.81871345 3:0.46488294 4:0.46822742 5:0.8128655 6:5.8333333 7:3.3333333 8:4.375 9:7.7777778 10:-17.5 
1 1:1.2252252 2:1.0196813 3:0.47093333 4:0.58026667 5:0.82755389 6:4.6896552 7:4.8141593 8:5.9130435 9:8.9180328 10:-30.222222 
1 1:1.2 2:0.97363083 3:0.45958987 4:0.57901086 5:0.77281947 6:4.2857143 7:4.6153846 8:4.2857143 9:7.7419355 10:-40 
1 1:1.3148148 2:1.1137255 3:0.43639922 4:0.55577299 5:0.8745098 6:7.1 7:6.4545455 8:8.875 9:9.4666667 10:-17.75 
1 1:1.0909091 2:0.98969072 3:0.44508671 4:0.55491329 5:0.79381443 6:4 7:2.6666667 8:4.8 9:12 10:-16 
1 1:1.25 2:0.97938144 3:0.41242938 4:0.53672316 5:0.75257732 6:5.9375 7:4.2222222 8:3.9583333 9:6.7857143 10:-31.666667 
1 1:1.0517241 2:0.85017422 3:0.45205479 4:0.47749511 5:0.80487805 6:5.0833333 7:2.9047619 8:4.3571429 9:13.555556 10:-15.25 
1 1:1.1428571 2:0.94581281 3:0.42118863 4:0.49612403 5:0.80295567 6:4.8 7:3.84 8:4.8 9:10.666667 10:-16 
1 1:1.3666667 2:1.1714286 3:0.38666667 4:0.54666667 5:0.82857143 6:5.125 7:3.9047619 8:6.8333333 9:20.5 10:-13.666667 
1 1:1.3235294 2:1.037464 3:0.31193838 4:0.46213094 5:0.70028818 6:4.0909091 7:3.1034483 8:3.4615385 9:7.826087 10:-22.5 
1 1:0.98076923 2:0.73646209 3:0.42746615 4:0.39458414 5:0.79783394 6:5.1 7:3.1875 8:3.6428571 9:4.8571429 10:-12.75 
1 1:1.2142857 2:0.90666667 3:0.45038168 4:0.51908397 5:0.78666667 6:8.5 7:5.2307692 8:4.25 9:6.8 10:-17 
1 1:0.97727273 2:0.85572139 3:0.4796748 4:0.46612466 5:0.88059701 6:4.3 7:3.7391304 8:7.1666667 9:9.5555556 10:-14.333333 
1 1:1.3 2:1.02693 3:0.35647756 4:0.48433531 5:0.75583483 6:3.7631579 7:4.3333333 8:4.2058824 9:7.7297297 10:-20.428571 
1 1:1.1770833 2:0.9596603 3:0.41675734 4:0.49183896 5:0.81316348 6:4.3461538 7:4.9130435 8:5.1363636 9:11.894737 10:-22.6 
1 1:1.1444444 2:0.94930876 3:0.41728395 4:0.50864198 5:0.77880184 6:5.7222222 7:3.6785714 8:4.2916667 9:11.444444 10:-25.75 
1 1:1.2446809 2:0.9978678 3:0.39459459 4:0.50594595 5:0.7782516 6:4.875 7:3.2054795 8:4.5 9:9.36 10:-16.714286 
1 1:1.2315789 2:0.98216159 3:0.39334424 4:0.5106383 5:0.75655824 6:4.1785714 7:3.6850394 8:4.0344828 9:12 10:-19.5 
1 1:1.0970149 2:0.89770992 3:0.48546256 4:0.51806167 5:0.84122137 6:8.1666667 7:4.3880597 8:5.6538462 9:10.137931 10:-16.333333 
1 1:1.1232877 2:1.0107858 3:0.42054693 4:0.48484848 5:0.87673344 6:4.3157895 7:5.125 8:8.2 9:8.8648649 10:-18.222222 
1 1:1.1147541 2:0.86349206 3:0.39205527 4:0.46977547 5:0.72063492 6:4.5333333 7:3.0909091 8:3.0909091 9:7.5555556 10:-22.666667 
1 1:1.3269231 2:1.0574713 3:0.50572082 4:0.63157895 5:0.8467433 6:8.625 7:4.6 8:6.9 9:9.2 10:-23 
1 1:1.1923077 2:0.91512915 3:0.41153082 4:0.49304175 5:0.76383764 6:7.75 7:3.4444444 8:3.875 9:9.5384615 10:-15.5 
1 1:1.2 2:1.0762332 3:0.38204593 4:0.50104384 5:0.8206278 6:6 7:4.2857143 8:6 9:8 10:-20 
1 1:1.2619048 2:0.9339207 3:0.43552311 4:0.51581509 5:0.78854626 6:5.3 7:5.3 8:4.4166667 9:6.2352941 10:-17.666667 
1 1:1.0342466 2:0.78339818 3:0.47294118 4:0.47372549 5:0.78210117 6:5.0333333 7:3.8717949 8:3.5952381 9:5.2982456 10:-21.571429 
1 1:1.1428571 2:0.96969697 3:0.41232227 4:0.4549763 5:0.87878788 6:6 7:6 8:8 9:9.6 10:-16 
1 1:1.3833333 2:1.0624 3:0.40611354 4:0.57991266 5:0.744 6:4.8823529 7:4.3684211 8:4.15 9:6.7755102 10:-27.666667 
1 1:1.1150442 2:0.97769156 3:0.47835382 4:0.53874933 5:0.86808923 6:5.04 7:5.04 8:7.4117647 9:15.272727 10:-16.8 
1 1:1.25 2:1.0223642 3:0.37134052 4:0.49306626 5:0.76996805 6:5.7142857 7:3.902439 8:4.4444444 9:8.4210526 10:-20 
1 1:1.2978723 2:1.0166667 3:0.42857143 4:0.54464286 5:0.8 6:3.8125 7:7.1764706 8:5.0833333 9:9.3846154 10:-20.333333 
1 1:1.11875 2:0.96626181 3:0.44576627 4:0.50104969 5:0.85964912 6:6.3928571 7:4.313253 8:6.8846154 9:11.548387 10:-19.888889 
0.9565654459099959 1:1.3333333 2:0.97959184 3:0.36263736 4:0.52747253 5:0.67346939 6:4.8 7:4 8:3 9:8 10:-24 
1 1:1.2222222 2:0.95652174 3:0.41463415 4:0.53658537 5:0.73913043 6:7.3333333 7:3.3846154 8:3.6666667 9:22 10:-22 
1 1:1.143617 2:0.87221095 3:0.49809886 4:0.54499366 5:0.79716024 6:5.6578947 7:4.0952381 8:4.3 9:6.71875 10:-14.333333 
1 1:1.2009804 2:0.97804391 3:0.40468909 4:0.49949032 5:0.79241517 6:4.2241379 7:4.0163934 8:4.7115385 9:9.0740741 10:-18.846154 
1 1:1.122807 2:0.96603774 3:0.43313373 4:0.51097804 5:0.81886792 6:4.5714286 7:4.0634921 8:5.3333333 9:9.1428571 10:-14.222222 
1 1:1.375 2:1.0292398 3:0.37321937 4:0.5014245 5:0.76608187 6:4.8888889 7:4.4 8:4.4 9:8.8 10:-17.6 
1 1:1.3186813 2:1.1162791 3:0.40983607 4:0.56206089 5:0.81395349 6:4 7:6 8:6 9:12 10:-18.461538 
1 1:1.15 2:0.97354497 3:0.33487298 4:0.42494226 5:0.76719577 6:3.8333333 7:3.5384615 8:4.1818182 9:8.3636364 10:-15.333333 
1 1:1.1634615 2:1.0453564 3:0.43042071 4:0.52211435 5:0.86177106 6:5.0416667 7:4.245614 8:7.5625 9:14.235294 10:-24.2 
1 1:1.0714286 2:0.94240838 3:0.42535211 4:0.50704225 5:0.79057592 6:4.5 7:3.9130435 8:4.5 9:8.1818182 10:-18 
1 1:1.1542056 2:0.97532083 3:0.39178915 4:0.50076026 5:0.76307996 6:3.859375 7:3.2715232 8:4.1166667 9:9.6862745 10:-17.642857 
1 1:1.3763441 2:1.1314917 3:0.42114189 4:0.57885811 5:0.82320442 6:6.7368421 7:3.6056338 8:6.4 9:10.039216 10:-19.692308 
1 1:1.6551724 2:1.3714286 3:0.33793103 4:0.66206897 5:0.7 6:5.3333333 7:2.9538462 8:4.5714286 9:9.6 10:-48 
1 1:1.35 2:1.119171 3:0.40821918 4:0.59178082 5:0.77202073 6:5.4 7:3.5409836 8:4.9090909 9:8.3076923 10:-21.6 
1 1:1.2428571 2:0.99428571 3:0.42507645 4:0.53211009 5:0.79428571 6:5.4375 7:3.7826087 8:4.8333333 9:10.875 10:-14.5 
1 1:1.4339623 2:1.1805825 3:0.36408243 4:0.5966634 5:0.72038835 6:7.6 7:4 8:4.2222222 9:8.6857143 10:-21.714286 
0.8463776854149654 1:1.2727273 2:1.0434783 3:0.38108883 4:0.48137536 5:0.82608696 6:10.5 7:2.9473684 8:6 9:10.5 10:-21 
1 1:1 2:0.82962963 3:0.35888502 4:0.3902439 5:0.76296296 6:7 7:2.6666667 8:3.5 9:11.2 10:-9.3333333 
1 1:1.34375 2:1.1390728 3:0.36391437 4:0.52599388 5:0.78807947 6:7.1666667 7:2.5294118 8:5.375 9:9.5555556 10:-21.5 
1 1:1.2058824 2:1.062635 3:0.44983089 4:0.55467869 5:0.86177106 6:5.125 7:5.125 8:7.6875 9:8.4827586 10:-17.571429 
1 1:1.2733333 2:1.048011 3:0.4695451 4:0.58905166 5:0.83539095 6:6.3666667 7:7.2075472 8:6.3666667 9:9.7948718 10:-17.363636 
1 1:1.1923077 2:0.97382199 3:0.38618926 4:0.47570332 5:0.79057592 6:7.75 7:4.4285714 8:4.65 9:11.625 10:-18.6 
1 1:1.0405405 2:0.92771084 3:0.46794872 4:0.49358974 5:0.87951807 6:4.8125 7:4.4 8:7.7 9:8.1052632 10:-19.25 
1 1:1.1607143 2:0.94890511 3:0.46122449 4:0.53061224 5:0.82481752 6:8.125 7:4.3333333 8:5.4166667 9:9.2857143 10:-16.25 
1 1:1.3125 2:1.1448041 3:0.38857603 4:0.54062751 5:0.82282794 6:4.9411765 7:4.0481928 8:6.4615385 9:10.181818 10:-24 
1 1:1.1973684 2:0.91572327 3:0.39592909 4:0.47800394 5:0.75849057 6:4.55 7:4.9863014 8:3.7916667 9:5.4328358 10:-16.545455 
1 1:1.1875 2:1.0133333 3:0.36062378 4:0.44444444 5:0.82222222 6:4.0714286 7:3.5625 8:5.7 9:10.363636 10:-11.4 
0.8451441173462356 1:1.2058824 2:1.0207469 3:0.42604857 4:0.54304636 5:0.80082988 6:4.1 7:6 8:5.125 9:15.375 10:-30.75 
1 1:1.1944444 2:1.0445344 3:0.45572354 4:0.55723542 5:0.85425101 6:5.8636364 7:5.0588235 8:7.1666667 9:9.2142857 10:-25.8 
1 1:1.1666667 2:0.98402556 3:0.47722772 4:0.60990099 5:0.76996805 6:4.8125 7:2.9056604 8:4.2777778 9:10.266667 10:-15.4 
1 1:1.255102 2:1.0468085 3:0.35824176 4:0.54065934 5:0.69361702 6:3.84375 7:3.4647887 8:3.4166667 9:6.8333333 10:-30.75 
1 1:1.3918919 2:1.0729167 3:0.37362637 4:0.56593407 5:0.70833333 6:5.15 7:4.3829787 8:3.6785714 9:10.3 10:-20.6 
1 1:0.94230769 2:0.73545966 3:0.44827586 4:0.40961338 5:0.80487805 6:7 7:3.1612903 8:3.7692308 9:7.84 10:-12.25 
1 1:1.3 2:1.0590631 3:0.3797841 4:0.51030422 5:0.78818737 6:4.3333333 7:3.0952381 8:5 9:7.8787879 10:-26 
1 1:1.3301887 2:1.0405904 3:0.40489642 4:0.53107345 5:0.79335793 6:6.4090909 7:8.2941176 8:5.0357143 9:9.4 10:-20.142857 
1 1:1.1145833 2:0.92440605 3:0.47354839 4:0.55225806 5:0.79265659 6:7.6428571 7:4.28 8:4.4583333 9:8.56 10:-26.75 
1 1:1.037037 2:0.80286738 3:0.44689379 4:0.4488978 5:0.79928315 6:5.0909091 7:3.1111111 8:4 9:7 10:-18.666667 
1 1:1.05 2:0.83168317 3:0.39086294 4:0.42639594 5:0.76237624 6:5.25 7:3.6521739 8:3.5 9:7 10:-14 
1 1:1.078125 2:0.91694352 3:0.45549738 4:0.48167539 5:0.86710963 6:4.9285714 7:5.3076923 8:6.9 9:9.2 10:-17.25 
1 1:1.1538462 2:0.90225564 3:0.44489796 4:0.48979592 5:0.81954887 6:7.5 7:3.3333333 8:5 9:8.5714286 10:-15 
1 1:1.1309524 2:0.87155963 3:0.47486034 4:0.53072626 5:0.77981651 6:4.3181818 7:4.75 8:3.9583333 9:5.9375 10:-19 
1 1:1 2:0.76749436 3:0.44544288 4:0.436457 5:0.78329571 6:6.5384615 7:2.8099174 8:3.5416667 9:7.0833333 10:-17 
1 1:1.1153846 2:0.96989967 3:0.50664137 4:0.55028463 5:0.89297659 6:4.8333333 7:5.6862745 8:9.0625 9:9.6666667 10:-16.111111 
1 1:1.25 2:1.0185185 3:0.42857143 4:0.56122449 5:0.77777778 6:5.5 7:4.0740741 8:4.5833333 9:6.875 10:-55 
1 1:1.22 2:1.0187891 3:0.40805223 4:0.53101197 5:0.782881 6:4.6923077 7:3.8125 8:4.6923077 9:10.608696 10:-20.333333 
1 1:1.2941176 2:1.1578947 3:0.3125 4:0.45833333 5:0.78947368 6:3.1428571 7:3.2592593 8:5.5 9:11 10:-14.666667 
1 1:1.25 2:1.0362694 3:0.43002545 4:0.50890585 5:0.87564767 6:6.25 7:5.2631579 8:8.3333333 9:11.111111 10:-16.666667 
1 1:1.2333333 2:1.0571429 3:0.46031746 4:0.58730159 5:0.82857143 6:6.1666667 7:4.625 8:6.1666667 9:12.333333 10:-37 
1 1:1.2209302 2:0.9610984 3:0.4136646 4:0.52173913 5:0.76201373 6:5.25 7:3.5 8:4.0384615 9:9.1304348 10:-17.5 
1 1:0.88655462 2:0.73647469 3:0.49039434 4:0.42669363 5:0.84642234 6:6.2058824 7:3.3228346 8:4.7954545 9:9.173913 10:-14.066667 
1 1:1.5322581 2:1.4285714 3:0.33933934 4:0.57057057 5:0.84962406 6:5.2777778 7:4.6341463 8:9.5 9:11.875 10:-19 
1 1:1.2391304 2:1.027027 3:0.33603239 4:0.46153846 5:0.74774775 6:7.125 7:4.3846154 8:4.0714286 9:8.1428571 10:-28.5 
1 1:1.3421053 2:1.1396648 3:0.33819951 4:0.49635036 5:0.77653631 6:3.4 7:3.5789474 8:5.1 9:12.75 10:-17 
1 1:1.0869565 2:0.90497738 3:0.4559194 4:0.50377834 5:0.81900452 6:5 7:4.1666667 8:5 9:7.6923077 10:-12.5 
1 1:1.0803571 2:0.90130354 3:0.49635796 4:0.50364204 5:0.88826816 6:5.7619048 7:5.2043011 8:8.0666667 9:10.521739 10:-14.235294 
1 1:1.0208333 2:0.84482759 3:0.4137931 4:0.42241379 5:0.82758621 6:6.125 7:2.969697 8:4.9 9:8.1666667 10:-16.333333 
1 1:1.2234043 2:1.0574713 3:0.42111507 4:0.54567023 5:0.81609195 6:5.2272727 7:5.3488372 8:5.75 9:10.952381 10:-14.375 
0.7021498600168732 1:1.1969697 2:1.025974 3:0.39869281 4:0.51633987 5:0.79220779 6:4.9375 7:5.0967742 8:4.9375 9:9.875 10:-19.75 
1 1:1.15625 2:0.86046512 3:0.43661972 4:0.52112676 5:0.72093023 6:6.1666667 7:3.7 8:3.0833333 9:6.1666667 10:-37 
1 1:1.4508197 2:1.1919192 3:0.5009901 4:0.7009901 5:0.85185185 6:8.85 7:5.1304348 8:8.0454545 9:8.4285714 10:-29.5 
1 1:0.93333333 2:0.67673716 3:0.43957968 4:0.39229422 5:0.75830816 6:4.6666667 7:3.1111111 8:2.8 9:4.8695652 10:-11.2 
1 1:1.254386 2:1.0106007 3:0.3851468 4:0.49395509 5:0.78798587 6:4.46875 7:4.0857143 8:4.7666667 9:10.214286 10:-17.875 
1 1:1.2045455 2:0.92173913 3:0.39013453 4:0.47533632 5:0.75652174 6:4.4166667 7:3.6551724 8:3.7857143 9:5.8888889 10:-10.6 
1 1:1.2045455 2:0.98604651 3:0.37360179 4:0.47427293 5:0.77674419 6:4.4166667 7:3.6551724 8:4.4166667 9:8.1538462 10:-17.666667 
1 1:1.2585034 2:0.99730458 3:0.44806202 4:0.57364341 5:0.77897574 6:5.2857143 7:4.7133758 8:4.5121951 9:8.2222222 10:-28.461538 
1 1:1.1956522 2:1.0185185 3:0.4368932 4:0.53398058 5:0.83333333 6:5 7:5.7894737 8:6.1111111 9:9.1666667 10:-15.714286 
1 1:1.1272727 2:0.90842491 3:0.45969499 4:0.54030501 5:0.77289377 6:4.7692308 7:4 8:4 9:16.533333 10:-19.076923 
1 1:0.97368421 2:0.7628866 3:0.44508671 4:0.42774566 5:0.79381443 6:9.25 7:3.3636364 8:3.7 9:7.4 10:-18.5 
1 1:1.5 2:1.1929825 3:0.38117428 4:0.57036347 5:0.79727096 6:5.1 7:5.1864407 8:5.8846154 9:14.571429 10:-21.857143 
1 1:1.1428571 2:0.9221902 3:0.41524106 4:0.49766719 5:0.76945245 6:5 7:4.1025641 8:4 9:10.666667 10:-26.666667 
1 1:1.1857143 2:1.0199693 3:0.40511232 4:0.51432998 5:0.80337942 6:4.3684211 7:3.5698925 8:5.1875 9:7.3777778 10:-23.714286 
0.7399944492745203 1:1.1956522 2:1.0091743 3:0.35742972 4:0.44176707 5:0.81651376 6:4.5833333 7:5.5 8:5.5 9:13.75 10:-18.333333 
1 1:1.2982456 2:1.059034 3:0.41376229 4:0.52904379 5:0.82826476 6:4.3529412 7:5.3818182 8:6.1666667 9:8.969697 10:-21.142857 
1 1:1.3333333 2:1.0810811 3:0.34177215 4:0.50632911 5:0.72972973 6:5 7:3.4782609 8:4 9:6.6666667 10:-20 
1 1:1.2692308 2:1.0393701 3:0.34082397 4:0.49438202 5:0.71653543 6:4.125 7:3.4736842 8:3.6666667 9:5.0769231 10:-33 
1 1:1.1153846 2:0.85294118 3:0.46428571 4:0.51785714 5:0.76470588 6:7.25 7:3.8666667 8:3.625 9:7.25 10:14.5 
1 1:1.2195122 2:0.96153846 3:0.40594059 4:0.4950495 5:0.78846154 6:5.5555556 7:5 8:4.5454545 9:12.5 10:-20 
1 1:1.0833333 2:0.8345679 3:0.46008708 4:0.49056604 5:0.78271605 6:5.6333333 7:3.9764706 8:3.8409091 9:5.8275862 10:-18.777778 
0.5847019313605852 1:1.1714286 2:1.0347003 3:0.47738693 4:0.54941374 5:0.89905363 6:4.5555556 7:4 8:10.25 9:14.909091 10:-13.666667 
1 1:1.125 2:0.88235294 3:0.38947368 4:0.47368421 5:0.7254902 6:3.75 7:3 8:3.2142857 9:9 10:-15 
1 1:1.1612903 2:0.88343558 3:0.47565543 4:0.53932584 5:0.7791411 6:6 7:4.2352941 8:4 9:7.2 10:-36 
0.7107734868184822 1:0.95588235 2:0.75581395 3:0.46575342 4:0.44520548 5:0.79069767 6:6.5 7:2.826087 8:3.6111111 9:8.125 10:-16.25 
1 1:1.4577465 2:1.0809399 3:0.36653895 4:0.52873563 5:0.74934726 6:4.9285714 7:5.5945946 8:4.3125 9:8.625 10:-20.7 
1 1:1.421875 2:1.04 3:0.40061162 4:0.55657492 5:0.74857143 6:7.5833333 7:3.3703704 8:4.1363636 9:10.111111 10:-18.2 
1 1:1.2037037 2:0.98859316 3:0.36242884 4:0.49335863 5:0.72623574 6:2.9545455 7:2.9545455 8:3.6111111 9:5.2 10:-21.666667 
1 1:1.2419355 2:1.0232558 3:0.44153578 4:0.53752182 5:0.84053156 6:6.4166667 7:4.2777778 8:6.4166667 9:9.0588235 10:-15.4 
1 1:1.3275862 2:1.0694444 3:0.38028169 4:0.54225352 5:0.75 6:4.8125 7:3.9487179 8:4.2777778 9:7 10:-25.666667 
1 1:1.275 2:0.99270073 3:0.40856031 4:0.52918288 5:0.76642336 6:5.1 7:4.3404255 8:4.25 9:8.8695652 10:-20.4 
1 1:1.125 2:0.86896552 3:0.38461538 4:0.46153846 5:0.72413793 6:4.5 7:3.9375 8:3.15 9:6.3 10:-15.75 
0.123660807823727 1:1.2336449 2:1.1391586 3:0.3317238 4:0.5098986 5:0.74110032 6:3.8823529 7:3.6164384 8:4.4 9:12.27907 10:-33 
1 1:1.22 2:0.97991968 3:0.45168539 4:0.54831461 5:0.80722892 6:5.5454545 7:4.6037736 8:5.0833333 9:9.3846154 10:-24.4 
1 1:1.1029412 2:0.95389507 3:0.46569076 4:0.54894785 5:0.80922099 6:5.7692308 7:4.0540541 8:5 9:8.5714286 10:-25 
1 1:1.0744681 2:0.81124498 3:0.38028169 4:0.40643863 5:0.75903614 6:4.5909091 7:2.4047619 8:3.3666667 9:5.05 10:-16.833333 
1 1:1.2285714 2:0.90526316 3:0.43195266 4:0.50887574 5:0.76842105 6:6.1428571 7:4.6486486 8:3.9090909 9:6.6153846 10:-21.5 
1 1:1.4305556 2:1.1805158 3:0.34846462 4:0.55006676 5:0.747851 6:4.2916667 7:5.15 8:4.6818182 9:7.6296296 10:-34.333333 
1 1:1.2115385 2:0.96183206 3:0.4212766 4:0.53617021 5:0.75572519 6:4.5 7:3.8181818 8:3.9375 9:7.875 10:-31.5 
1 1:1.1111111 2:0.91428571 3:0.37864078 4:0.42365402 5:0.81714286 6:4.6153846 7:4.2105263 8:5 9:7.7419355 10:-15 
1 1:1.3169014 2:1.0505618 3:0.48407643 4:0.5955414 5:0.85393258 6:5.84375 7:5.5 8:7.1923077 9:8.1304348 10:-20.777778 
1 1:1.36 2:1.0858283 3:0.39157246 4:0.55909558 5:0.76047904 6:4.25 7:4.3174603 8:4.5333333 9:10.074074 10:-22.666667 
1 1:1.16875 2:1.002681 3:0.54679803 4:0.61412151 5:0.89276139 6:4.9210526 7:5.1232877 8:9.35 9:8.1304348 10:-26.714286 
1 1:1.075 2:0.89583333 3:0.39583333 4:0.44791667 5:0.79166667 6:7.1666667 7:3.44 8:4.3 9:10.75 10:-14.333333 
1 1:1.4177215 2:1.3373134 3:0.44427481 4:0.68396947 5:0.86865672 6:5.8947368 7:4.036036 8:10.181818 9:11.2 10:-24.888889 
1 1:1.171875 2:0.97402597 3:0.45985401 4:0.54744526 5:0.81818182 6:4.6875 7:3.4090909 8:5.3571429 9:6.25 10:-18.75 
0.1738936568688381 1:1.2647059 2:1.081761 3:0.35376045 4:0.47910864 5:0.79874214 6:5.375 7:3.0714286 8:5.375 9:9.5555556 10:-43 
1 1:1.09375 2:0.81081081 3:0.43507973 4:0.47835991 5:0.73745174 6:4.7727273 7:3.0434783 8:3.0882353 9:7.5 10:-21 
1 1:1.1780822 2:1 3:0.4137931 4:0.49425287 5:0.8372093 6:4.7777778 7:4 8:6.1428571 9:11.466667 10:-15.636364 
1 1:1.0816327 2:0.95280899 3:0.45180023 4:0.49245064 5:0.8741573 6:5.8888889 7:5.1707317 8:7.5714286 9:14.133333 10:-21.2 
1 1:1.2169811 2:1.0466531 3:0.43268243 4:0.5303186 5:0.85395538 6:5.375 7:4.5263158 8:7.1666667 9:8.3225806 10:-32.25 
1 1:1.1190476 2:0.91707317 3:0.40490279 4:0.47675402 5:0.77886179 6:4.40625 7:3.4814815 8:4.1470588 9:8.5454545 10:-15.666667 
0.9251423877199834 1:1.0961538 2:0.90656064 3:0.38461538 4:0.46769231 5:0.74552684 6:3.8 7:3.3043478 8:3.5625 9:9.9130435 10:-19 
1 1:1.1428571 2:0.90140845 3:0.40740741 4:0.47407407 5:0.77464789 6:5.3333333 7:3.047619 8:4 9:8 10:-10.666667 
1 1:1.3780488 2:1.2216216 3:0.33799534 4:0.52680653 5:0.78378378 6:3.53125 7:3.5873016 8:5.65 9:12.555556 10:-28.25 
1 1:1.2207792 2:0.93184634 3:0.44468547 4:0.54374548 5:0.76208178 6:4.9473684 7:4.5853659 8:3.9166667 9:6.1639344 10:-26.857143 
1 1:1.3428571 2:1.0962099 3:0.37552743 4:0.52883263 5:0.77842566 6:4.9473684 7:4.9473684 8:4.9473684 9:9.8947368 10:-17.090909 
1 1:1.1818182 2:0.89655172 3:0.44 4:0.52 5:0.75862069 6:8.6666667 7:4.3333333 8:3.7142857 9:6.5 10:-26 
1 1:1.0729167 2:0.90748899 3:0.57183099 4:0.58028169 5:0.89427313 6:7.3571429 7:6.2424242 8:8.5833333 9:9.3636364 10:-14.714286 
0.7725572892768948 1:1.1333333 2:0.82591093 3:0.42720764 4:0.48687351 5:0.72469636 6:3.9230769 7:3.8490566 8:3 9:6.375 10:-25.5 
1 1:1.0869565 2:0.91116173 3:0.49672346 4:0.5242464 5:0.86332574 6:5 7:4.3956044 8:6.6666667 9:6.4516129 10:-14.285714 
1 1:1.2741935 2:1 3:0.36196319 4:0.48466258 5:0.74683544 6:3.95 7:4.2702703 8:3.95 9:7.9 10:-19.75 
0.1485617603716373 1:1.2916667 2:0.97637795 3:0.3909465 4:0.51028807 5:0.7480315 6:4.4285714 7:3.7575758 8:3.875 9:8.8571429 10:-31 
1 1:1.2619048 2:1.0241546 3:0.40664962 4:0.54219949 5:0.76811594 6:8.8333333 7:3.6551724 8:4.4166667 9:7.0666667 10:-17.666667 
1 1:1.1578947 2:0.91666667 3:0.51282051 4:0.56410256 5:0.83333333 6:11 7:4.1904762 8:5.5 9:7.3333333 10:-22 
1 1:1.2567568 2:0.97894737 3:0.40314136 4:0.48691099 5:0.81052632 6:5.8125 7:5.3142857 8:5.1666667 9:7.1538462 10:-18.6 
1 1:1.2612613 2:1.0438024 3:0.39572447 4:0.53206651 5:0.77632805 6:4 7:4.1481481 8:4.6666667 9:9.4915254 10:-18.666667 
1 1:1.0091743 2:0.83097262 3:0.45244087 4:0.44287871 5:0.84891407 6:4.7826087 7:3.2116788 8:5.5 9:6.3768116 10:-14.666667 
1 1:1.2027027 2:0.90585242 3:0.42469471 4:0.48303935 5:0.79643766 6:7.4166667 7:4.3414634 8:4.45 9:6.5925926 10:-17.8 
1 1:1 2:0.76470588 3:0.44642857 4:0.46428571 5:0.73529412 6:5.2 7:2.4186047 8:2.8888889 9:10.4 10:-17.333333 
1 1:1.2931034 2:1.0221465 3:0.44186047 4:0.55813953 5:0.80919932 6:5 7:5.2631579 8:5.3571429 9:9.0909091 10:-18.75 
1 1:0.81034483 2:0.64827586 3:0.41052632 4:0.32982456 5:0.80689655 6:2.9375 7:2.0434783 8:3.3571429 9:5.875 10:-11.75 
1 1:1.25 2:1.097561 3:0.38823529 4:0.52941176 5:0.80487805 6:5.625 7:3 8:5.625 9:7.5 10:-15 
1 1:1.0606061 2:0.83333333 3:0.47142857 4:0.5 5:0.78571429 6:5 7:3.255814 8:3.8888889 9:6.3636364 10:-23.333333 
1 1:1.2066667 2:0.91414141 3:0.4695122 4:0.55182927 5:0.77777778 6:3.9347826 7:7.7021277 8:4.1136364 9:8.6190476 10:-16.454545 
1 1:1.1595745 2:0.95196507 3:0.39606127 4:0.47702407 5:0.79039301 6:4.5416667 7:3.0277778 8:4.5416667 9:7.2666667 10:-27.25 
1 1:1.25 2:1.0240964 3:0.4248366 4:0.55555556 5:0.78313253 6:4.7222222 7:4.1463415 8:4.7222222 9:10.625 10:-28.333333 
0.3185226856880976 1:0.89473684 2:0.71578947 3:0.4251497 4:0.40718563 5:0.74736842 6:4.25 7:2.72 8:2.8333333 9:11.333333 10:-11.333333 
1 1:1.2352941 2:1.1313131 3:0.43338954 4:0.56661046 5:0.86531987 6:6 7:3.1698113 8:8.4 9:11.2 10:-28 
1 1:1.2702703 2:1.0502793 3:0.38292011 4:0.51790634 5:0.77653631 6:4.2727273 7:3.76 8:4.7 9:6.7142857 10:-18.8 
1 1:1.0454545 2:0.84870849 3:0.47099768 4:0.53364269 5:0.74907749 6:4.4230769 7:3.5384615 8:3.3823529 9:6.7647059 10:-38.333333 
0.3495440305092926 1:1.1785714 2:0.92307692 3:0.36917563 4:0.47311828 5:0.72027972 6:4.125 7:3.8823529 8:3.3 9:7.3333333 10:-16.5 
1 1:1.0555556 2:0.82866044 3:0.43247863 4:0.45470085 5:0.78816199 6:5.5416667 7:3.7464789 8:3.9117647 9:7 10:-16.625 
1 1:1.125 2:0.94736842 3:0.37190083 4:0.44628099 5:0.78947368 6:4.5 7:2.3478261 8:4.5 9:9 10:-9 
1 1:1.2076923 2:1.0031949 3:0.39968404 4:0.49605055 5:0.80830671 6:3.4130435 7:4.0779221 8:5.2333333 9:8.2631579 10:-17.444444 
0.4023577170923532 1:1.1681416 2:1.0076336 3:0.44 4:0.528 5:0.83969466 6:4.5517241 7:5.1262136 8:6.2857143 9:9.7777778 10:-16.5 
0.1248512803534762 1:1.0714286 2:0.93603744 3:0.48966757 4:0.53908356 5:0.85023401 6:4.4117647 7:5.3571429 8:6.25 9:33.333333 10:-16.666667 
1 1:1.125 2:0.92150171 3:0.48133595 4:0.53045187 5:0.83617747 6:5.1923077 7:4.7368421 8:5.625 9:9.6428571 10:-16.875 
1 1:1.1216216 2:0.92479109 3:0.50584307 4:0.5542571 5:0.84401114 6:4.15 7:5.030303 8:5.9285714 9:7.9047619 10:-16.6 
1 1:1.0714286 2:0.83916084 3:0.44939271 4:0.48582996 5:0.77622378 6:3.75 7:3.75 8:3.75 9:5.4545455 10:-30 
1 1:1.2555556 2:0.95560254 3:0.42792281 4:0.51305335 5:0.79704017 6:5.65 7:5.5121951 8:4.7083333 9:8.3703704 10:-18.833333 
1 1:1.2066667 2:1.031339 3:0.39142462 4:0.50069156 5:0.80626781 6:4.3095238 7:4.0222222 8:5.3235294 9:10.055556 10:-22.625 
1 1:1.3 2:1.0985915 3:0.34591195 4:0.49056604 5:0.77464789 6:3.9 7:3.3913043 8:4.875 9:13 10:-13 
1 1:1.1076923 2:0.87671233 3:0.45683152 4:0.48281643 5:0.82952816 6:5.1428571 7:4.4307692 8:5.1428571 9:7.0243902 10:-18 
1 1:1.2676056 2:0.97693351 3:0.41321714 4:0.52287582 5:0.77204885 6:6.4285714 7:4.3373494 8:4.2857143 9:6.7924528 10:-20 
1 1:1.2028302 2:0.90505768 3:0.42034739 4:0.50620347 5:0.7515528 6:4.7222222 7:3.4228188 8:3.6428571 9:8.0952381 10:-21.25 
1 1:1.0230769 2:0.84444444 3:0.51816444 4:0.50860421 5:0.86031746 6:6.65 7:3.3670886 8:6.0454545 9:6.3333333 10:-19 
1 1:1.2777778 2:1.1084337 3:0.38348624 4:0.50642202 5:0.83935743 6:4.9285714 7:4.7586207 8:6.9 9:9.2 10:-23 
1 1:1.125 2:0.96716418 3:0.4528406 4:0.53612796 5:0.81691542 6:4.3392857 7:3.8267717 8:5.2826087 9:8.8363636 10:-17.357143 
1 1:1.1261682 2:1.0083682 3:0.42443064 4:0.4989648 5:0.85774059 6:3.5441176 7:4.6796117 8:7.0882353 9:9.64 10:-15.0625 
1 1:1.2068966 2:0.93333333 3:0.38686131 4:0.51094891 5:0.70666667 6:4.375 7:3.8356164 8:3.1818182 9:6.0869565 10:-23.333333 
1 1:1.0875 2:0.84261501 3:0.39585871 4:0.42387333 5:0.78692494 6:4.35 7:3.1636364 8:3.9545455 9:5.6129032 10:-14.5 
1 1:1.2943925 2:0.98752228 3:0.42681679 4:0.56704197 5:0.74331551 6:5.1296296 7:4.0144928 8:3.8472222 9:7.2894737 10:-27.7 
1 1:1.2363636 2:1.0750988 3:0.44086022 4:0.58494624 5:0.81027668 6:6.1818182 7:3.3580247 8:5.6666667 9:9.0666667 10:-27.2 
1 1:1.224359 2:0.93284493 3:0.44314266 4:0.52653343 5:0.78510379 6:6.8214286 7:2.984375 8:4.3409091 9:6.9454545 10:-23.875 
1 1:1.1447368 2:0.94436906 3:0.43494424 4:0.51747212 5:0.79375848 6:4.8333333 7:3.2830189 8:4.5789474 9:7.1020408 10:-17.4 
1 1:1 2:0.88428325 3:0.45609065 4:0.48347498 5:0.83419689 6:4.5714286 7:2.8444444 8:5.3333333 9:13.473684 10:-18.285714 
1 1:0.90425532 2:0.65259117 3:0.44126984 4:0.35978836 5:0.80038388 6:3.5416667 7:3.0909091 8:3.2692308 9:5.483871 10:-12.142857 
1 1:1.2857143 2:0.96644295 3:0.36212625 4:0.47840532 5:0.73154362 6:6 7:3.2727273 8:3.6 9:6.5454545 10:-18 
1 1:1.0384615 2:0.80297398 3:0.39047619 4:0.41142857 5:0.76208178 6:4.5 7:3.375 8:3.375 9:6.3529412 10:-18 
1 1:1.1785714 2:0.94623656 3:0.42314991 4:0.50094877 5:0.79928315 6:4.7142857 7:4.0615385 8:4.7142857 9:9.4285714 10:-16.5 
1 1:1.0555556 2:0.85011186 3:0.43859649 4:0.44444444 5:0.83892617 6:3.6538462 7:2.7536232 8:5.2777778 9:6.1290323 10:-15.833333 
1 1:1.1315789 2:0.96089385 3:0.44668588 4:0.49567723 5:0.86592179 6:5.375 7:5.0588235 8:7.1666667 9:7.8181818 10:-21.5 
1 1:1.1463415 2:0.92383292 3:0.49925484 4:0.56035768 5:0.82309582 6:9.4 7:3.6862745 8:5.2222222 9:8.952381 10:-18.8 
1 1:1.1971831 2:0.96045198 3:0.39589443 4:0.49853372 5:0.76271186 6:4.047619 7:4.047619 8:4.047619 9:7.7272727 10:-18.888889 
1 1:1.25 2:1.0227273 3:0.37209302 4:0.52325581 5:0.72727273 6:5.625 7:2.9032258 8:3.75 9:11.25 10:-22.5 
0.03430648516369719 1:1.2211538 2:1.0409836 3:0.3968254 4:0.50396825 5:0.81967213 6:4.8846154 7:4.9803922 8:5.7727273 9:21.166667 10:-15.875 
1 1:1.1585366 2:0.98360656 3:0.51538837 4:0.55691255 5:0.91026747 6:4.9137931 7:5.0892857 8:10.961538 9:10.363636 10:-16.764706 
1 1:1.0722892 2:0.92708333 3:0.45604396 4:0.48901099 5:0.86458333 6:4.9444444 7:5.1594203 8:6.8461538 9:16.181818 10:-22.25 
1 1:1.1428571 2:1.015873 3:0.38906089 4:0.4623323 5:0.85487528 6:4 7:4.0727273 8:7 9:10.666667 10:-18.666667 
1 1:1.1612903 2:0.88615385 3:0.4676525 4:0.5323475 5:0.77846154 6:4.2352941 7:4 8:4 9:6.2608696 10:-20.571429 
1 1:1.1698113 2:0.95384615 3:0.41353383 4:0.46616541 5:0.84615385 6:4.1333333 7:4.5090909 8:6.2 9:7.75 10:-17.714286 
1 1:1.1282051 2:0.97777778 3:0.45669291 4:0.51968504 5:0.85925926 6:4.8888889 7:4.4 8:6.9473684 9:8.8 10:-17.6 
1 1:1.1981132 2:0.98069498 3:0.43468951 4:0.54389722 5:0.78378378 6:4.2333333 7:4.3050847 8:4.5357143 9:6.6842105 10:-25.4 
1 1:0.9516129 2:0.78405316 3:0.51318458 4:0.47870183 5:0.84053156 6:5.9 7:3.3714286 8:4.9166667 9:6.9411765 10:-29.5 
0.2225515097406427 1:1.2594937 2:0.97668712 3:0.36416938 4:0.51856678 5:0.68588957 6:4.326087 7:3.3445378 8:3.109375 9:10.205128 10:-24.875 
1 1:1.1555556 2:1.0097087 3:0.39013453 4:0.46636771 5:0.84466019 6:3.0588235 7:4 8:6.5 9:8.6666667 10:-17.333333 
1 1:1.1834862 2:0.98850575 3:0.41782178 4:0.51089109 5:0.80842912 6:4.4482759 7:4.3361345 8:5.16 9:9.5555556 10:-19.846154 
0.9527541492236252 1:0.9 2:0.66914498 3:0.39293139 4:0.37422037 5:0.70260223 6:4.0909091 7:2.0224719 8:2.25 9:9 10:-18 
1 1:1.1551724 2:0.89632107 3:0.45631068 4:0.52038835 5:0.78595318 6:4.1875 7:4.7857143 8:4.1875 9:6.3809524 10:-22.333333 
1 1:1.2058824 2:0.91620112 3:0.45017182 4:0.56357388 5:0.73184358 6:5.125 7:3.4166667 8:3.4166667 9:9.1111111 10:-20.5 
1 1:1.128 2:0.94314381 3:0.46915888 4:0.5271028 5:0.83946488 6:5.2222222 7:4.4409449 8:5.875 9:9.4 10:-20.142857 
1 1:1.1730769 2:0.91385768 3:0.38814532 4:0.4665392 5:0.76029963 6:6.1 7:3.2972973 8:3.8125 9:7.1764706 10:-20.333333 
1 1:1.0980392 2:0.8115942 3:0.41269841 4:0.44444444 5:0.75362319 6:4.6666667 7:3.1111111 8:3.2941176 9:7.4666667 10:-16 
1 1:1.2407407 2:1.0592885 3:0.42300195 4:0.52241715 5:0.85770751 6:4.4666667 7:4.7017544 8:7.4444444 9:7.4444444 10:-14.888889 
0.09145333592817169 1:2.0438596 2:1.8167641 3:0.2896915 4:0.70127916 5:0.75048733 6:5.825 7:4.4807692 8:7.28125 9:14.121212 10:-29.125 
1 1:1.3 2:1.0833333 3:0.34210526 4:0.51315789 5:0.72222222 6:4.875 7:3.5454545 8:3.9 9:6.5 10:-19.5 
1 1:1.2028302 2:0.90505768 3:0.42034739 4:0.50620347 5:0.7515528 6:4.7222222 7:3.4228188 8:3.6428571 9:8.0952381 10:-21.25 
1 1:1.3804348 2:1.1981132 3:0.34453782 4:0.53361345 5:0.77358491 6:4.2333333 7:3.6811594 8:5.2916667 9:12.7 10:-18.142857 
0.002836580876540339 1:1.4 2:1.09375 3:0.36764706 4:0.51470588 5:0.78125 6:7 7:9.3333333 8:5 9:17.5 10:-23.333333 
0.001123382957073278 1:1.1363636 2:0.86206897 3:0.4893617 4:0.53191489 5:0.79310345 6:12.5 7:4.5454545 8:4.1666667 9:12.5 10:-12.5 
1 1:1.2096774 2:1.0309278 3:0.43403442 4:0.57361377 5:0.78006873 6:5.3571429 7:2.7777778 8:4.6875 9:10 10:-37.5 
1 1:1.1911765 2:0.92836676 3:0.35607094 4:0.4420191 5:0.747851 6:4.05 7:3.4468085 8:3.6818182 9:7.0434783 10:-16.2 
0.03863885189878197 1:1.0921053 2:0.86010363 3:0.47774481 4:0.4925816 5:0.83419689 6:4.15 7:4.7428571 8:5.1875 9:10.375 10:-27.666667 
1 1:1.1907895 2:1.0154278 3:0.52124892 4:0.62792715 5:0.84291725 6:7.5416667 7:4.7012987 8:6.4642857 9:7.7021277 10:-30.166667 
1 1:1.109375 2:0.92508143 3:0.40211935 4:0.47518126 5:0.78284473 6:4.4375 7:4.0188679 8:4.26 9:7.220339 10:-23.666667 
1 1:0.98076923 2:0.812749 3:0.48505747 4:0.46896552 5:0.84063745 6:6.9545455 7:3.3626374 8:5.1 9:14.571429 10:-13.909091 
1 1:1.1097561 2:0.93333333 3:0.46355685 4:0.53061224 5:0.81538462 6:4.1363636 7:4.55 8:5.0555556 9:7.5833333 10:-30.333333 
1 1:1.1893939 2:0.94152924 3:0.54396135 4:0.60676329 5:0.84407796 6:6.0384615 7:5.5087719 8:6.0384615 9:8.4864865 10:-19.625 
0.4218896177342807 1:0.86842105 2:0.58928571 3:0.40816327 4:0.33673469 5:0.71428571 6:4.125 7:2.4444444 8:2.0625 9:4.125 10:-16.5 
1 1:1.1621622 2:1.0289133 3:0.4202315 4:0.51937594 5:0.83250249 6:4.4482759 7:3.7664234 8:6.1428571 9:11.466667 10:-25.8 
0.002967196915327571 1:1.4883721 2:1.2736318 3:0.32603939 4:0.56017505 5:0.74129353 6:4 7:4 8:4.9230769 9:25.6 10:-18.285714 
1 1:1.1111111 2:0.96385542 3:0.41787942 4:0.4989605 5:0.80722892 6:5 7:4.137931 8:5 9:17.142857 10:-15 
1 1:1.2884615 2:1.046875 3:0.41935484 4:0.54032258 5:0.8125 6:5.5833333 7:4.962963 8:5.5833333 9:8.375 10:-16.75 
0.08692147885898344 1:1.4090909 2:1.1376147 3:0.3304721 4:0.53218884 5:0.70642202 6:4.4285714 7:4.5925926 8:3.875 9:15.5 10:-20.666667 
1 1:1 2:0.76190476 3:0.47663551 4:0.44859813 5:0.80952381 6:4.8 7:3.5555556 8:4 9:8 10:-24 
1 1:1.2093023 2:1.022113 3:0.39928486 4:0.49582837 5:0.82309582 6:4.3333333 7:4.244898 8:5.7777778 9:8.32 10:-26 
0.001386292765945304 1:1.3214286 2:1.0206897 3:0.45381526 4:0.59437751 5:0.77931034 6:5.2857143 7:6.7272727 8:4.625 9:14.8 10:-74 
1 1:0.98809524 2:0.85128205 3:0.46049046 4:0.45231608 5:0.86666667 6:4.6111111 7:4.2025316 8:6.3846154 9:10.375 10:-16.6 
1 1:1.1111111 2:0.8 3:0.42857143 4:0.47619048 5:0.72 6:5 7:3.4782609 8:2.8571429 9:5.7142857 10:-20 
1 1:1.3108108 2:1.0346667 3:0.359199 4:0.48560701 5:0.76533333 6:6.0625 7:4.2173913 8:4.4090909 9:8.4347826 10:-16.166667 
1 1:1.2142857 2:0.97142857 3:0.41463415 4:0.49756098 5:0.80952381 6:6.375 7:6 8:5.1 9:7.2857143 10:-25.5 
1 1:1.0084746 2:0.78032787 3:0.52475248 4:0.47128713 5:0.86885246 6:7.4375 7:3.9666667 8:5.95 9:7 10:-13.222222 
0.4081761692027239 1:1.0192308 2:0.81538462 3:0.4214876 4:0.43801653 5:0.78461538 6:3.7857143 7:3.1176471 8:3.7857143 9:8.8333333 10:-13.25 
1 1:1.3795181 2:1.2883263 3:0.44200152 4:0.6944655 5:0.81997187 6:4.4038462 7:3.5503876 8:7.15625 9:8.0350877 10:-38.166667 
1 1:1.2068966 2:0.91205212 3:0.36806723 4:0.47058824 5:0.71335505 6:4.375 7:3.4146341 8:3.1818182 9:6.0869565 10:-17.5 
1 1:1.2464789 2:1.0275762 3:0.39698492 4:0.50825556 5:0.80261248 6:5.53125 7:4.1162791 8:5.2058824 9:7.8666667 10:-25.285714 
1 1:0.98484848 2:0.85808581 3:0.40162602 4:0.42276423 5:0.81518152 6:4.6428571 7:3.9393939 8:4.6428571 9:11.818182 10:-10.833333 
1 1:1.2345679 2:1.0062893 3:0.4349835 4:0.52805281 5:0.82893082 6:4.7619048 7:5.7971014 8:5.8823529 9:16 10:-20 
1 1:1.3571429 2:1.1129707 3:0.38126362 4:0.5795207 5:0.73221757 6:3.6944444 7:4.5862069 8:4.15625 9:16.625 10:-22.166667 
1 1:1.2027027 2:1.0318841 3:0.41463415 4:0.5107604 5:0.83768116 6:4.45 7:5.2352941 8:6.3571429 9:13.692308 10:-22.25 
1 1:1.28125 2:0.93181818 3:0.36363636 4:0.46590909 5:0.72727273 6:5.125 7:3.5652174 8:3.4166667 9:5.125 10:-13.666667 
0.5254579652027558 1:1.3857143 2:1.3108108 3:0.35897436 4:0.62179487 5:0.75675676 6:4.0416667 7:3.9591837 8:5.3888889 9:13.857143 10:-48.5 
1 1:1.1170213 2:0.81081081 3:0.412527 4:0.45356371 5:0.73745174 6:4.375 7:2.9166667 8:3.0882353 9:5.8333333 10:-15 
1 1:1.2096774 2:0.96153846 3:0.3943662 4:0.52816901 5:0.71794872 6:4.1666667 7:3.6585366 8:3.4090909 9:6.25 10:-18.75 
1 1:1.2037037 2:1 3:0.53271028 4:0.60747664 5:0.87692308 6:6.5 7:5.4166667 8:8.125 9:10.833333 10:-21.666667 
1 1:1.4210526 2:1.0553746 3:0.36497545 4:0.53027823 5:0.72638436 6:9 7:4.7647059 8:3.8571429 9:11.571429 10:-23.142857 
1 1:1.3518519 2:1.1060606 3:0.51851852 4:0.67592593 5:0.84848485 6:6.0833333 7:4.7096774 8:7.3 9:9.125 10:-24.333333 
1 1:1.195122 2:0.98 3:0.40425532 4:0.5212766 5:0.76 6:5.4444444 7:4 8:4.0833333 9:14 10:-19.6 
1 1:1.25 2:0.96551724 3:0.46887967 4:0.58091286 5:0.77931034 6:7 7:3.5897436 8:4.375 9:7.7777778 10:-35 
1 1:1.2291667 2:0.9516129 3:0.43396226 4:0.55660377 5:0.74193548 6:5.9 7:4.0689655 8:3.6875 9:7.375 10:-29.5 
1 1:1.1643836 2:0.94707521 3:0.33564014 4:0.39215686 5:0.81058496 6:3.2692308 7:4.1463415 8:5 9:7.7272727 10:-13.076923 
1 1:1.025 2:0.75460123 3:0.44802867 4:0.44086022 5:0.76687117 6:5.5909091 7:4.0327869 8:3.2368421 9:6.4736842 10:-15.375 
1 1:1.0619048 2:0.83913452 3:0.42139628 4:0.44801607 5:0.78927563 6:3.8448276 7:3.1631206 8:3.9821429 9:5.2470588 10:-13.9375 
0.844926738099012 1:1.1315789 2:0.92972973 3:0.45472249 4:0.50243427 5:0.84144144 6:5.8636364 7:6.6153846 8:5.8636364 9:8.3225806 10:-16.125 
1 1:1.1785714 2:0.94285714 3:0.41538462 4:0.50769231 5:0.77142857 6:5.5 7:4.125 8:4.125 9:8.25 10:-16.5 
1 1:1.3846154 2:1.0359712 3:0.36917563 4:0.51612903 5:0.74100719 6:6 7:4.9655172 8:4 9:10.285714 10:-18 
0.4082083671278622 1:1.0661765 2:0.85798817 3:0.48821549 4:0.48821549 5:0.85798817 6:4.8333333 7:5.5769231 8:6.0416667 9:9.0625 10:-13.181818 
1 1:1.3225806 2:1.0825083 3:0.32041729 4:0.48882265 5:0.70957096 6:5.8571429 7:3.28 8:3.7272727 9:9.6470588 10:-16.4 
0.2687919220038711 1:0.95081967 2:0.73301738 3:0.46318733 4:0.43243243 5:0.78515008 6:6.4444444 7:2.8292683 8:3.4117647 9:9.28 10:-12.888889 
1 1:0.91071429 2:0.69152542 3:0.44508671 4:0.39306358 5:0.78305085 6:5.1 7:2.6153846 8:3.1875 9:7.8461538 10:-10.2 
0.001003307485789801 1:0.93661972 2:0.72086721 3:0.4624 4:0.4256 5:0.78319783 6:5.5416667 7:4.75 8:3.325 9:19 10:-16.625 
1 1:1.1575342 2:0.97266187 3:0.44893112 4:0.53523357 5:0.81582734 6:4.6944444 7:3.4489796 8:5.28125 9:6.1454545 10:-33.8 
1 1:1.2836538 2:1.0298939 3:0.42534633 4:0.54797332 5:0.79942141 6:7.4166667 7:4.9444444 8:5.1346154 9:9.7090909 10:-20.538462 
1 1:1.5897436 2:1.3156499 3:0.33104238 4:0.56815578 5:0.76657825 6:4.1333333 7:4.5925926 8:5.6363636 9:10.782609 10:-20.666667 
1 1:1.2727273 2:1.1089109 3:0.37327189 4:0.51612903 5:0.8019802 6:7 7:3.6129032 8:5.6 9:8 10:-14 
1 1:1.3275862 2:0.9903537 3:0.39019964 4:0.55898367 5:0.69131833 6:5.5 7:4.5294118 8:3.2083333 9:7.3333333 10:-25.666667 
0.1115555933434823 1:1.1590909 2:0.92030075 3:0.54731707 4:0.59707317 5:0.84360902 6:6.9545455 7:4.78125 8:5.8846154 9:9.2727273 10:-21.857143 
1 1:1.3520408 2:1.2311266 3:0.34301452 4:0.53079619 5:0.79558653 6:3.7857143 7:5.7608696 8:6.0227273 9:17.096774 10:-22.083333 
1 1:1.2567568 2:0.97637795 3:0.3888131 4:0.50750341 5:0.7480315 6:5.1666667 7:3.9574468 8:3.875 9:8.8571429 10:-18.6 
1 1:1.1875 2:0.93538462 3:0.42378559 4:0.50921273 5:0.77846154 6:4.75 7:3.3777778 8:4.2222222 9:7.2380952 10:-19 
1 1:1.287234 2:1.0567686 3:0.39784946 4:0.52043011 5:0.80786026 6:4.6538462 7:4.6538462 8:5.5 9:8.0666667 10:-20.166667 
1 1:1.1413043 2:0.96774194 3:0.42144638 4:0.52369077 5:0.77880184 6:4.0384615 7:3.6206897 8:4.375 9:6.5625 10:-52.5 
1 1:1.1969697 2:1.0095847 3:0.40640809 4:0.53288364 5:0.76996805 6:4.9375 7:3.8536585 8:4.3888889 9:10.533333 10:-19.75 
1 1:0.9 2:0.67924528 3:0.52364273 4:0.441331 5:0.80592992 6:3.9375 7:2.9302326 8:3.5 9:5.4782609 10:-15.75 
0.2188362782330513 1:1.3421053 2:0.97607656 3:0.3974026 4:0.52987013 5:0.73205742 6:8.5 7:6 8:3.6428571 9:9.2727273 10:-17 
1 1:1.2027027 2:0.90585242 3:0.42469471 4:0.48303935 5:0.79643766 6:7.4166667 7:4.3414634 8:4.45 9:6.5925926 10:-17.8 
0.4986529344523203 1:1.3333333 2:1.0847458 3:0.33858268 4:0.50393701 5:0.72881356 6:8 7:3.3684211 8:4 9:10.666667 10:-16 
1 1:1.35 2:1.1530249 3:0.32605304 4:0.50546022 5:0.74377224 6:4.5 7:2.6129032 8:4.5 9:7.7142857 10:-27 
1 1:1.3333333 2:0.94117647 3:0.375 4:0.5 5:0.70588235 6:6.4 7:4.2666667 8:3.2 9:8 10:-21.333333 
1 1:1.2941176 2:1.042963 3:0.36707056 4:0.5017819 5:0.76296296 6:4.6315789 7:3.7849462 8:4.4 9:9.025641 10:-16 
0.3237970677483672 1:1.2638889 2:0.94915254 3:0.43410276 4:0.54206999 5:0.7601043 6:4.55 7:7 8:3.9565217 9:7.7446809 10:-20.222222 
1 1:1.3229167 2:0.92870201 3:0.45717464 4:0.5650723 5:0.75137112 6:5.7727273 7:3.6811594 8:3.7352941 9:6.5128205 10:-18.142857 
1 1:1.1287879 2:0.94006309 3:0.4446281 4:0.49256198 5:0.84858044 6:5.7307692 7:4.8852459 8:6.2083333 9:9.9333333 10:-14.9 
1 1:1.2375 2:0.9451074 3:0.42461964 4:0.54771784 5:0.7326969 6:3.8076923 7:4.5 8:3.5357143 9:6.8275862 10:-24.75 
1 1:1.1818182 2:1.04 3:0.43145161 4:0.52419355 5:0.856 6:4.1935484 7:4.7706422 8:7.2222222 9:8.6666667 10:-16.25 
1 1:1.1105263 2:0.9017094 3:0.45327103 4:0.49299065 5:0.82905983 6:5.0238095 7:4.7954545 8:5.275 9:13.1875 10:-19.181818 
1 1:1.2361111 2:1.0853659 3:0.46575342 4:0.60958904 5:0.82926829 6:4.45 7:3.4901961 8:6.3571429 9:9.8888889 10:-29.666667 
1 1:1.2948718 2:1.0860215 3:0.37688442 4:0.50753769 5:0.80645161 6:3.8846154 7:4.5909091 8:5.6111111 9:12.625 10:-20.2 
0.03263291999333534 1:0.94827586 2:0.73825503 3:0.44322344 4:0.4029304 5:0.81208054 6:9.1666667 7:3.9285714 8:3.9285714 9:11 10:-9.1666667 
1 1:1.1341463 2:1.0026954 3:0.35808383 4:0.44550898 5:0.80592992 6:5.8125 7:3.3214286 8:5.1666667 9:7.44 10:-18.6 
1 1:1.1886792 2:0.96367113 3:0.36143498 4:0.45201794 5:0.77055449 6:4.2 7:3 8:4.2 9:8.6896552 10:-18 
1 1:1.3152174 2:1.0386266 3:0.40527578 4:0.58033573 5:0.72532189 6:6.7222222 7:3.5588235 8:3.78125 9:11 10:-24.2 
1 1:1.4411765 2:1.2405063 3:0.39622642 4:0.6163522 5:0.79746835 6:6.125 7:3.92 8:6.125 9:9.8 10:-24.5 
0.02261318894872584 1:1.1 2:0.83412322 3:0.50442478 4:0.51917404 5:0.81042654 6:11 7:5.8666667 8:4.4 9:12.571429 10:-22 
0.1362491511213809 1:0.90322581 2:0.71565495 3:0.36 4:0.3584 5:0.71884984 6:7 7:2.1960784 8:2.5454545 9:5.8947368 10:-9.3333333 
1 1:1.4111111 2:1.1519274 3:0.3419227 4:0.50346878 5:0.78231293 6:4.5357143 7:5.029703 8:5.2916667 9:14.111111 10:-16.933333 
1 1:1.0555556 2:0.8028169 3:0.51351351 4:0.51351351 5:0.8028169 6:7.125 7:3.5625 8:4.0714286 9:6.3333333 10:-14.25 
1 1:1.1818182 2:1.0113452 3:0.39680122 4:0.47524752 5:0.84440843 6:5.2 7:4.8 8:6.5 9:7.6097561 10:-14.181818 
1 1:1.3 2:1.029703 3:0.44262295 4:0.56830601 5:0.8019802 6:5.2 7:5.2 8:5.2 9:8.6666667 10:-17.333333 
1 1:1.1478873 2:0.88707483 3:0.4893617 4:0.55489362 5:0.78231293 6:5.09375 7:3.5434783 8:4.075 9:7.2444444 10:-23.285714 
1 1:1.59375 2:1.2670807 3:0.3427762 4:0.57790368 5:0.7515528 6:5.1 7:3.5172414 8:5.1 9:7.8461538 10:25.5 
1 1:1.2368421 2:0.95918367 3:0.40659341 4:0.51648352 5:0.75510204 6:4.7 7:3.76 8:3.9166667 9:7.8333333 10:-23.5 
1 1:1.4166667 2:1.1390285 3:0.29334212 4:0.44825313 5:0.74539363 6:4.047619 7:5.5737705 8:4.4736842 9:7.5555556 10:-17 
1 1:1.34375 2:1.1740614 3:0.38358459 4:0.57621441 5:0.78156997 6:6.1428571 7:4.0952381 8:5.375 9:11.466667 10:-28.666667 
1 1:1.4084507 2:1.1782032 3:0.38841699 4:0.61776062 5:0.74079529 6:4.7619048 7:4.2553191 8:4.5454545 9:11.428571 10:-40 
1 1:1.4032258 2:1.1638796 3:0.34008683 4:0.50361795 5:0.78595318 6:4.35 7:3.2830189 8:5.4375 9:10.235294 10:-17.4 
0.4922761107235553 1:1.1538462 2:1 3:0.49019608 4:0.58823529 5:0.83333333 6:7.5 7:4 8:6 9:15 10:-20 
1 1:1.18 2:0.86131387 3:0.35018051 4:0.42599278 5:0.7080292 6:5.9 7:3.025641 8:2.95 9:6.5555556 10:-19.666667 
1 1:1.2702703 2:0.98947368 3:0.43646409 4:0.51933702 5:0.83157895 6:7.8333333 7:7.2307692 8:5.875 9:9.4 10:-23.5 
1 1:1.1630435 2:0.9532294 3:0.50066401 4:0.56839309 5:0.83964365 6:5.9444444 7:4.3673469 8:5.9444444 9:7.3793103 10:-35.666667 
1 1:1.2142857 2:1.0029499 3:0.42242704 4:0.52227343 5:0.81120944 6:4.7222222 7:4.7222222 8:5.3125 9:10 10:-14.166667 
1 1:1.2291667 2:1.0630631 3:0.47826087 4:0.57004831 5:0.89189189 6:7.375 7:5.9 8:9.8333333 9:9.8333333 10:-14.75 
1 1:1.1548673 2:0.99904306 3:0.47693867 4:0.52914344 5:0.90047847 6:5.9318182 7:4.3865546 8:10.038462 9:10.235294 10:-17.4 
0.2990304099107737 1:1.35 2:1.1134021 3:0.25291829 4:0.42023346 5:0.67010309 6:3.8571429 7:2.9189189 8:3.375 9:13.5 10:-18 
1 1:1.1291667 2:1.047343 3:0.44036236 4:0.54554605 5:0.84541063 6:4.3709677 7:3.474359 8:6.775 9:16.424242 10:-14.263158 
0.8524784067788532 1:0.9893617 2:0.85321101 3:0.44700461 4:0.42857143 5:0.88990826 6:11.625 7:4.65 8:7.75 9:7.1538462 10:-11.625 
1 1:1.1685393 2:0.91629956 3:0.44416873 4:0.51612903 5:0.78854626 6:4.5217391 7:3.8878505 8:4.3333333 9:7.4285714 10:-20.8 
1 1:1.1886792 2:0.98054475 3:0.41020794 4:0.47637051 5:0.84435798 6:5.25 7:5.7272727 8:6.3 9:10.5 10:-21 
1 1:1.0909091 2:0.96385542 3:0.44186047 4:0.50739958 5:0.83935743 6:4.6153846 7:5 8:6 9:9.2307692 10:-24 
0.6145225970715539 1:0.99074074 2:0.80149813 3:0.54342432 4:0.53101737 5:0.82022472 6:7.6428571 7:4.3673469 8:4.4583333 9:8.9166667 10:-26.75 
1 1:1.25 2:1 3:0.35483871 4:0.48387097 5:0.73333333 6:7.5 7:2.8571429 8:3.75 9:7.5 10:-15 
1 1:1.1052632 2:0.8195122 3:0.43695015 4:0.49266862 5:0.72682927 6:7 7:2.0487805 8:3 9:9.3333333 10:-21 
1 1:1.2837838 2:0.9947644 3:0.41880342 4:0.54131054 5:0.76963351 6:5.2777778 7:4.6341463 8:4.3181818 9:8.6363636 10:-23.75 
1 1:1.1917808 2:1.0609756 3:0.4251497 4:0.52095808 5:0.86585366 6:5.1176471 7:5.704918 8:7.9090909 9:12.428571 10:-17.4 
1 1:1.1 2:0.87128713 3:0.4317757 4:0.49345794 5:0.76237624 6:5.5 7:3.3 8:3.6666667 9:7.7647059 10:-66 
1 1:1.1666667 2:1.003876 3:0.44758065 4:0.52217742 5:0.86046512 6:4.625 7:4.7962963 8:7.1944444 9:7 10:-28.777778 
1 1:1.1636364 2:0.95522388 3:0.47457627 4:0.54237288 5:0.8358209 6:4.9230769 7:4.6545455 8:5.8181818 9:6.7368421 10:-21.333333 
1 1:1.1458333 2:0.92827004 3:0.45080092 4:0.50343249 5:0.83122363 6:5.5 7:3.6666667 8:5.5 9:15.714286 10:-18.333333 
1 1:1.2604167 2:1.0297872 3:0.54046997 4:0.63185379 5:0.88085106 6:6.05 7:4.1016949 8:8.6428571 9:7.5625 10:-30.25 
1 1:1.1326531 2:0.84732824 3:0.43497758 4:0.49775785 5:0.74045802 6:4.625 7:4.1111111 8:3.2647059 9:5.0454545 10:-18.5 
1 1:1.1875 2:0.96938776 3:0.5125 4:0.59375 5:0.83673469 6:6.7857143 7:4.0425532 8:5.9375 9:10.555556 10:-23.75 
1 1:1.1666667 2:0.96 3:0.36784741 4:0.45776567 5:0.77142857 6:4.2 7:2.7096774 8:4.2 9:6.4615385 10:-21 
1 1:1.2857143 2:1.0076336 3:0.44787078 4:0.5814978 5:0.77608142 6:6.1875 7:3.4434783 8:4.5 9:7.6153846 10:-33 
0.03933641882557103 1:1.3513514 2:1.0582011 3:0.4269341 4:0.5730659 5:0.78835979 6:4.5454545 7:5.8823529 8:5 9:10 10:-25 
1 1:1.2954545 2:1.3255814 3:0.27559055 4:0.4488189 5:0.81395349 6:3.5625 7:2.5909091 8:7.125 9:11.4 10:-19 
1 1:1.3157895 2:1.0152284 3:0.39946381 4:0.53619303 5:0.75634518 6:7.1428571 7:3.5714286 8:4.1666667 9:9.0909091 10:-20 
1 1:1.0740741 2:0.81690141 3:0.44 4:0.464 5:0.77464789 6:4.8333333 7:4.64 8:3.625 9:5.8 10:-19.333333 
1 1:1 2:0.73394495 3:0.43147208 4:0.40609137 5:0.77981651 6:10 7:2.6666667 8:3.3333333 9:5.7142857 10:-20 
1 1:1.2272727 2:1 3:0.41176471 4:0.52941176 5:0.77777778 6:13.5 7:3.375 8:4.5 9:6.75 10:-13.5 
1 1:1.2261905 2:1.0813648 3:0.3899139 4:0.50676507 5:0.832021 6:3.4333333 7:3.9615385 8:6.4375 9:7.6296296 10:-12.875 
1 1:1.1666667 2:0.95789474 3:0.38536585 4:0.44390244 5:0.83157895 6:4.1363636 7:3.7142857 8:5.6875 9:11.375 10:-11.375 
1 1:1.3636364 2:1.1764706 3:0.36448598 4:0.56074766 5:0.76470588 6:6 7:4.137931 8:5 9:10 10:-30 
1 1:1.31 2:1.0860104 3:0.43792921 4:0.55361859 5:0.85906736 6:4.3666667 7:5.1881188 8:7.7058824 9:6.8051948 10:-18.714286 
0.02304116888869875 1:1.1666667 2:0.84848485 3:0.38983051 4:0.47457627 5:0.6969697 6:3.5 7:2.4347826 8:2.8 9:14 10:-14 
1 1:1.3409091 2:1.2040816 3:0.35087719 4:0.51754386 5:0.81632653 6:3.4705882 7:3.5223881 8:6.5555556 9:9.8333333 10:-23.6 
0.05871072354886465 1:1.245614 2:1.040293 3:0.39816514 4:0.52110092 5:0.79487179 6:3.7368421 7:5.68 8:5.0714286 9:6.7619048 10:-20.285714 
0.2379155724929136 1:1.2924528 2:1.1264132 3:0.50395137 4:0.6662614 5:0.85200411 6:6.85 7:4 8:7.6111111 9:12.177778 10:-27.4 
1 1:1.2083333 2:0.91518738 3:0.41017653 4:0.48182762 5:0.7790927 6:5.8 7:3.5692308 8:4.1428571 9:9.28 10:-12.888889 
1 1:1.2758621 2:1.0422535 3:0.38461538 4:0.51748252 5:0.77464789 6:5.2857143 7:4 8:4.625 9:7.4 10:-37 
1 1:1.0694444 2:0.81052632 3:0.38797814 4:0.42076503 5:0.74736842 6:5.5 7:3.0196078 8:3.2083333 9:5.9230769 10:-12.833333 
1 1:1.3303571 2:1.1119403 3:0.41221374 4:0.56870229 5:0.80597015 6:6.2083333 7:3.9210526 8:5.7307692 9:6.7727273 10:-29.8 
1 1:1.0882353 2:1 3:0.45833333 4:0.51388889 5:0.89189189 6:3.7 7:3.7948718 8:9.25 9:7.4 10:-18.5 
1 1:1.3142857 2:1.0760234 3:0.37604457 4:0.51253482 5:0.78947368 6:4.6 7:4.2790698 8:5.1111111 9:13.142857 10:-18.4 
1 1:1.1414141 2:1.0066815 3:0.454324 4:0.55054811 5:0.83073497 6:4.1851852 7:3.9304348 8:5.9473684 9:8.0714286 10:-22.6 
1 1:1.2397959 2:0.99082569 3:0.42761319 4:0.54332029 5:0.77981651 6:4.1896552 7:4.1896552 8:4.5 9:9.9183673 10:-24.3 
1 1:1.1333333 2:1 3:0.43 4:0.51 5:0.84313725 6:5.6666667 7:4.5333333 8:6.375 9:11.333333 10:-17 
1 1:1.1883117 2:0.976 3:0.41355463 4:0.50622407 5:0.79733333 6:3.66 7:3.4528302 8:4.8157895 9:7.9565217 10:-18.3 
1 1:1.1538462 2:0.93023256 3:0.44104803 4:0.52401747 5:0.78294574 6:6 7:3 8:4.2857143 9:7.5 10:-20 
1 1:1.28 2:0.98084291 3:0.46910755 4:0.58581236 5:0.78544061 6:4.5714286 7:3.8787879 8:4.5714286 9:8.5333333 10:-21.333333 
1 1:1.4081633 2:1.2212389 3:0.33609959 4:0.57261411 5:0.71681416 6:3.8333333 7:4.8421053 8:4.3125 9:11.5 10:-27.6 
1 1:1.0454545 2:0.8440367 3:0.45177665 4:0.46700508 5:0.81651376 6:5.75 7:4.6 8:4.6 9:6.5714286 10:-15.333333 
1 1:1.175 2:0.98429319 3:0.43872778 4:0.52759588 5:0.81849913 6:5.4230769 7:3.2045455 8:5.4230769 9:8.5454545 10:-20.142857 
1 1:1.0909091 2:0.97959184 3:0.38738739 4:0.43243243 5:0.87755102 6:6 7:3.84 8:8 9:16 10:-12 
1 1:1.1180556 2:0.97134238 3:0.44128933 4:0.49424405 5:0.86726998 6:4.025 7:4.2933333 8:7.3181818 9:6.5714286 10:-40.25 
1 1:1.2753623 2:1.0914729 3:0.40485513 4:0.55129209 5:0.80155039 6:6.7692308 7:3.1711712 8:5.5 9:7.8222222 10:-25.142857 
1 1:1.3246753 2:1.1012146 3:0.44515216 4:0.57749469 5:0.8488529 6:7.8461538 7:6.4761905 8:7.2857143 9:11.657143 10:-18.545455 
1 1:1.1681416 2:0.90488432 3:0.41763882 4:0.49276715 5:0.76692374 6:4.2580645 7:2.9171271 8:3.8823529 9:8.3809524 10:-17.6 
1 1:1.0882353 2:0.87058824 3:0.48993289 4:0.4966443 5:0.85882353 6:6.1666667 7:3.2173913 8:6.1666667 9:9.25 10:-18.5 
0.0166439040046952 1:1.2863636 2:1.0235081 3:0.38669238 4:0.54580521 5:0.72513562 6:4.0428571 7:3.9305556 8:3.7236842 9:8.3235294 10:-25.727273 
1 1:1.2222222 2:1.1 3:0.36923077 4:0.50769231 5:0.8 6:6.6 7:3.3846154 8:5.5 9:11 10:-22 
1 1:1.1893939 2:0.94152924 3:0.54396135 4:0.60676329 5:0.84407796 6:6.0384615 7:5.5087719 8:6.0384615 9:8.4864865 10:-19.625 
1 1:1.4038462 2:1.1774194 3:0.35384615 4:0.56153846 5:0.74193548 6:6.0833333 7:3.5609756 8:4.5625 9:7.3 10:-24.333333 
1 1:1.2826087 2:0.96721311 3:0.36434109 4:0.45736434 5:0.7704918 6:3.6875 7:4.2142857 8:4.2142857 9:5.9 10:-19.666667 
1 1:1.2027027 2:0.90585242 3:0.42469471 4:0.48303935 5:0.79643766 6:7.4166667 7:4.3414634 8:4.45 9:6.5925926 10:-17.8 
1 1:1.2272727 2:1.1868132 3:0.36945813 4:0.5320197 5:0.82417582 6:6.75 7:3 8:6.75 9:10.8 10:-27 
1 1:1.1973684 2:0.89434889 3:0.37675607 4:0.46487867 5:0.72481572 6:4.1363636 7:4.1363636 8:3.25 9:6.7407407 10:-30.333333 
1 1:1.3888889 2:1.1075949 3:0.36024845 4:0.54347826 5:0.73417722 6:4.8611111 7:3.7634409 8:4.1666667 9:9.7222222 10:-19.444444 
1 1:1.3083333 2:1.0572391 3:0.37042925 4:0.49920509 5:0.78451178 6:3.925 7:4.5507246 8:4.90625 9:8.2631579 10:-22.428571 
0.005783936484700034 1:1.325 2:1.0241546 3:0.43324251 4:0.57765668 5:0.76811594 6:8.8333333 7:3.9259259 8:4.4166667 9:9.6363636 10:-53 
1 1:1.0357143 2:0.83453237 3:0.45816733 4:0.46215139 5:0.82733813 6:4.8333333 7:2.32 8:4.8333333 9:6.4444444 10:-14.5 
1 1:1.1888889 2:0.96396396 3:0.45812808 4:0.5270936 5:0.83783784 6:4.8636364 7:4.4583333 8:5.9444444 9:9.7272727 10:-17.833333 
1 1:1.0555556 2:0.81545064 3:0.50670241 4:0.50938338 5:0.8111588 6:5.9375 7:4.75 8:4.3181818 9:6.7857143 10:-23.75 
1 1:1.1857143 2:1.0199693 3:0.40511232 4:0.51432998 5:0.80337942 6:4.3684211 7:3.5698925 8:5.1875 9:7.3777778 10:-23.714286 
1 1:1.4722222 2:1.2045455 3:0.36170213 4:0.56382979 5:0.77272727 6:6.625 7:3.7857143 8:5.3 9:13.25 10:-17.666667 
1 1:1.340708 2:1.1149954 3:0.49078727 4:0.67671692 5:0.80864765 6:5.05 7:4.4888889 8:5.8269231 9:8.3013699 10:-25.25 
1 1:1.1408451 2:0.91525424 3:0.45686901 4:0.51757188 5:0.8079096 6:5.4 7:4.6956522 8:4.7647059 9:9 10:-20.25 
0.008489577023428868 1:1.1153846 2:0.84057971 3:0.5047619 4:0.55238095 5:0.76811594 6:14.5 7:4.1428571 8:3.625 9:9.6666667 10:-14.5 
0.0007606488602774908 1:1.3768116 2:1.0841655 3:0.38784696 4:0.57014254 5:0.73751783 6:5 7:8.2608696 8:4.1304348 9:14.074074 10:-38 
1 1:1.0462963 2:0.8968254 3:0.49074074 4:0.52314815 5:0.84126984 6:4.7083333 7:3.5873016 8:5.65 9:6.2777778 10:-28.25 
1 1:1.2315789 2:0.98216159 3:0.39334424 4:0.5106383 5:0.75655824 6:4.1785714 7:3.6850394 8:4.0344828 9:12 10:-19.5 
1 1:1.1449275 2:0.9362963 3:0.44216571 4:0.51845775 5:0.79851852 6:5.2666667 7:4.5797101 8:4.6470588 9:8.1025641 10:-31.6 
0.7134455870312537 1:1.3690476 2:1.0454545 3:0.37837838 4:0.51801802 5:0.76363636 6:5.2272727 7:7.6666667 8:4.4230769 9:5.75 10:-28.75 
1 1:1.1590909 2:0.92030075 3:0.54731707 4:0.59707317 5:0.84360902 6:6.9545455 7:4.78125 8:5.8846154 9:9.2727273 10:-21.857143 
1 1:1.1555556 2:0.85071575 3:0.39707537 4:0.46794151 5:0.72188139 6:3.25 7:2.8493151 8:3.0588235 9:5.9428571 10:-20.8 
1 1:1.24 2:1.0122449 3:0.41418764 4:0.56750572 5:0.73877551 6:6.2 7:3.4444444 8:3.875 9:13.777778 10:-20.666667 
1 1:1.0952381 2:0.88888889 3:0.39066339 4:0.45208845 5:0.76811594 6:5.75 7:4.8421053 8:3.8333333 9:6.1333333 10:-15.333333 
1 1:1.1408451 2:0.82758621 3:0.44601638 4:0.48250186 5:0.76500639 6:6.2307692 7:3.5604396 8:3.5217391 9:7.902439 10:-16.2 
1 1:1.2397959 2:0.99082569 3:0.42761319 4:0.54332029 5:0.77981651 6:4.1896552 7:4.1896552 8:4.5 9:9.9183673 10:-24.3 
1 1:1.2135922 2:1.0729614 3:0.41649049 4:0.52854123 5:0.84549356 6:5 7:4.0983607 8:6.9444444 9:8.0645161 10:-35.714286 
1 1:1.3412698 2:1.0384025 3:0.3634277 4:0.517215 5:0.7296467 6:4.9705882 7:3.5578947 8:3.8409091 9:7.5111111 10:-33.8 
1 1:1.1791045 2:1.0015848 3:0.38461538 4:0.49106449 5:0.7844691 6:5.6428571 7:3.3617021 8:4.6470588 9:8.5405405 10:-19.75 
1 1:1.3035714 2:1.0103806 3:0.41767764 4:0.50606586 5:0.83391003 6:7.3 7:4.7096774 8:6.0833333 9:9.7333333 10:-14.6 
0.732484378263656 1:1.2542373 2:0.90243902 3:0.40277778 4:0.51388889 5:0.70731707 6:5.2857143 7:3.9466667 8:3.0833333 9:8.2222222 10:-21.142857 
0.9945920167536146 1:1.42 2:1.109375 3:0.33333333 4:0.56349206 5:0.65625 6:3.55 7:4.1764706 8:3.2272727 9:11.833333 10:-71 
0.001897503576621293 1:1.4264706 2:1.3566434 3:0.46289753 4:0.68551237 5:0.91608392 6:5.3888889 7:5.7058824 8:16.166667 9:16.166667 10:-24.25 
1 1:1.1590909 2:0.94226328 3:0.41656366 4:0.50432633 5:0.77829099 6:4.25 7:3.4 8:4.25 9:6.5806452 10:-34 
1 1:1.1666667 2:0.90566038 3:0.44157815 4:0.50986343 5:0.78436658 6:6 7:3.1111111 8:4.2 9:6.2222222 10:-28 
0.004221110814936755 1:1.0957447 2:0.80784314 3:0.39869281 4:0.44880174 5:0.71764706 6:6.4375 7:6.2424242 8:2.8611111 9:25.75 10:-17.166667 
1 1:1.1346154 2:0.94779116 3:0.44766147 4:0.52561247 5:0.80722892 6:7.375 7:3.6875 8:4.9166667 9:10.727273 10:-29.5 
0.7663465277741238 1:1.3055556 2:1.1313942 3:0.39225991 4:0.53893932 5:0.82347041 6:5.2222222 7:6.7951807 8:6.4090909 9:19.448276 10:-20.142857 
1 1:1.1136364 2:0.93422307 3:0.48096515 4:0.52546917 5:0.8551001 6:4.9 7:4.8039216 8:6.4473684 9:8.5964912 10:-15.3125 
1 1:1.1875 2:0.9947644 3:0.41333333 4:0.50666667 5:0.81151832 6:4.3181818 7:4.0425532 8:5.2777778 9:10.555556 10:-19 
1 1:1.2323944 2:1.0785824 3:0.39925651 4:0.5204461 5:0.82742681 6:4.375 7:5.0724638 8:6.25 9:12.962963 10:-15.909091 
0.9242602299271345 1:1.2045455 2:1.0392157 3:0.40952381 4:0.5047619 5:0.84313725 6:4.4166667 7:4.4166667 8:6.625 9:13.25 10:-26.5 
1 1:1.1388889 2:0.91364903 3:0.43661972 4:0.51330203 5:0.77715877 6:6.8333333 7:2.8275862 8:4.1 9:8.6315789 10:-16.4 
1 1:1.2272727 2:0.93103448 3:0.40186916 4:0.5046729 5:0.74137931 6:5.4 7:3.5409836 8:3.6 9:6.75 10:-21.6 
1 1:1.2857143 2:1.1550802 3:0.37984496 4:0.55813953 5:0.78609626 6:3.8571429 7:3.375 8:5.4 9:9.8181818 10:-27 
1 1:1.3666667 2:1.1043771 3:0.33817126 4:0.47605225 5:0.78451178 6:5.8571429 7:3.4166667 8:5.125 9:7.8095238 10:-20.5 
1 1:1.1346154 2:1.0442478 3:0.37349398 4:0.47389558 5:0.82300885 6:3.6875 7:2.8780488 8:5.9 9:8.4285714 10:-19.666667 
1 1:0.94444444 2:0.83435583 3:0.45017182 4:0.46735395 5:0.80368098 6:5.6666667 7:2.9565217 8:4.25 9:9.7142857 10:-17 
1 1:1 2:0.88311688 3:0.39393939 4:0.41212121 5:0.84415584 6:5.6666667 7:2.8333333 8:5.6666667 9:6.8 10:-17 
1 1:1.1041667 2:1.0392157 3:0.42056075 4:0.4953271 5:0.88235294 6:4.4166667 7:4.24 8:8.8333333 9:13.25 10:-13.25 
1 1:1.2727273 2:0.97391304 3:0.38461538 4:0.50678733 5:0.73913043 6:5.0909091 7:3.3939394 8:3.7333333 9:7 10:-28 
1 1:1.3333333 2:1.0118577 3:0.45762712 4:0.61985472 5:0.74703557 6:6.4 7:4.4137931 8:4 9:6.0952381 10:-32 
1 1:1.1336634 2:0.90873016 3:0.41880342 4:0.48931624 5:0.77777778 6:3.9482759 7:3.8813559 8:4.0892857 9:6.7352941 10:-14.3125 
1 1:1.0166667 2:0.77707006 3:0.40484429 4:0.42214533 5:0.74522293 6:5.0833333 7:3.4857143 8:3.05 9:5.5454545 10:-20.333333 
1 1:1.1666667 2:0.94915254 3:0.38461538 4:0.44562334 5:0.81920904 6:7 7:4 8:5.25 9:7.6363636 10:-14 
1 1:1.2719298 2:1.0086957 3:0.41736695 4:0.54154995 5:0.7773913 6:4.2647059 7:3.9726027 8:4.53125 9:10 10:-20.714286 
1 1:1.2658228 2:1.1126565 3:0.37980456 4:0.52117264 5:0.8108484 6:4.7619048 7:4.1666667 8:5.8823529 9:9.7560976 10:-18.181818 
1 1:1.2368421 2:1.0444444 3:0.42222222 4:0.52222222 5:0.84444444 6:4.2727273 7:5.5294118 8:6.7142857 9:8.5454545 10:-23.5 
1 1:1.2631579 2:1.0029851 3:0.44768439 4:0.57632933 5:0.77910448 6:5.4193548 7:4.7659574 8:4.5405405 9:7.1489362 10:-30.545455 
1 1:0.9 2:0.71523179 3:0.46863469 4:0.39852399 5:0.8410596 6:4.5 7:3.1764706 8:4.5 9:7.7142857 10:-13.5 
1 1:1.0967742 2:0.8802589 3:0.47388781 4:0.52611219 5:0.79288026 6:4.8571429 7:3.7777778 8:4.25 9:9.0666667 10:-34 
1 1:1.3095238 2:1.0576923 3:0.36363636 4:0.5 5:0.76923077 6:5.5 7:3.7931034 8:4.5833333 9:6.875 10:-27.5 
1 1:1.1826923 2:1.0357895 3:0.43286788 4:0.52846402 5:0.84842105 6:4.3928571 7:4.6415094 8:6.8333333 9:10.695652 10:-17.571429 
1 1:1.15 2:0.95833333 3:0.46511628 4:0.53488372 5:0.83333333 6:5.75 7:4.6 8:5.75 9:7.6666667 10:-23 
1 1:1.5365854 2:1.1586207 3:0.48531469 4:0.7048951 5:0.79770115 6:6.3 7:3.8181818 8:5.7272727 9:6.4615385 10:-21 
0.03629052643699084 1:1.1846154 2:0.9903537 3:0.53816047 4:0.60273973 5:0.88424437 6:5.1333333 7:6.0392157 8:8.5555556 9:10.266667 10:-22 
1 1:1.2380952 2:1.003861 3:0.38430584 4:0.52313883 5:0.73745174 6:4.4827586 7:2.9885057 8:3.8235294 9:10 10:-26 
1 1:1.109375 2:0.91909385 3:0.48243993 4:0.52495379 5:0.84466019 6:5.0714286 7:4.4375 8:5.9166667 9:7.4736842 10:-23.666667 
1 1:1.6454545 2:1.3284404 3:0.3381066 4:0.57597454 5:0.77981651 6:6.9615385 7:4.7631579 8:6.0333333 9:13.407407 10:-16.454545 
1 1:1.18 2:0.91119691 3:0.4422658 4:0.51416122 5:0.78378378 6:5.9 7:3.5757576 8:4.2142857 9:9.0769231 10:-14.75 
1 1:0.84285714 2:0.69822485 3:0.40401146 4:0.33810888 5:0.83431953 6:4.9166667 7:3.1891892 8:4.2142857 9:7.375 10:-9.8333333 
1 1:1.0918367 2:0.82625483 3:0.46539379 4:0.51073986 5:0.75289575 6:4.4583333 7:3.754386 8:3.34375 9:6.6875 10:-21.4 
0.8392228959531418 1:1.2623762 2:1.1460674 3:0.43618202 4:0.56603774 5:0.88314607 6:4.25 7:5.049505 8:9.8076923 9:12.142857 10:-25.5 
1 1:1.3 2:1.0446429 3:0.38679245 4:0.55188679 5:0.73214286 6:4.5 7:3.8360656 8:3.9 9:8.3571429 10:-29.25 
1 1:1.38 2:1.1196755 3:0.36532811 4:0.54064643 5:0.75659229 6:4.3125 7:4.3809524 8:4.6 9:8.3636364 10:-23 
1 1:1.2236842 2:0.95140665 3:0.34610473 4:0.47509579 5:0.69309463 6:3.5769231 7:2.8615385 8:3.1 9:7.44 10:-18.6 
1 1:1.2 2:0.93506494 3:0.37254902 4:0.47058824 5:0.74025974 6:6 7:2.6666667 8:3.6 9:7.2 10:-18 
0.06265584433710171 1:1.2037037 2:0.93189964 3:0.39562624 4:0.51689861 5:0.71326165 6:3.8235294 7:3.2911392 8:3.25 9:5.9090909 10:-43.333333 
1 1:1.4487179 2:1.2417582 3:0.33333333 4:0.56218905 5:0.73626374 6:4.3461538 7:4.0357143 8:4.7083333 9:8.0714286 10:-28.25 
1 1:1.3916667 2:1.1577123 3:0.36965633 4:0.55993294 5:0.76429809 6:4.9117647 7:3.9761905 8:4.9117647 9:8.5641026 10:-41.75 
1 1:1.3841463 2:1.2139037 3:0.3764988 4:0.54436451 5:0.83957219 6:5.675 7:3.7213115 8:7.5666667 9:10.318182 10:-20.636364 
1 1:1.1975309 2:1.0157068 3:0.43440233 4:0.56559767 5:0.78010471 6:3.3448276 7:3.4336283 8:4.6190476 9:6.6896552 10:-27.714286 
1 1:1.3870968 2:1.1862069 3:0.43554007 4:0.59930314 5:0.86206897 6:5.7333333 7:5.2923077 8:8.6 9:14.333333 10:-19.111111 
1 1:1.0434783 2:0.89302326 3:0.42459397 4:0.44547564 5:0.85116279 6:4 7:3.5555556 8:6 9:8.7272727 10:-12 
1 1:1.3030303 2:1.1986063 3:0.30935252 4:0.49496403 5:0.74912892 6:4.3 7:3.44 8:4.7777778 9:10.117647 10:-28.666667 
0.3489484205627152 1:1.1052632 2:0.85279188 3:0.48220065 4:0.54368932 5:0.75634518 6:10.5 7:4.4210526 8:3.5 9:12 10:-42 
1 1:1.2708333 2:1.042735 3:0.30566038 4:0.46037736 5:0.69230769 6:6.1 7:2.9756098 8:3.3888889 9:7.625 10:-30.5 
0.01667021043779865 1:1.56 2:1.5145631 3:0.28727273 4:0.56727273 5:0.76699029 6:4.3333333 7:3.5454545 8:6.5 9:7.0909091 10:39 
1 1:0.98039216 2:0.82474227 3:0.43626943 4:0.41450777 5:0.86804124 6:4.5454545 7:4.8780488 8:6.25 9:11.764706 10:-12.5 
0.02251273327884226 1:1.3333333 2:1 3:0.46428571 4:0.57142857 5:0.8125 6:16 7:6.4 8:5.3333333 9:8 10:-32 
1 1:1.2727273 2:1.1558308 3:0.44812602 4:0.60836502 5:0.85139319 6:5.3846154 7:4 8:7.7777778 9:16 10:-21.538462 
1 1:1.3928571 2:1.1243243 3:0.3144606 4:0.47742923 5:0.74054054 6:5.2 7:3.0891089 8:4.3333333 9:10.064516 10:-15.6 
0.3896005613975457 1:1.425 2:1.0754717 3:0.33333333 4:0.51351351 5:0.69811321 6:4.75 7:3.8 8:3.5625 9:7.125 10:-57 
1 1:1.1826923 2:1.0165289 3:0.39130435 4:0.48616601 5:0.81818182 6:4.3928571 7:4.3928571 8:5.5909091 9:10.25 10:-20.5 
1 1:1.1697248 2:1.021021 3:0.43054869 4:0.50420168 5:0.87187187 6:5.5434783 7:4.7222222 8:7.96875 9:12.439024 10:-15 
1 1:1.1269841 2:0.94352159 3:0.38461538 4:0.44583987 5:0.81395349 6:4.4375 7:3.5061728 8:5.0714286 9:10.142857 10:-15.777778 
1 1:1.2391304 2:1.0239521 3:0.36778116 4:0.51975684 5:0.7245509 6:4.5 7:3.6382979 8:3.7173913 9:7.4347826 10:-24.428571 
0.195331192330364 1:0.92307692 2:0.71111111 3:0.39163498 4:0.36501901 5:0.76296296 6:12 7:3 8:3 9:9.6 10:-12 
0.002562426112828374 1:1.25 2:0.90909091 3:0.44 4:0.53333333 5:0.75 6:13.333333 7:8.4210526 8:3.6363636 9:13.333333 10:-20 
1 1:1.175 2:0.98947368 3:0.48538012 4:0.5497076 5:0.87368421 6:8.5454545 7:6.0645161 8:7.8333333 9:11.75 10:-17.090909 
1 1:1.1521739 2:0.9339207 3:0.44416873 4:0.52605459 5:0.78854626 6:5.3 7:5.5789474 8:4.4166667 9:11.777778 10:-17.666667 
1 1:1.0833333 2:0.7761194 3:0.30512249 4:0.34743875 5:0.68159204 6:3.25 7:2.4375 8:2.4375 9:6 10:-9.75 
0.7049013568858116 1:1.28125 2:0.98203593 3:0.43050847 4:0.5559322 5:0.76047904 6:6.8333333 7:7.4545455 8:4.1 9:11.714286 10:-41 
1 1:1.212766 2:0.96815287 3:0.40882002 4:0.54350417 5:0.72823779 6:3.8 7:3.04 8:3.5625 9:12 10:-28.5 
1 1:1.0263158 2:0.84782609 3:0.48717949 4:0.5 5:0.82608696 6:6.5 7:3.3913043 8:4.875 9:9.75 10:-39 
1 1:1.2307692 2:1 3:0.35294118 4:0.47058824 5:0.75 6:5.3333333 7:3.7647059 8:4 9:8 10:-16 
1 1:1.3235294 2:1.2 3:0.37423313 4:0.55214724 5:0.81333333 6:3.75 7:4.2857143 8:6.4285714 9:10 10:-18 
1 1:1.28125 2:1.055794 3:0.39468303 4:0.50306748 5:0.82832618 6:6.8333333 7:3.7846154 8:6.15 9:8.7857143 10:-13.666667 
1 1:1.0357143 2:0.7483871 3:0.50617284 4:0.47736626 5:0.79354839 6:7.25 7:3.625 8:3.625 9:5.2727273 10:-14.5 
1 1:1.3611111 2:1.1104816 3:0.42589704 4:0.61154446 5:0.7733711 6:4.9 7:4.7804878 8:4.9 9:9.3333333 10:-24.5 
1 1:1.2407407 2:1.0268199 3:0.4251497 4:0.53493014 5:0.81609195 6:4.7857143 7:4.3225806 8:5.5833333 9:8.9333333 10:-22.333333 
1 1:1.1666667 2:0.8630137 3:0.41880342 4:0.53846154 5:0.67123288 6:4.5 7:3 8:2.625 9:7 10:-31.5 
1 1:1.2965116 2:1.1690695 3:0.42136695 4:0.59190445 5:0.83224115 6:6.96875 7:3.779661 8:6.96875 9:15.37931 10:-18.583333 
1 1:1.1330275 2:0.988 3:0.40562249 4:0.49598394 5:0.808 6:4.1166667 7:3.2715232 8:5.1458333 9:10.291667 10:-14.529412 
1 1:1.1858974 2:0.9762533 3:0.43178622 4:0.52039381 5:0.81002639 6:4.0217391 7:4.1573034 8:5.1388889 9:10.882353 10:-20.555556 
1 1:1.2142857 2:1.0342205 3:0.46436285 4:0.587473 5:0.81749049 6:5.6666667 7:4.6896552 8:5.6666667 9:9.0666667 10:-22.666667 
1 1:1.12 2:0.90322581 3:0.46153846 4:0.53846154 5:0.77419355 6:4.6666667 7:2.9473684 8:4 9:14 10:-18.666667 
1 1:1.2105263 2:0.91770574 3:0.39213026 4:0.49932157 5:0.72069825 6:5.1111111 7:3.68 8:3.2857143 9:6.8148148 10:-23 
1 1:1.2326733 2:1.035343 3:0.46424518 4:0.56526674 5:0.85031185 6:4.98 7:5.4130435 8:6.9166667 9:11.318182 10:-17.785714 
0.9769641978603844 1:1.2836538 2:1.0298939 3:0.42534633 4:0.54797332 5:0.79942141 6:7.4166667 7:4.9444444 8:5.1346154 9:9.7090909 10:-20.538462 
0.3805662737216214 1:0.953125 2:0.74846626 3:0.50561798 4:0.45692884 5:0.82822086 6:6.1 7:4.5185185 8:4.3571429 9:12.2 10:-10.166667 
1 1:1.2413793 2:1.0510949 3:0.38566553 4:0.49146758 5:0.82481752 6:5.1428571 7:5.76 8:6 9:12 10:-14.4 
1 1:1.1707317 2:0.95522388 3:0.43236074 4:0.50928382 5:0.81094527 6:5.3333333 7:5.3333333 8:5.0526316 9:8.3478261 10:-19.2 
1 1:1.1666667 2:0.88888889 3:0.392 4:0.448 5:0.77777778 6:4.6666667 7:3.1111111 8:4 9:7 10:-14 
0.01718618788707098 1:1.2 2:0.91304348 3:0.46835443 4:0.53164557 5:0.80434783 6:5.25 7:5.0909091 8:4.6666667 9:7 10:-12 
1 1:1.25 2:1.0423453 3:0.42342342 4:0.57657658 5:0.76547231 6:4.4444444 7:3.4042553 8:4.4444444 9:7.6190476 10:-26.666667 
1 1:1.15 2:0.92929293 3:0.46716698 4:0.51782364 5:0.83838384 6:4.9285714 7:4.6 8:5.75 9:9.2 10:-23 
1 1:0.85365854 2:0.68796069 3:0.48241913 4:0.39381153 5:0.84275184 6:4.375 7:2.8571429 8:4.375 9:8.2352941 10:-11.666667 
0.6511191431010132 1:1.3177083 2:1.0765957 3:0.3785558 4:0.5536105 5:0.73617021 6:3.953125 7:3.8333333 8:4.0806452 9:18.071429 10:-25.3 
0.02898038688899674 1:1.0357143 2:0.80555556 3:0.36842105 4:0.38157895 5:0.77777778 6:7.25 7:2.6363636 8:3.625 9:9.6666667 10:-29 
1 1:1.6268657 2:1.4754653 3:0.34612177 4:0.72727273 5:0.70219966 6:5.45 7:3.2058824 8:4.9545455 9:9.2765957 10:-36.333333 
1 1:1.1603774 2:0.88172043 3:0.503386 4:0.55530474 5:0.79928315 6:6.8333333 7:4.6415094 8:4.3928571 9:9.4615385 10:-24.6 
0.3458820160668326 1:1.3098592 2:1.1121076 3:0.35658363 4:0.52953737 5:0.74887892 6:4.8947368 7:4.0434783 8:4.4285714 9:9.5384615 10:-31 
0.07464006526128601 1:1.127451 2:0.94455852 3:0.46786922 4:0.51860203 5:0.85215606 6:4.1071429 7:6.2162162 8:6.3888889 9:7.4193548 10:-23 
1 1:1.2244898 2:1.038961 3:0.45316456 4:0.60759494 5:0.77489177 6:5.4545455 7:2.6373626 8:4.6153846 9:10.909091 10:-20 
1 1:1.0974026 2:0.92729767 3:0.45384019 4:0.52443755 5:0.80246914 6:4.6944444 7:4.0722892 8:4.6944444 9:16.095238 10:-18.777778 
1 1:1.3333333 2:1.0118577 3:0.42733189 4:0.55531453 5:0.77865613 6:6.4 7:4.9230769 8:4.5714286 9:7.5294118 10:-32 
0.07436959678961212 1:1.1724138 2:0.95438596 3:0.4251497 4:0.54291417 5:0.74736842 6:5.6666667 7:3.1627907 8:3.7777778 9:10.461538 10:-34 
1 1:1.2183099 2:1.054878 3:0.41317365 4:0.51796407 5:0.84146341 6:5.0882353 7:5.3230769 8:6.6538462 9:14.416667 10:-19.222222 
0.007840796799800057 1:1.2586207 2:1.020979 3:0.35055351 4:0.53874539 5:0.66433566 6:4.0555556 7:4.4242424 8:3.0416667 9:18.25 10:-73 
1 1:1.2916667 2:1.0829694 3:0.43859649 4:0.56750572 5:0.83697234 6:5.1666667 7:4.65 8:6.6428571 9:9.5384615 10:-16.909091 
0.9786932560793281 1:1.19 2:0.9500998 3:0.46666667 4:0.53785311 5:0.8243513 6:8.5 7:5.4090909 8:5.4090909 9:11.333333 10:-19.833333 
1 1:1.16 2:1.0175439 3:0.41690962 4:0.50728863 5:0.83625731 6:4.35 7:3.1926606 8:6.2142857 9:11.6 10:-24.857143 
1 1:1.173913 2:0.87096774 3:0.36666667 4:0.45 5:0.70967742 6:4.5 7:2.7 8:3 9:6.75 10:-18 
1 1:1.2156863 2:1.0666667 3:0.36863137 4:0.4955045 5:0.79354839 6:3.875 7:3.7575758 8:5.1666667 9:9.1851852 10:-15.5 
1 1:1.1544715 2:0.99824253 3:0.41318477 4:0.5273909 5:0.78207381 6:3.55 7:3.1381215 8:4.5806452 9:8.1142857 10:-21.846154 
1 1:1.4342105 2:1.1978022 3:0.33333333 4:0.55897436 5:0.71428571 6:5.45 7:4.5416667 8:4.1923077 9:9.9090909 10:-18.166667 
1 1:1.2735849 2:1.011236 3:0.41747573 4:0.52427184 5:0.80524345 6:4.5 7:5.1923077 8:5.1923077 9:7.9411765 10:-19.285714 
1 1:1.2647059 2:1.0268657 3:0.37411095 4:0.48933144 5:0.78507463 6:6.1428571 7:4.195122 8:4.7777778 9:13.230769 10:-17.2 
1 1:0.96808511 2:0.74437628 3:0.4041621 4:0.39868565 5:0.75460123 6:3.25 7:2.8 8:3.0333333 9:4.9189189 10:-18.2 
1 1:1.4393939 2:1.091954 3:0.4379085 4:0.62091503 5:0.77011494 6:6.7857143 7:4.2222222 8:4.75 9:7.9166667 10:-23.75 
1 1:1.2232143 2:1.0320151 3:0.44774688 4:0.52540748 5:0.87947269 6:5.7083333 7:5.1698113 8:8.5625 9:7.8285714 10:-19.571429 
1 1:1.3448276 2:1.1885714 3:0.43482587 4:0.62089552 5:0.83238095 6:6 7:3.3548387 8:7.0909091 9:13.565217 10:-17.333333 
1 1:1.0188679 2:0.95364238 3:0.42054054 4:0.46702703 5:0.85871965 6:3.8571429 7:4.2352941 8:6.75 9:9.3913043 10:-18 
1 1:1.1911765 2:1.022082 3:0.45187602 4:0.52854812 5:0.87381703 6:5.7857143 7:4.7647059 8:8.1 9:10.8 10:-27 
1 1:1.1397059 2:0.86834734 3:0.50087873 4:0.54481547 5:0.79831933 6:4.84375 7:3.1 8:4.3055556 9:7.0454545 10:-17.222222 
1 1:1.4090909 2:1.1698113 3:0.33333333 4:0.52991453 5:0.73584906 6:3.4444444 7:3.1 8:4.4285714 9:7.75 10:-20.666667 
1 1:1.2173913 2:0.96969697 3:0.4021978 4:0.49230769 5:0.79220779 6:5.6 7:3.862069 8:4.6666667 9:8.6153846 10:-18.666667 
1 1:1.3636364 2:1.0169492 3:0.42056075 4:0.56074766 5:0.76271186 6:6 7:5.4545455 8:4.2857143 9:7.5 10:-20 
1 1:1.46 2:1.140625 3:0.37984496 4:0.56589147 5:0.765625 6:7.3 7:5.4074074 8:4.8666667 9:9.125 10:-18.25 
0.003776458228540419 1:1.5 2:1.362776 3:0.38950715 4:0.68680445 5:0.77287066 6:7.7142857 7:6.75 8:6 9:24 10:108 
1 1:1.0762712 2:0.88271069 3:0.49975382 4:0.50024618 5:0.88184188 6:7.9375 7:4.2333333 8:7.4705882 9:6.7733333 10:-14.111111 
0.1906193830056301 1:1.3604651 2:1.1011765 3:0.3461975 4:0.53121453 5:0.71764706 6:4.1785714 7:4.875 8:3.9 9:8.0689655 10:-39 
0.6478408335262115 1:1.2777778 2:1.0337079 3:0.47712418 4:0.60130719 5:0.82022472 6:7.6666667 7:5.1111111 8:5.75 9:11.5 10:-46 
1 1:1.2407407 2:0.9981378 3:0.45057232 4:0.55775234 5:0.80633147 6:5.1538462 7:4.1875 8:5.1538462 9:10.72 10:-19.142857 
1 1:1.2340426 2:1.0892019 3:0.39393939 4:0.54079254 5:0.79342723 6:3.8666667 7:4 8:5.2727273 9:19.333333 10:-19.333333 
1 1:1.1741573 2:1.0372208 3:0.36612022 4:0.4568306 5:0.83126551 6:4.5434783 7:5.4285714 8:6.1470588 9:12.294118 10:-17.416667 
0.005385500794874472 1:1.03 2:0.81102362 3:0.47186147 4:0.44588745 5:0.85826772 6:7.3571429 7:9.3636364 8:5.7222222 9:14.714286 10:-12.875 
1 1:1.4583333 2:1.1864407 3:0.39255014 4:0.6017192 5:0.7740113 6:4.375 7:4.375 8:5.25 9:8.75 10:-21 
1 1:1.037037 2:0.80286738 3:0.44689379 4:0.4488978 5:0.79928315 6:5.0909091 7:3.1111111 8:4 9:7 10:-18.666667 
1 1:0.96153846 2:0.80645161 3:0.51020408 4:0.51020408 5:0.80645161 6:6.25 7:3.5714286 8:4.1666667 9:12.5 10:-12.5 
1 1:1.4 2:1.05 3:0.34883721 4:0.48837209 5:0.75 6:5.25 7:4.6666667 8:4.2 9:7 10:-21 
1 1:1.25 2:1.0526316 3:0.47222222 4:0.55555556 5:0.89473684 6:6.6666667 7:5 8:10 9:10 10:-20 
0.2336971338291093 1:1.1753247 2:0.87545345 3:0.49499615 4:0.55735181 5:0.77750907 6:5.65625 7:8.0444444 8:3.9347826 9:10.342857 10:-22.625 
1 1:1.1454545 2:0.91387126 3:0.45873911 4:0.51665812 5:0.81142339 6:5.04 7:4.1652893 8:4.8461538 9:10.285714 10:-18 
1 1:1.0869565 2:0.90909091 3:0.4368932 4:0.48543689 5:0.81818182 6:6.25 7:4.3478261 8:5 9:12.5 10:-25 
1 1:1.2413793 2:0.96969697 3:0.40949033 4:0.50615114 5:0.78451178 6:5.1428571 7:4.2352941 8:4.5 9:8.4705882 10:-14.4 
