svm_type c_svc
kernel_type rbf
gamma 0.2
nr_class 2
total_sv 2788
rho 3.41464
label 1 -1
nr_sv 1396 1392
SV
1 1:1.2222222 2:1.1 3:0.36923077 4:0.50769231 5:0.8 
1 1:1.3602941 2:0.99730458 3:0.31935882 4:0.45622688 5:0.69811321 
1 1:1.1893939 2:0.94152924 3:0.54396135 4:0.60676329 5:0.84407796 
1 1:1.4038462 2:1.1774194 3:0.35384615 4:0.56153846 5:0.74193548 
1 1:1.2826087 2:0.96721311 3:0.36434109 4:0.45736434 5:0.7704918 
1 1:1.2027027 2:0.90585242 3:0.42469471 4:0.48303935 5:0.79643766 
1 1:1.2272727 2:1.1868132 3:0.36945813 4:0.5320197 5:0.82417582 
1 1:1.3888889 2:1.1075949 3:0.36024845 4:0.54347826 5:0.73417722 
1 1:1.3083333 2:1.0572391 3:0.37042925 4:0.49920509 5:0.78451178 
1 1:1.325 2:1.0241546 3:0.43324251 4:0.57765668 5:0.76811594 
1 1:1.3173077 2:1.1070707 3:0.38590957 4:0.57623554 5:0.74141414 
1 1:1.1888889 2:0.96396396 3:0.45812808 4:0.5270936 5:0.83783784 
1 1:1.1857143 2:1.0199693 3:0.40511232 4:0.51432998 5:0.80337942 
1 1:1.4722222 2:1.2045455 3:0.36170213 4:0.56382979 5:0.77272727 
1 1:1.340708 2:1.1149954 3:0.49078727 4:0.67671692 5:0.80864765 
1 1:1.1617647 2:0.99579832 3:0.42533937 4:0.5361991 5:0.78991597 
1 1:1.1408451 2:0.91525424 3:0.45686901 4:0.51757188 5:0.8079096 
1 1:1.3768116 2:1.0841655 3:0.38784696 4:0.57014254 5:0.73751783 
1 1:1.0462963 2:0.8968254 3:0.49074074 4:0.52314815 5:0.84126984 
1 1:1.3333333 2:1.025641 3:0.4084507 4:0.56338028 5:0.74358974 
1 1:1.2315789 2:0.98216159 3:0.39334424 4:0.5106383 5:0.75655824 
1 1:1.1449275 2:0.9362963 3:0.44216571 4:0.51845775 5:0.79851852 
1 1:1.3690476 2:1.0454545 3:0.37837838 4:0.51801802 5:0.76363636 
1 1:1.1590909 2:0.92030075 3:0.54731707 4:0.59707317 5:0.84360902 
1 1:1.2142857 2:0.97607656 3:0.4270557 4:0.54111406 5:0.77033493 
1 1:1.24 2:1.0122449 3:0.41418764 4:0.56750572 5:0.73877551 
1 1:1.375 2:1.0819672 3:0.38461538 4:0.56410256 5:0.73770492 
1 1:1.2397959 2:0.99082569 3:0.42761319 4:0.54332029 5:0.77981651 
1 1:1.2135922 2:1.0729614 3:0.41649049 4:0.52854123 5:0.84549356 
1 1:1.3412698 2:1.0384025 3:0.3634277 4:0.517215 5:0.7296467 
1 1:1.1791045 2:1.0015848 3:0.38461538 4:0.49106449 5:0.7844691 
1 1:1.3035714 2:1.0103806 3:0.41767764 4:0.50606586 5:0.83391003 
1 1:1.42 2:1.109375 3:0.33333333 4:0.56349206 5:0.65625 
1 1:1.4264706 2:1.3566434 3:0.46289753 4:0.68551237 5:0.91608392 
1 1:1.1346154 2:0.94779116 3:0.44766147 4:0.52561247 5:0.80722892 
1 1:1.295082 2:1.0657673 3:0.3442623 4:0.49336456 5:0.74367622 
1 1:1.3055556 2:1.1313942 3:0.39225991 4:0.53893932 5:0.82347041 
1 1:1.1136364 2:0.93422307 3:0.48096515 4:0.52546917 5:0.8551001 
1 1:1.1875 2:0.9947644 3:0.41333333 4:0.50666667 5:0.81151832 
1 1:1.3181818 2:1.0481928 3:0.33333333 4:0.50877193 5:0.68674699 
1 1:1.2323944 2:1.0785824 3:0.39925651 4:0.5204461 5:0.82742681 
1 1:1.2946429 2:0.97315436 3:0.37457045 4:0.49828179 5:0.73154362 
1 1:1.2093023 2:0.93064877 3:0.45478375 4:0.54521625 5:0.77628635 
1 1:1.2045455 2:1.0392157 3:0.40952381 4:0.5047619 5:0.84313725 
1 1:1.2857143 2:1.1550802 3:0.37984496 4:0.55813953 5:0.78609626 
1 1:1.3666667 2:1.1043771 3:0.33817126 4:0.47605225 5:0.78451178 
1 1:1.2890625 2:1.0248447 3:0.44237918 4:0.6133829 5:0.73913043 
1 1:1.1346154 2:1.0442478 3:0.37349398 4:0.47389558 5:0.82300885 
1 1:1.6363636 2:1.2743363 3:0.32444444 4:0.64 5:0.6460177 
1 1:1.3684211 2:1.1324864 3:0.35403727 4:0.55368234 5:0.72413793 
1 1:1.1041667 2:1.0392157 3:0.42056075 4:0.4953271 5:0.88235294 
1 1:1.5 2:1.1463415 3:0.40807175 4:0.632287 5:0.7398374 
1 1:1.2727273 2:0.97391304 3:0.38461538 4:0.50678733 5:0.73913043 
1 1:1.3333333 2:1.0118577 3:0.45762712 4:0.61985472 5:0.74703557 
1 1:1.1619718 2:0.93883357 3:0.41477688 4:0.48280907 5:0.80654339 
1 1:1.3265306 2:1.0337972 3:0.43453071 4:0.60254925 5:0.74552684 
1 1:1.1860465 2:0.94009217 3:0.43276284 4:0.49877751 5:0.8156682 
1 1:1.1666667 2:0.94915254 3:0.38461538 4:0.44562334 5:0.81920904 
1 1:1.2719298 2:1.0086957 3:0.41736695 4:0.54154995 5:0.7773913 
1 1:1.2658228 2:1.1126565 3:0.37980456 4:0.52117264 5:0.8108484 
1 1:1.2478261 2:0.96389589 3:0.42664743 4:0.55218855 5:0.74475231 
1 1:1.2368421 2:1.0444444 3:0.42222222 4:0.52222222 5:0.84444444 
1 1:1.2571429 2:1.017341 3:0.40175953 4:0.51612903 5:0.79190751 
1 1:1.2631579 2:1.0029851 3:0.44768439 4:0.57632933 5:0.77910448 
1 1:1.3095238 2:1.0576923 3:0.36363636 4:0.5 5:0.76923077 
1 1:1.1826923 2:1.0357895 3:0.43286788 4:0.52846402 5:0.84842105 
1 1:1.15 2:0.95833333 3:0.46511628 4:0.53488372 5:0.83333333 
1 1:1.5365854 2:1.1586207 3:0.48531469 4:0.7048951 5:0.79770115 
1 1:1.1846154 2:0.9903537 3:0.53816047 4:0.60273973 5:0.88424437 
1 1:1.2380952 2:1.003861 3:0.38430584 4:0.52313883 5:0.73745174 
1 1:1.3695652 2:1.0862069 3:0.37037037 4:0.58333333 5:0.68965517 
1 1:1.109375 2:0.91909385 3:0.48243993 4:0.52495379 5:0.84466019 
1 1:1.0666667 2:0.87272727 3:0.47524752 4:0.47524752 5:0.87272727 
1 1:1.3 2:1.0550725 3:0.346211 4:0.54086181 5:0.67536232 
1 1:1.6454545 2:1.3284404 3:0.3381066 4:0.57597454 5:0.77981651 
1 1:1.18 2:0.91119691 3:0.4422658 4:0.51416122 5:0.78378378 
1 1:1.2623762 2:1.1460674 3:0.43618202 4:0.56603774 5:0.88314607 
1 1:1.3043478 2:0.94302554 3:0.42420938 4:0.52344602 5:0.76424361 
1 1:1.3 2:1.0446429 3:0.38679245 4:0.55188679 5:0.73214286 
1 1:1.2569444 2:0.95263158 3:0.4076087 4:0.49184783 5:0.78947368 
1 1:1.38 2:1.1196755 3:0.36532811 4:0.54064643 5:0.75659229 
1 1:1.4487179 2:1.2417582 3:0.33333333 4:0.56218905 5:0.73626374 
1 1:1.3916667 2:1.1577123 3:0.36965633 4:0.55993294 5:0.76429809 
1 1:1.3841463 2:1.2139037 3:0.3764988 4:0.54436451 5:0.83957219 
1 1:1.1975309 2:1.0157068 3:0.43440233 4:0.56559767 5:0.78010471 
1 1:1.3870968 2:1.1862069 3:0.43554007 4:0.59930314 5:0.86206897 
1 1:1.0434783 2:0.89302326 3:0.42459397 4:0.44547564 5:0.85116279 
1 1:1.3030303 2:1.1986063 3:0.30935252 4:0.49496403 5:0.74912892 
1 1:1.56 2:1.5145631 3:0.28727273 4:0.56727273 5:0.76699029 
1 1:1.1666667 2:0.95950156 3:0.43338954 4:0.51939292 5:0.80062305 
1 1:0.98039216 2:0.82474227 3:0.43626943 4:0.41450777 5:0.86804124 
1 1:1.3333333 2:1 3:0.46428571 4:0.57142857 5:0.8125 
1 1:1.3928571 2:1.1243243 3:0.3144606 4:0.47742923 5:0.74054054 
1 1:1.425 2:1.0754717 3:0.33333333 4:0.51351351 5:0.69811321 
1 1:1.2413793 2:0.97792869 3:0.43124415 4:0.53882133 5:0.78268251 
1 1:1.1697248 2:1.021021 3:0.43054869 4:0.50420168 5:0.87187187 
1 1:1.1315789 2:0.89119171 3:0.45609065 4:0.48725212 5:0.83419689 
1 1:1.25 2:0.90909091 3:0.44 4:0.53333333 5:0.75 
1 1:1.175 2:0.98947368 3:0.48538012 4:0.5497076 5:0.87368421 
1 1:1.1428571 2:0.93492696 3:0.42059801 4:0.46777409 5:0.84063745 
1 1:1.1521739 2:0.9339207 3:0.44416873 4:0.52605459 5:0.78854626 
1 1:1.1927711 2:0.94173603 3:0.51497443 4:0.57852447 5:0.83828775 
1 1:1.3378378 2:1.2147239 3:0.32816537 4:0.51162791 5:0.7791411 
1 1:1.3235294 2:1.0714286 3:0.41071429 4:0.53571429 5:0.82142857 
1 1:1.3181818 2:1.0875 3:0.3372093 4:0.50581395 5:0.725 
1 1:1.28125 2:0.98203593 3:0.43050847 4:0.5559322 5:0.76047904 
1 1:1.3235294 2:1.2 3:0.37423313 4:0.55214724 5:0.81333333 
1 1:1.28125 2:1.055794 3:0.39468303 4:0.50306748 5:0.82832618 
1 1:1.2424242 2:1.0186335 3:0.35072464 4:0.47536232 5:0.7515528 
1 1:1.3611111 2:1.1104816 3:0.42589704 4:0.61154446 5:0.7733711 
1 1:1.1453488 2:0.95631068 3:0.42713568 4:0.49497487 5:0.82524272 
1 1:1.2045455 2:0.94642857 3:0.41509434 4:0.5 5:0.78571429 
1 1:1.2407407 2:1.0268199 3:0.4251497 4:0.53493014 5:0.81609195 
1 1:1.3163265 2:1 3:0.45116279 4:0.6 5:0.75193798 
1 1:1.2965116 2:1.1690695 3:0.42136695 4:0.59190445 5:0.83224115 
1 1:1.1330275 2:0.988 3:0.40562249 4:0.49598394 5:0.808 
1 1:1.1858974 2:0.9762533 3:0.43178622 4:0.52039381 5:0.81002639 
1 1:1.2166667 2:0.97658863 3:0.38755981 4:0.46570973 5:0.81270903 
1 1:1.2678571 2:0.98611111 3:0.42028986 4:0.51449275 5:0.80555556 
1 1:1.2142857 2:1.0342205 3:0.46436285 4:0.587473 5:0.81749049 
1 1:1.275 2:0.97607656 3:0.41018767 4:0.54691689 5:0.73205742 
1 1:1.2326733 2:1.035343 3:0.46424518 4:0.56526674 5:0.85031185 
1 1:1.2836538 2:1.0298939 3:0.42534633 4:0.54797332 5:0.79942141 
1 1:1.0961538 2:0.89587426 3:0.46314631 4:0.50165017 5:0.82711198 
1 1:1.25 2:0.96153846 3:0.42857143 4:0.53571429 5:0.76923077 
1 1:1.2413793 2:1.0510949 3:0.38566553 4:0.49146758 5:0.82481752 
1 1:1.15625 2:0.94871795 3:0.42465753 4:0.50684932 5:0.79487179 
1 1:1.1707317 2:0.95522388 3:0.43236074 4:0.50928382 5:0.81094527 
1 1:1.2 2:0.91304348 3:0.46835443 4:0.53164557 5:0.80434783 
1 1:1.25 2:1.0423453 3:0.42342342 4:0.57657658 5:0.76547231 
1 1:1.15 2:0.92929293 3:0.46716698 4:0.51782364 5:0.83838384 
1 1:1.3536585 2:0.98230088 3:0.37799043 4:0.53110048 5:0.69911504 
1 1:1.3177083 2:1.0765957 3:0.3785558 4:0.5536105 5:0.73617021 
1 1:1.25 2:1.0048622 3:0.43312666 4:0.54915855 5:0.79254457 
1 1:1.6268657 2:1.4754653 3:0.34612177 4:0.72727273 5:0.70219966 
1 1:1.1603774 2:0.88172043 3:0.503386 4:0.55530474 5:0.79928315 
1 1:1.3098592 2:1.1121076 3:0.35658363 4:0.52953737 5:0.74887892 
1 1:1.2244898 2:0.89552239 3:0.41935484 4:0.48387097 5:0.7761194 
1 1:1.127451 2:0.94455852 3:0.46786922 4:0.51860203 5:0.85215606 
1 1:1.2244898 2:1.038961 3:0.45316456 4:0.60759494 5:0.77489177 
1 1:1.3333333 2:1.0118577 3:0.42733189 4:0.55531453 5:0.77865613 
1 1:1.2183099 2:1.054878 3:0.41317365 4:0.51796407 5:0.84146341 
1 1:1.2916667 2:1.0829694 3:0.43859649 4:0.56750572 5:0.83697234 
1 1:1.19 2:0.9500998 3:0.46666667 4:0.53785311 5:0.8243513 
1 1:1.2105263 2:0.96842105 3:0.43195266 4:0.5443787 5:0.76842105 
1 1:1.16 2:1.0175439 3:0.41690962 4:0.50728863 5:0.83625731 
1 1:1.296875 2:0.97503671 3:0.44104803 4:0.57991266 5:0.74155653 
1 1:1.2368421 2:1.0080429 3:0.4106412 4:0.51296044 5:0.80697051 
1 1:1.2156863 2:1.0666667 3:0.36863137 4:0.4955045 5:0.79354839 
1 1:1.1544715 2:0.99824253 3:0.41318477 4:0.5273909 5:0.78207381 
1 1:1.4342105 2:1.1978022 3:0.33333333 4:0.55897436 5:0.71428571 
1 1:1.2735849 2:1.011236 3:0.41747573 4:0.52427184 5:0.80524345 
1 1:1.2604167 2:1.0637363 3:0.50706033 4:0.62130937 5:0.86813187 
1 1:1.2272727 2:0.93913043 3:0.39737991 4:0.47161572 5:0.79130435 
1 1:1.3442623 2:1.0045942 3:0.38313253 4:0.52690763 5:0.73047473 
1 1:1.1953125 2:0.97142857 3:0.53398058 4:0.59417476 5:0.87301587 
1 1:1.2647059 2:1.0268657 3:0.37411095 4:0.48933144 5:0.78507463 
1 1:1.3392857 2:1.1111111 3:0.34767025 4:0.53763441 5:0.71851852 
1 1:1.4393939 2:1.091954 3:0.4379085 4:0.62091503 5:0.77011494 
1 1:1.2232143 2:1.0320151 3:0.44774688 4:0.52540748 5:0.87947269 
1 1:1.2685185 2:1.0166976 3:0.38023152 4:0.48797863 5:0.79220779 
1 1:1.3448276 2:1.1885714 3:0.43482587 4:0.62089552 5:0.83238095 
1 1:1.5192308 2:1.0675676 3:0.29585799 4:0.46745562 5:0.67567568 
1 1:1.0188679 2:0.95364238 3:0.42054054 4:0.46702703 5:0.85871965 
1 1:1.1911765 2:1.022082 3:0.45187602 4:0.52854812 5:0.87381703 
1 1:1.1397059 2:0.86834734 3:0.50087873 4:0.54481547 5:0.79831933 
1 1:1.4090909 2:1.1698113 3:0.33333333 4:0.52991453 5:0.73584906 
1 1:1.2173913 2:0.96969697 3:0.4021978 4:0.49230769 5:0.79220779 
1 1:1.1617647 2:0.88268156 3:0.49466192 4:0.56227758 5:0.77653631 
1 1:1.3636364 2:1.0169492 3:0.42056075 4:0.56074766 5:0.76271186 
1 1:1.46 2:1.140625 3:0.37984496 4:0.56589147 5:0.765625 
1 1:1.5 2:1.362776 3:0.38950715 4:0.68680445 5:0.77287066 
1 1:1.0762712 2:0.88271069 3:0.49975382 4:0.50024618 5:0.88184188 
1 1:1.3604651 2:1.1011765 3:0.3461975 4:0.53121453 5:0.71764706 
1 1:1.2777778 2:1.0337079 3:0.47712418 4:0.60130719 5:0.82022472 
1 1:1.2407407 2:0.9981378 3:0.45057232 4:0.55775234 5:0.80633147 
1 1:1.4230769 2:1.3962264 3:0.28467153 4:0.54014599 5:0.73584906 
1 1:1.2340426 2:1.0892019 3:0.39393939 4:0.54079254 5:0.79342723 
1 1:1.1741573 2:1.0372208 3:0.36612022 4:0.4568306 5:0.83126551 
1 1:1.03 2:0.81102362 3:0.47186147 4:0.44588745 5:0.85826772 
1 1:1.175 2:0.92156863 3:0.47058824 4:0.55294118 5:0.78431373 
1 1:1.4583333 2:1.1864407 3:0.39255014 4:0.6017192 5:0.7740113 
1 1:1.4711538 2:1.0870337 3:0.31647777 4:0.53356582 5:0.64476021 
1 1:1.4 2:1.05 3:0.34883721 4:0.48837209 5:0.75 
1 1:1.25 2:1.0526316 3:0.47222222 4:0.55555556 5:0.89473684 
1 1:1.1753247 2:0.87545345 3:0.49499615 4:0.55735181 5:0.77750907 
1 1:1.1454545 2:0.91387126 3:0.45873911 4:0.51665812 5:0.81142339 
1 1:1.2413793 2:0.96969697 3:0.40949033 4:0.50615114 5:0.78451178 
1 1:1.2647059 2:1.1025641 3:0.33333333 4:0.49425287 5:0.74358974 
1 1:1.3409091 2:1.1053864 3:0.37485844 4:0.53454134 5:0.77517564 
1 1:1.3584906 2:1.1034483 3:0.3464991 4:0.51705566 5:0.7394636 
1 1:1 2:0.83660131 3:0.53307393 4:0.49805447 5:0.89542484 
1 1:1.1953125 2:0.97142857 3:0.53398058 4:0.59417476 5:0.87301587 
1 1:1.3695652 2:1.0413223 3:0.40148148 4:0.56 5:0.74655647 
1 1:1.1315789 2:0.91489362 3:0.41052632 4:0.45263158 5:0.82978723 
1 1:1.137931 2:0.89795918 3:0.50617284 4:0.54320988 5:0.83673469 
1 1:1.1587302 2:0.98151261 3:0.41246798 4:0.49871904 5:0.81176471 
1 1:1.2372881 2:0.92405063 3:0.43065693 4:0.53284672 5:0.74683544 
1 1:1.3829787 2:1.2177986 3:0.41284404 4:0.68152031 5:0.73770492 
1 1:1.2857143 2:1.0465116 3:0.39664804 4:0.5027933 5:0.8255814 
1 1:1.1818182 2:0.92857143 3:0.5 4:0.57777778 5:0.80357143 
1 1:1.1363636 2:0.92592593 3:0.46808511 4:0.53191489 5:0.81481481 
1 1:1.1882353 2:0.98416565 3:0.42074364 4:0.5270711 5:0.78562728 
1 1:1.3448276 2:1.04 3:0.46456693 4:0.61417323 5:0.78666667 
1 1:1.5 2:1.2741313 3:0.37384899 4:0.60773481 5:0.78378378 
1 1:1.1707317 2:1.0756303 3:0.39346405 4:0.50196078 5:0.84313725 
1 1:1.173913 2:0.88073394 3:0.45443857 4:0.50793651 5:0.78797146 
1 1:1.4411765 2:1.4736842 3:0.24409449 4:0.5144357 5:0.69924812 
1 1:1.2857143 2:1.1575563 3:0.39911635 4:0.53019146 5:0.87138264 
1 1:1.4375 2:1.2488688 3:0.36268344 4:0.57861635 5:0.78280543 
1 1:1.2819149 2:1.0094241 3:0.41833966 4:0.52306023 5:0.80732984 
1 1:1.5462963 2:1.2532833 3:0.33834586 4:0.55806182 5:0.75984991 
1 1:1.15625 2:0.90519878 3:0.44500846 4:0.50084602 5:0.80428135 
1 1:1.4047619 2:1.0488889 3:0.38609113 4:0.56594724 5:0.71555556 
1 1:1.1538462 2:0.93264249 3:0.41333333 4:0.48 5:0.80310881 
1 1:1.4565217 2:1.0677291 3:0.31261426 4:0.48994516 5:0.6812749 
1 1:1.25 2:1.1382114 3:0.4212766 4:0.59574468 5:0.80487805 
1 1:1.2954545 2:1.0073638 3:0.37527115 4:0.49457701 5:0.76435935 
1 1:1.1454545 2:1.008 3:0.43568465 4:0.52282158 5:0.84 
1 1:1.2291667 2:0.97925311 3:0.42231947 4:0.51641138 5:0.80082988 
1 1:1.106383 2:0.87763713 3:0.52876712 4:0.56986301 5:0.81434599 
1 1:1.125 2:0.98181818 3:0.37190083 4:0.44628099 5:0.81818182 
1 1:1.375 2:1.0931677 3:0.32753623 4:0.51014493 5:0.70186335 
1 1:1.3235294 2:0.92783505 3:0.41617357 4:0.53254438 5:0.72508591 
1 1:1.1724138 2:1.00369 3:0.42406312 4:0.53648915 5:0.79335793 
1 1:1.1666667 2:0.99009901 3:0.41233541 4:0.48510049 5:0.84158416 
1 1:1.2808219 2:1.0935673 3:0.32151899 4:0.47341772 5:0.74269006 
1 1:1.3602941 2:1.0995542 3:0.35178933 4:0.49966239 5:0.77414562 
1 1:1.2 2:0.9 3:0.48484848 4:0.54545455 5:0.8 
1 1:1.3333333 2:1.1972789 3:0.36063936 4:0.52747253 5:0.8185941 
1 1:1.2755102 2:1.048218 3:0.35868448 4:0.51387461 5:0.73165618 
1 1:1.3055556 2:1.0217391 3:0.45 4:0.5875 5:0.7826087 
1 1:1.377193 2:1.162963 3:0.35153584 4:0.53583618 5:0.76296296 
1 1:1.1454545 2:1.05 3:0.46846847 4:0.56756757 5:0.86666667 
1 1:1.2227723 2:1.0020284 3:0.41833509 4:0.52054795 5:0.80527383 
1 1:1.2598039 2:1.0889831 3:0.38818565 4:0.54219409 5:0.77966102 
1 1:1.1956522 2:0.97345133 3:0.40092166 4:0.50691244 5:0.7699115 
1 1:1.1967213 2:0.96210873 3:0.42709232 4:0.50388266 5:0.815486 
1 1:1.2598039 2:1.0889831 3:0.38818565 4:0.54219409 5:0.77966102 
0.02016646042705341 1:1.26 2:0.96060991 3:0.41549815 4:0.55793358 5:0.71537484 
1 1:1.3287671 2:1.0615595 3:0.43302622 4:0.54996456 5:0.83584131 
1 1:1.2692308 2:1.0102041 3:0.39795918 4:0.50510204 5:0.79591837 
1 1:1.1492537 2:0.96703297 3:0.45196324 4:0.51461988 5:0.84929356 
1 1:1.2068966 2:1.0071942 3:0.38351254 4:0.50179211 5:0.76978417 
1 1:1.2478261 2:0.96389589 3:0.42664743 4:0.55218855 5:0.74475231 
1 1:1.34375 2:1.1780822 3:0.34545455 4:0.52121212 5:0.78082192 
1 1:1.3 2:0.98113208 3:0.41304348 4:0.56521739 5:0.71698113 
1 1:1.2727273 2:0.97674419 3:0.42666667 4:0.56 5:0.74418605 
1 1:1.0819672 2:0.86985173 3:0.49155909 4:0.52432969 5:0.815486 
1 1:1.38 2:1.0547771 3:0.37988469 4:0.53042921 5:0.75541401 
1 1:1.1031746 2:0.94880546 3:0.43545611 4:0.47848537 5:0.86348123 
1 1:1.2093023 2:0.97882353 3:0.45234899 4:0.55838926 5:0.79294118 
1 1:1.2328767 2:0.92544987 3:0.44588745 4:0.51948052 5:0.79434447 
1 1:1.28125 2:0.95348837 3:0.52238806 4:0.6119403 5:0.81395349 
1 1:1.1555556 2:0.94117647 3:0.43358396 4:0.52130326 5:0.78280543 
1 1:1.1944444 2:1.0361446 3:0.39181287 4:0.50292398 5:0.80722892 
1 1:1.2898551 2:1.0113636 3:0.37222222 4:0.49444444 5:0.76136364 
1 1:1.3148148 2:1.1497976 3:0.3271028 4:0.53084112 5:0.70850202 
1 1:1.22 2:0.98585859 3:0.43179256 4:0.55016911 5:0.77373737 
1 1:1.2068966 2:0.93333333 3:0.472 4:0.56 5:0.78666667 
1 1:1.3125 2:0.97674419 3:0.37349398 4:0.5060241 5:0.72093023 
1 1:1.0775862 2:0.89605735 3:0.46292585 4:0.501002 5:0.82795699 
1 1:1.3809524 2:1.0311111 3:0.36 4:0.54588235 5:0.68 
1 1:1.3636364 2:1.0084034 3:0.43127962 4:0.56872038 5:0.76470588 
1 1:1.25 2:1.0240964 3:0.4248366 4:0.55555556 5:0.78313253 
1 1:1.4032258 2:1 3:0.37278107 4:0.5147929 5:0.72413793 
1 1:1.328125 2:1.1003236 3:0.36744186 4:0.52713178 5:0.76699029 
1 1:1.3222222 2:1.1497585 3:0.34675615 4:0.53243848 5:0.74879227 
1 1:1.2128713 2:1.0134436 3:0.44558744 4:0.53059015 5:0.85108583 
1 1:1.3020833 2:1.0309278 3:0.41081703 4:0.57537399 5:0.73608247 
1 1:1.2682927 2:1 3:0.40860215 4:0.55913978 5:0.73076923 
1 1:1.2105263 2:0.96335079 3:0.43019943 4:0.52421652 5:0.79057592 
1 1:1.297619 2:0.97977528 3:0.4095941 4:0.53628536 5:0.74831461 
1 1:1.4285714 2:1.1428571 3:0.37321937 4:0.56980057 5:0.74857143 
1 1:1.3863636 2:1.1090909 3:0.41747573 4:0.59223301 5:0.78181818 
1 1:1.2125 2:0.97121402 3:0.42289874 4:0.51356717 5:0.79974969 
1 1:1.1129032 2:0.96167247 3:0.40691928 4:0.45469522 5:0.86062718 
1 1:1.1351351 2:0.98245614 3:0.50515464 4:0.57731959 5:0.85964912 
1 1:1.1396396 2:0.97027804 3:0.4425377 4:0.52626105 5:0.81591563 
1 1:1.1111111 2:0.91954023 3:0.43558282 4:0.49079755 5:0.81609195 
1 1:1.3928571 2:1.2356436 3:0.36675462 4:0.54881266 5:0.82574257 
1 1:1.3181818 2:1.0116279 3:0.34883721 4:0.50581395 5:0.69767442 
1 1:1.1772152 2:0.93702771 3:0.48613139 4:0.54306569 5:0.83879093 
1 1:1.2460317 2:0.98125 3:0.46666667 4:0.58148148 5:0.7875 
1 1:1.0714286 2:0.89552239 3:0.45799458 4:0.48780488 5:0.84079602 
1 1:1.2283951 2:1.0405229 3:0.45541184 4:0.54186521 5:0.8745098 
1 1:0.98672566 2:0.79148181 3:0.55372871 4:0.52378156 5:0.83673469 
1 1:1.2807018 2:1.0336283 3:0.3751073 4:0.50128755 5:0.77345133 
1 1:1.3392857 2:1.1111111 3:0.34767025 4:0.53763441 5:0.71851852 
1 1:1.2256098 2:0.96750903 3:0.4068343 4:0.51837524 5:0.75932611 
1 1:1.1533333 2:0.90932983 3:0.4474651 4:0.50844967 5:0.80026281 
1 1:1.2373737 2:1.026178 3:0.43338954 4:0.55087128 5:0.80732984 
1 1:1.4835165 2:1.0609037 3:0.46371464 4:0.66420664 5:0.74066798 
1 1:1.297619 2:1.0139535 3:0.46091644 4:0.58760108 5:0.79534884 
1 1:1.2 2:1.1360947 3:0.38278932 4:0.56973294 5:0.76331361 
1 1:1.2142857 2:1.0967742 3:0.41538462 4:0.52307692 5:0.87096774 
1 1:1.2794118 2:1.0609756 3:0.32222222 4:0.48333333 5:0.70731707 
1 1:1.3055556 2:1.0867052 3:0.35014006 4:0.52661064 5:0.72254335 
1 1:1.1578947 2:0.9859944 3:0.5040783 4:0.57422512 5:0.86554622 
0.464610269920509 1:1.3043478 2:0.98360656 3:0.36134454 4:0.50420168 5:0.70491803 
1 1:1.1341463 2:0.92537313 3:0.44356955 4:0.48818898 5:0.84079602 
1 1:1.5333333 2:1.1719745 3:0.34346505 4:0.55927052 5:0.71974522 
1 1:0.75 2:0.61068702 3:0.48858447 4:0.3652968 5:0.81679389 
1 1:1.2407407 2:0.97810219 3:0.38461538 4:0.49084249 5:0.76642336 
1 1:1.2575758 2:1.0236382 3:0.42769545 4:0.50894226 5:0.8602261 
1 1:1.3552632 2:1.1195652 3:0.34782609 4:0.55978261 5:0.69565217 
1 1:1.3076923 2:1.030303 3:0.39130435 4:0.49275362 5:0.81818182 
1 1:1.3098592 2:1.1121076 3:0.35658363 4:0.52953737 5:0.74887892 
1 1:1.3478261 2:0.99398798 3:0.41715629 4:0.58284371 5:0.71142285 
1 1:1.4086022 2:1.1428571 3:0.38037135 4:0.55596817 5:0.78189749 
1 1:1.1864407 2:1.038961 3:0.38931298 4:0.4749788 5:0.85157699 
1 1:1.1931818 2:1.0194175 3:0.40096618 4:0.50724638 5:0.80582524 
1 1:1.46 2:1.1726908 3:0.36196319 4:0.59713701 5:0.71084337 
1 1:1.0625 2:0.85858586 3:0.48823529 4:0.5 5:0.83838384 
1 1:1.125 2:0.91866029 3:0.46860783 4:0.52411283 5:0.82137161 
1 1:1.2564103 2:0.97755611 3:0.44906743 4:0.56241033 5:0.78054863 
1 1:1.1397059 2:0.86834734 3:0.50087873 4:0.54481547 5:0.79831933 
1 1:1.352459 2:1.1262799 3:0.36466775 4:0.53484603 5:0.76791809 
1 1:1.1893939 2:0.94152924 3:0.54396135 4:0.60676329 5:0.84407796 
1 1:1.5833333 2:1.2307692 3:0.23930269 4:0.48177496 5:0.61133603 
1 1:1.1639344 2:0.91612903 3:0.44981413 4:0.52788104 5:0.78064516 
1 1:1.1097561 2:0.87710843 3:0.45672437 4:0.48468708 5:0.82650602 
1 1:1.1395349 2:0.93444577 3:0.47023411 4:0.52441472 5:0.83790226 
1 1:1.1636364 2:1.024 3:0.45606695 4:0.53556485 5:0.872 
1 1:1.2916667 2:1.0214168 3:0.40765957 4:0.52765957 5:0.78912685 
1 1:1.2462687 2:0.95839311 3:0.39456282 4:0.49081558 5:0.77044476 
1 1:1.4107143 2:1.1205674 3:0.42322097 4:0.5917603 5:0.80141844 
1 1:1.3896104 2:1.0918367 3:0.35483871 4:0.49308756 5:0.78571429 
1 1:1.2741935 2:1.0711864 3:0.44973545 4:0.55731922 5:0.86440678 
1 1:1.1261261 2:0.93370682 3:0.39195758 4:0.44189129 5:0.82819795 
1 1:1.32 2:1.1733333 3:0.34502924 4:0.51461988 5:0.78666667 
1 1:1.3467742 2:0.98816568 3:0.43322476 4:0.54397394 5:0.78698225 
1 1:1.2053571 2:1.0577865 3:0.46477446 4:0.54738976 5:0.89813908 
1 1:1.1811594 2:0.97751124 3:0.48744589 4:0.56450216 5:0.84407796 
1 1:1.0540541 2:0.93413174 3:0.51890034 4:0.53608247 5:0.90419162 
1 1:1.3880597 2:1.0767004 3:0.33285816 4:0.53029223 5:0.67583213 
1 1:1.1969697 2:1.0047695 3:0.50617284 4:0.60018993 5:0.84737679 
1 1:1.4615385 2:1.1343284 3:0.35877863 4:0.58015267 5:0.70149254 
1 1:1.2685185 2:0.95971979 3:0.37147737 4:0.46797609 5:0.76182137 
1 1:1.3055556 2:1.0867052 3:0.35014006 4:0.52661064 5:0.72254335 
1 1:1.1219512 2:0.94845361 3:0.45945946 4:0.4972973 5:0.87628866 
1 1:1.3916667 2:1.1577123 3:0.35429057 4:0.5675446 5:0.72270364 
1 1:1.1938776 2:0.9140625 3:0.43965517 4:0.50431034 5:0.796875 
1 1:1.3809524 2:1.0790698 3:0.33780761 4:0.51901566 5:0.70232558 
1 1:1.1311475 2:0.92 3:0.5826087 4:0.6 5:0.89333333 
1 1:1.1842105 2:0.93425606 3:0.39414802 4:0.46471601 5:0.79238754 
1 1:1.3161765 2:1.0361795 3:0.45408593 4:0.60320135 5:0.78002894 
1 1:1.234375 2:1.0063694 3:0.41528239 4:0.52491694 5:0.79617834 
1 1:1.2741935 2:1.1126761 3:0.31736527 4:0.47305389 5:0.74647887 
1 1:1.1153846 2:0.96185738 3:0.44734625 4:0.48862679 5:0.88059701 
1 1:1.3888889 2:1.1320755 3:0.36062378 4:0.58479532 5:0.69811321 
1 1:1.3275862 2:1 3:0.41984733 4:0.58778626 5:0.71428571 
1 1:1.4104478 2:1.0588235 3:0.38239538 4:0.54545455 5:0.74229692 
1 1:1.1203704 2:0.98274112 3:0.47816473 4:0.53510227 5:0.87817259 
1 1:1.4705882 2:1.2048193 3:0.3236715 4:0.48309179 5:0.80722892 
1 1:1.3362069 2:1.0763889 3:0.32278481 4:0.49050633 5:0.70833333 
1 1:1.1076923 2:0.87671233 3:0.45683152 4:0.48281643 5:0.82952816 
1 1:1.2083333 2:0.92430279 3:0.45667447 4:0.54332553 5:0.77689243 
1 1:1.1349206 2:0.98876404 3:0.47850732 4:0.54038734 5:0.87554019 
1 1:1.3823529 2:1.1058824 3:0.35260116 4:0.5433526 5:0.71764706 
1 1:1.372093 2:1.1741294 3:0.32394366 4:0.47484909 5:0.80099502 
1 1:1.53125 2:1.2645161 3:0.32394366 4:0.55211268 5:0.74193548 
1 1:1.2931034 2:1.0714286 3:0.453125 4:0.5859375 5:0.82857143 
1 1:1.3684211 2:1.0721649 3:0.33333333 4:0.51741294 5:0.69072165 
1 1:1.3139535 2:1.0891566 3:0.35110081 4:0.52375435 5:0.73012048 
1 1:1.3854167 2:1.1981982 3:0.41293532 4:0.66169154 5:0.74774775 
1 1:1.4591837 2:1.1818182 3:0.35632184 4:0.54789272 5:0.76859504 
1 1:1.2241379 2:0.96598639 3:0.42857143 4:0.54826255 5:0.75510204 
1 1:1.0641026 2:0.87139108 3:0.55628059 4:0.54159869 5:0.89501312 
1 1:1.3292683 2:0.97977528 3:0.37514793 4:0.51597633 5:0.71235955 
1 1:1.2836538 2:1.0298939 3:0.42534633 4:0.54797332 5:0.79942141 
1 1:1.3214286 2:1.0724638 3:0.37588652 4:0.5248227 5:0.76811594 
1 1:1.2333333 2:0.95308188 3:0.43894066 4:0.5080922 5:0.82336707 
1 1:1.254386 2:1.0731707 3:0.40913508 4:0.55587949 5:0.78986867 
1 1:1.2735849 2:1.0505837 3:0.41443299 4:0.55670103 5:0.78210117 
1 1:1.25 2:1.0606061 3:0.47368421 4:0.61403509 5:0.81818182 
1 1:1.5277778 2:1.1398964 3:0.35342466 4:0.60273973 5:0.66839378 
1 1:1.1271186 2:0.86223663 3:0.48112294 4:0.51500484 5:0.80551053 
1 1:1.1860465 2:1.0174564 3:0.39470366 4:0.51450189 5:0.78054863 
1 1:1.6746032 2:1.4938053 3:0.35839599 4:0.70509607 5:0.75929204 
1 1:1.3103448 2:1.0592334 3:0.39278937 4:0.57685009 5:0.72125436 
1 1:1.2252252 2:1.0196813 3:0.47093333 4:0.58026667 5:0.82755389 
1 1:1.2 2:0.97363083 3:0.45958987 4:0.57901086 5:0.77281947 
1 1:1.3148148 2:1.1137255 3:0.43639922 4:0.55577299 5:0.8745098 
1 1:1.6 2:1.2487805 3:0.34731935 4:0.5967366 5:0.72682927 
1 1:1.0909091 2:0.98969072 3:0.44508671 4:0.55491329 5:0.79381443 
1 1:1.1418919 2:0.99558174 3:0.42981818 4:0.49163636 5:0.87039764 
1 1:1.25 2:1.0722611 3:0.42098914 4:0.5548854 5:0.81351981 
1 1:1.25 2:0.97938144 3:0.41242938 4:0.53672316 5:0.75257732 
1 1:1.1428571 2:0.94581281 3:0.42118863 4:0.49612403 5:0.80295567 
1 1:1.3666667 2:1.1714286 3:0.38666667 4:0.54666667 5:0.82857143 
1 1:1.3235294 2:1.037464 3:0.31193838 4:0.46213094 5:0.70028818 
1 1:1.2 2:0.9486166 3:0.43917526 4:0.49484536 5:0.84189723 
1 1:1.4354839 2:1.2339688 3:0.42411101 4:0.61751951 5:0.847487 
1 1:1.1052632 2:0.83499006 3:0.54150198 4:0.55335968 5:0.81709742 
1 1:1.2142857 2:0.90666667 3:0.45038168 4:0.51908397 5:0.78666667 
1 1:0.97727273 2:0.85572139 3:0.4796748 4:0.46612466 5:0.88059701 
1 1:1.3 2:1.02693 3:0.35647756 4:0.48433531 5:0.75583483 
1 1:1.0405405 2:0.93759513 3:0.47139404 4:0.49637389 5:0.89041096 
1 1:1.3020833 2:1.0309278 3:0.41081703 4:0.57537399 5:0.73608247 
1 1:1.1730769 2:0.96442688 3:0.4158215 4:0.49492901 5:0.81027668 
1 1:1.2727273 2:1.0163339 3:0.38952972 4:0.49689441 5:0.79673321 
1 1:1.3133333 2:1.0437086 3:0.38588074 4:0.54009596 5:0.74569536 
1 1:1.2727273 2:1.0873786 3:0.38164251 4:0.5410628 5:0.76699029 
1 1:1.3125 2:1.1157495 3:0.31821736 4:0.45973417 5:0.77229602 
1 1:1.1770833 2:0.9596603 3:0.41675734 4:0.49183896 5:0.81316348 
1 1:1.137931 2:1.0272374 3:0.39181287 4:0.51461988 5:0.78210117 
1 1:1.2446809 2:0.9978678 3:0.39459459 4:0.50594595 5:0.7782516 
1 1:1.2315789 2:0.98216159 3:0.39334424 4:0.5106383 5:0.75655824 
1 1:1.4482759 2:1.1052632 3:0.45454545 4:0.63636364 5:0.78947368 
1 1:1.0970149 2:0.89770992 3:0.48546256 4:0.51806167 5:0.84122137 
1 1:1.3272727 2:0.98983051 3:0.38738739 4:0.52612613 5:0.72881356 
1 1:1.1232877 2:1.0107858 3:0.42054693 4:0.48484848 5:0.87673344 
1 1:1.1704545 2:0.97169811 3:0.48387097 4:0.55376344 5:0.8490566 
1 1:1.3636364 2:1 3:0.38181818 4:0.54545455 5:0.7 
1 1:1.1976744 2:0.93424036 3:0.43634116 4:0.5092707 5:0.80045351 
1 1:1.3269231 2:1.0574713 3:0.50572082 4:0.63157895 5:0.8467433 
1 1:1.3103448 2:1.027027 3:0.40277778 4:0.52777778 5:0.78378378 
1 1:1.2 2:1.0762332 3:0.38204593 4:0.50104384 5:0.8206278 
1 1:1.2619048 2:0.9339207 3:0.43552311 4:0.51581509 5:0.78854626 
1 1:1.3030303 2:0.98005698 3:0.39195231 4:0.51266766 5:0.74928775 
1 1:1.1428571 2:0.96969697 3:0.41232227 4:0.4549763 5:0.87878788 
1 1:1.3833333 2:1.0624 3:0.40611354 4:0.57991266 5:0.744 
1 1:1.2112676 2:1.0117647 3:0.4260355 4:0.50887574 5:0.84705882 
1 1:1.1150442 2:0.97769156 3:0.47835382 4:0.53874933 5:0.86808923 
1 1:1.25 2:1.0223642 3:0.37134052 4:0.49306626 5:0.76996805 
1 1:1.2978723 2:1.0166667 3:0.42857143 4:0.54464286 5:0.8 
1 1:1.11875 2:0.96626181 3:0.44576627 4:0.50104969 5:0.85964912 
1 1:1.3529412 2:1.0222222 3:0.37078652 4:0.51685393 5:0.73333333 
1 1:1.3220339 2:1.0833333 3:0.36 4:0.52 5:0.75 
1 1:1.2024793 2:0.95331695 3:0.42256738 4:0.53174966 5:0.75757576 
1 1:1.2833333 2:1.0131579 3:0.43356643 4:0.53846154 5:0.81578947 
1 1:1.1086957 2:0.90465632 3:0.47141042 4:0.5184244 5:0.82261641 
1 1:1.143617 2:0.87221095 3:0.49809886 4:0.54499366 5:0.79716024 
1 1:1.2009804 2:0.97804391 3:0.40468909 4:0.49949032 5:0.79241517 
1 1:1.4042553 2:1.1503268 3:0.32482826 4:0.51815505 5:0.7211329 
1 1:1.122807 2:0.96603774 3:0.43313373 4:0.51097804 5:0.81886792 
1 1:1.26 2:1.0413223 3:0.41630901 4:0.54077253 5:0.80165289 
1 1:1.375 2:1.0292398 3:0.37321937 4:0.5014245 5:0.76608187 
1 1:1.3186813 2:1.1162791 3:0.40983607 4:0.56206089 5:0.81395349 
1 1:1.3880597 2:1.0405594 3:0.38692712 4:0.55897821 5:0.72027972 
1 1:1.3684211 2:1.1324864 3:0.35403727 4:0.55368234 5:0.72413793 
1 1:1.4318182 2:1.016129 3:0.46938776 4:0.64285714 5:0.74193548 
1 1:1.2159091 2:0.98617512 3:0.45323741 4:0.51318945 5:0.87096774 
1 1:1.1634615 2:1.0453564 3:0.43042071 4:0.52211435 5:0.86177106 
1 1:1.375 2:1.1478261 3:0.37899543 4:0.60273973 5:0.72173913 
1 1:1.265625 2:1.0872483 3:0.50929368 4:0.60223048 5:0.91946309 
1 1:1.3392857 2:0.96153846 3:0.44927536 4:0.54347826 5:0.79487179 
1 1:1.2068966 2:1 3:0.421875 4:0.546875 5:0.77142857 
1 1:1.3763441 2:1.1314917 3:0.42114189 4:0.57885811 5:0.82320442 
1 1:1.254386 2:0.95973154 3:0.38461538 4:0.47826087 5:0.77181208 
1 1:1.3 2:1.0550725 3:0.35809807 4:0.54086181 5:0.69855072 
1 1:1.6551724 2:1.3714286 3:0.33793103 4:0.66206897 5:0.7 
1 1:1.35 2:1.119171 3:0.40821918 4:0.59178082 5:0.77202073 
1 1:1.2428571 2:0.99428571 3:0.42507645 4:0.53211009 5:0.79428571 
1 1:1.4339623 2:1.1805825 3:0.36408243 4:0.5966634 5:0.72038835 
1 1:1.2727273 2:1.0434783 3:0.38108883 4:0.48137536 5:0.82608696 
1 1:1.3139535 2:1.0891566 3:0.35110081 4:0.52375435 5:0.73012048 
1 1:1.34375 2:1.1390728 3:0.36391437 4:0.52599388 5:0.78807947 
1 1:1.2058824 2:1.062635 3:0.44983089 4:0.55467869 5:0.86177106 
1 1:1.3359375 2:1.0426829 3:0.42253521 4:0.60211268 5:0.73170732 
1 1:1.3137255 2:1.0428016 3:0.38752363 4:0.50661626 5:0.79766537 
1 1:1.2733333 2:1.048011 3:0.4695451 4:0.58905166 5:0.83539095 
1 1:1.1607143 2:0.90592334 3:0.49044586 4:0.55201699 5:0.80487805 
1 1:1.1923077 2:0.97382199 3:0.38618926 4:0.47570332 5:0.79057592 
1 1:1.16 2:0.91338583 3:0.46919431 4:0.54976303 5:0.77952756 
1 1:1.0405405 2:0.92771084 3:0.46794872 4:0.49358974 5:0.87951807 
1 1:1.1973684 2:0.95789474 3:0.42857143 4:0.52 5:0.78947368 
1 1:1.2297297 2:0.97587131 3:0.43612335 4:0.53450808 5:0.79624665 
1 1:1.2142857 2:1.030303 3:0.37440758 4:0.48341232 5:0.7979798 
1 1:1.1607143 2:0.94890511 3:0.46122449 4:0.53061224 5:0.82481752 
1 1:1.3125 2:1.1448041 3:0.38857603 4:0.54062751 5:0.82282794 
1 1:1.3214286 2:1 3:0.39130435 4:0.53623188 5:0.72972973 
1 1:1.0738636 2:0.85811578 3:0.50034317 4:0.5188744 5:0.82746879 
1 1:1.1875 2:1.0133333 3:0.36062378 4:0.44444444 5:0.82222222 
1 1:1.2323944 2:1.0819165 3:0.34706331 4:0.53394355 5:0.70324575 
1 1:1.2058824 2:1.0207469 3:0.42604857 4:0.54304636 5:0.80082988 
1 1:1.1944444 2:1.0445344 3:0.45572354 4:0.55723542 5:0.85425101 
1 1:1.1666667 2:0.98402556 3:0.47722772 4:0.60990099 5:0.76996805 
1 1:1.3918919 2:1.0729167 3:0.37362637 4:0.56593407 5:0.70833333 
1 1:1.3529412 2:1.0494297 3:0.38404453 4:0.51205937 5:0.78707224 
1 1:1.3 2:1.0590631 3:0.3797841 4:0.51030422 5:0.78818737 
1 1:1.2884615 2:1.0634921 3:0.34228188 4:0.44966443 5:0.80952381 
1 1:1.3301887 2:1.0405904 3:0.40489642 4:0.53107345 5:0.79335793 
1 1:1.1145833 2:0.92440605 3:0.47354839 4:0.55225806 5:0.79265659 
1 1:1.3484848 2:1.0706767 3:0.39288538 4:0.56284585 5:0.74736842 
1 1:1.3 2:1.023622 3:0.35107731 4:0.49429658 5:0.72703412 
1 1:1.1627907 2:0.93023256 3:0.47632312 4:0.55710306 5:0.79534884 
1 1:1.2 2:0.95364238 3:0.41694915 4:0.48813559 5:0.81456954 
1 1:1.078125 2:0.91694352 3:0.45549738 4:0.48167539 5:0.86710963 
1 1:1.1538462 2:0.90225564 3:0.44489796 4:0.48979592 5:0.81954887 
1 1:1.225 2:1 3:0.44086022 4:0.52688172 5:0.83673469 
1 1:1.1153846 2:0.96989967 3:0.50664137 4:0.55028463 5:0.89297659 
1 1:1.25 2:1.0185185 3:0.42857143 4:0.56122449 5:0.77777778 
1 1:1.3717949 2:1.0780856 3:0.38461538 4:0.57759784 5:0.71788413 
1 1:1.45 2:1.3033708 3:0.30964467 4:0.58883249 5:0.68539326 
1 1:1.05 2:0.84563758 3:0.53777778 4:0.56 5:0.81208054 
1 1:1.3 2:0.92975734 3:0.43434343 4:0.56565657 5:0.71392082 
1 1:1.2839506 2:1.3123028 3:0.41702742 4:0.6002886 5:0.91167192 
1 1:1.22 2:1.0187891 3:0.40805223 4:0.53101197 5:0.782881 
1 1:1.2941176 2:1.1578947 3:0.3125 4:0.45833333 5:0.78947368 
1 1:1.2291667 2:0.93650794 3:0.44954128 4:0.5412844 5:0.77777778 
1 1:1.2241379 2:0.98269896 3:0.41284404 4:0.52110092 5:0.77854671 
1 1:1.2819149 2:1.0094241 3:0.41833966 4:0.52306023 5:0.80732984 
1 1:1.25 2:1.0362694 3:0.43002545 4:0.50890585 5:0.87564767 
1 1:1.2333333 2:1.0571429 3:0.46031746 4:0.58730159 5:0.82857143 
1 1:1.2209302 2:0.9610984 3:0.4136646 4:0.52173913 5:0.76201373 
1 1:1.2735849 2:1.0505837 3:0.41443299 4:0.55670103 5:0.78210117 
1 1:1.5322581 2:1.4285714 3:0.33933934 4:0.57057057 5:0.84962406 
1 1:1.2391304 2:1.027027 3:0.33603239 4:0.46153846 5:0.74774775 
1 1:1.3421053 2:1.1396648 3:0.33819951 4:0.49635036 5:0.77653631 
1 1:1.0869565 2:0.90497738 3:0.4559194 4:0.50377834 5:0.81900452 
1 1:1.275 2:0.97374702 3:0.49037037 4:0.60444444 5:0.78997613 
1 1:1.0803571 2:0.90130354 3:0.49635796 4:0.50364204 5:0.88826816 
1 1:1.25 2:1 3:0.37078652 4:0.50561798 5:0.73333333 
1 1:1.25 2:0.89285714 3:0.45652174 4:0.54347826 5:0.75 
1 1:1.2741935 2:0.97984496 3:0.38508839 4:0.48578017 5:0.77674419 
1 1:1.234375 2:0.91860465 3:0.40740741 4:0.48765432 5:0.76744186 
1 1:1.2054795 2:0.96570645 3:0.44712739 4:0.58617818 5:0.73662551 
1 1:1.1875 2:0.98064516 3:0.36283186 4:0.44837758 5:0.79354839 
1 1:1.2234043 2:1.0574713 3:0.42111507 4:0.54567023 5:0.81609195 
1 1:1.2380952 2:0.95852535 3:0.46814404 4:0.57617729 5:0.77880184 
1 1:1.1969697 2:1.025974 3:0.39869281 4:0.51633987 5:0.79220779 
1 1:1.1538462 2:0.84805654 3:0.50332594 4:0.53215078 5:0.80212014 
1 1:1.15625 2:0.91925466 3:0.42295082 4:0.4852459 5:0.80124224 
1 1:1.4508197 2:1.1919192 3:0.5009901 4:0.7009901 5:0.85185185 
1 1:1.1367521 2:0.98154982 3:0.44378698 4:0.52465483 5:0.8302583 
1 1:1.254386 2:1.0106007 3:0.3851468 4:0.49395509 5:0.78798587 
1 1:1.3098592 2:1.1121076 3:0.35658363 4:0.52953737 5:0.74887892 
1 1:1.2336449 2:0.94201606 3:0.41950985 4:0.50744834 5:0.77876896 
1 1:1.2045455 2:0.98604651 3:0.37360179 4:0.47427293 5:0.77674419 
1 1:1.3240741 2:1.144 3:0.33085502 4:0.53159851 5:0.712 
1 1:1.2585034 2:0.99730458 3:0.44806202 4:0.57364341 5:0.77897574 
1 1:1.2 2:0.91719745 3:0.4789272 4:0.55172414 5:0.79617834 
1 1:1.3222222 2:1.1497585 3:0.34675615 4:0.53243848 5:0.74879227 
1 1:0.97058824 2:0.78571429 3:0.52941176 4:0.48529412 5:0.85714286 
1 1:1.1956522 2:1.0185185 3:0.4368932 4:0.53398058 5:0.83333333 
1 1:1.2222222 2:0.94117647 3:0.47882736 4:0.5732899 5:0.78609626 
1 1:1.5 2:1.1929825 3:0.38117428 4:0.57036347 5:0.79727096 
1 1:1.3055556 2:1.0217391 3:0.4 4:0.52222222 5:0.7826087 
1 1:1.1857143 2:1.0199693 3:0.40511232 4:0.51432998 5:0.80337942 
1 1:1.1956522 2:1.0091743 3:0.35742972 4:0.44176707 5:0.81651376 
1 1:1.2982456 2:1.059034 3:0.41376229 4:0.52904379 5:0.82826476 
1 1:1.3333333 2:1.0810811 3:0.34177215 4:0.50632911 5:0.72972973 
1 1:1.345679 2:1.0968553 3:0.35212957 4:0.52309538 5:0.73836478 
1 1:1.2692308 2:1.0393701 3:0.34082397 4:0.49438202 5:0.71653543 
1 1:1.2195122 2:0.96153846 3:0.40594059 4:0.4950495 5:0.78846154 
1 1:1.1714286 2:1.0347003 3:0.47738693 4:0.54941374 5:0.89905363 
1 1:1.3472222 2:1.1085714 3:0.38904899 4:0.55907781 5:0.77142857 
1 1:1.3586957 2:1.0204082 3:0.41092637 4:0.59382423 5:0.70612245 
1 1:1.2 2:0.96969697 3:0.43169399 4:0.52459016 5:0.7979798 
1 1:0.92346939 2:0.77682403 3:0.57264957 4:0.51566952 5:0.86266094 
1 1:1.2302632 2:1.0317241 3:0.36717205 4:0.49307844 5:0.76827586 
1 1:1.1842105 2:0.97297297 3:0.40379404 4:0.48780488 5:0.80540541 
1 1:1.3846154 2:1.1428571 3:0.26380368 4:0.44171779 5:0.68253968 
1 1:1.1707317 2:0.92753623 3:0.45915493 4:0.54084507 5:0.78743961 
1 1:1.4577465 2:1.0809399 3:0.36653895 4:0.52873563 5:0.74934726 
1 1:1.2324561 2:0.96646604 3:0.44654088 4:0.54378326 5:0.79363715 
0.1458607404696138 1:1.203125 2:0.92678034 3:0.42570952 4:0.51419032 5:0.76730191 
1 1:1.421875 2:1.04 3:0.40061162 4:0.55657492 5:0.74857143 
1 1:1.2857143 2:1.0384615 3:0.34615385 4:0.51923077 5:0.69230769 
1 1:1.2419355 2:1.0232558 3:0.44153578 4:0.53752182 5:0.84053156 
1 1:1.3275862 2:1.0694444 3:0.38028169 4:0.54225352 5:0.75 
1 1:1.2142857 2:0.97982709 3:0.41630901 4:0.48640916 5:0.83861671 
1 1:1.1521739 2:0.92982456 3:0.4368932 4:0.51456311 5:0.78947368 
1 1:1.275 2:0.99270073 3:0.40856031 4:0.52918288 5:0.76642336 
1 1:1.0853659 2:0.92708333 3:0.5060241 4:0.53614458 5:0.875 
1 1:1.1785714 2:0.9924812 3:0.43426295 4:0.52589641 5:0.81954887 
1 1:1.2336449 2:1.1391586 3:0.3317238 4:0.5098986 5:0.74110032 
1 1:1.22 2:0.97991968 3:0.45168539 4:0.54831461 5:0.80722892 
1 1:1.1029412 2:0.95389507 3:0.46569076 4:0.54894785 5:0.80922099 
1 1:1.1846154 2:0.9903537 3:0.53816047 4:0.60273973 5:0.88424437 
1 1:1.2285714 2:0.90526316 3:0.43195266 4:0.50887574 5:0.76842105 
1 1:1.4305556 2:1.1805158 3:0.34846462 4:0.55006676 5:0.747851 
1 1:1.2115385 2:0.96183206 3:0.4212766 4:0.53617021 5:0.75572519 
1 1:1.2735849 2:0.97649186 3:0.37835338 4:0.49953747 5:0.73960217 
1 1:1.2352941 2:1.0521921 3:0.34723481 4:0.45693563 5:0.79958246 
1 1:1.0666667 2:0.9588015 3:0.41740675 4:0.45470693 5:0.88014981 
1 1:1.2571429 2:0.96969697 3:0.38035961 4:0.4868603 5:0.75757576 
1 1:1.6538462 2:1.376 3:0.3089701 4:0.57142857 5:0.744 
1 1:1.3169014 2:1.0505618 3:0.48407643 4:0.5955414 5:0.85393258 
1 1:1.2738095 2:0.96832579 3:0.39393939 4:0.4988345 5:0.76470588 
1 1:1.3 2:1.0721649 3:0.37152209 4:0.5106383 5:0.78006873 
1 1:1.1625 2:0.97894737 3:0.46666667 4:0.56363636 5:0.81052632 
1 1:1.3139535 2:1.0891566 3:0.35110081 4:0.52375435 5:0.73012048 
1 1:1.36 2:1.0858283 3:0.39157246 4:0.55909558 5:0.76047904 
1 1:1.16875 2:1.002681 3:0.54679803 4:0.61412151 5:0.89276139 
1 1:1.2578125 2:0.96263079 3:0.38553318 4:0.48023863 5:0.77279522 
1 1:1.4177215 2:1.3373134 3:0.44427481 4:0.68396947 5:0.86865672 
1 1:1.2352941 2:1.05 3:0.44444444 4:0.58333333 5:0.8 
1 1:1.1086957 2:0.90465632 3:0.47141042 4:0.5184244 5:0.82261641 
1 1:1.171875 2:0.97402597 3:0.45985401 4:0.54744526 5:0.81818182 
1 1:1.2647059 2:1.081761 3:0.35376045 4:0.47910864 5:0.79874214 
1 1:1.2960526 2:1.005102 3:0.38297872 4:0.52393617 5:0.73469388 
1 1:1.2256098 2:0.95714286 3:0.48022599 4:0.56779661 5:0.80952381 
1 1:1.1780822 2:1 3:0.4137931 4:0.49425287 5:0.8372093 
1 1:1.2324561 2:0.96646604 3:0.44654088 4:0.54378326 5:0.79363715 
1 1:1.0816327 2:0.95280899 3:0.45180023 4:0.49245064 5:0.8741573 
1 1:1.2169811 2:1.0466531 3:0.43268243 4:0.5303186 5:0.85395538 
1 1:1.1451613 2:0.91612903 3:0.46768061 4:0.53992395 5:0.79354839 
1 1:1.3191489 2:1.0333333 3:0.36752137 4:0.52991453 5:0.71666667 
1 1:1.2578125 2:0.95125554 3:0.39018868 4:0.48603774 5:0.76366322 
1 1:1.3780488 2:1.2216216 3:0.33799534 4:0.52680653 5:0.78378378 
1 1:1.2207792 2:0.93184634 3:0.44468547 4:0.54374548 5:0.76208178 
1 1:1.3428571 2:1.0962099 3:0.37552743 4:0.52883263 5:0.77842566 
1 1:1.3297872 2:1.0259918 3:0.43351692 4:0.59008655 5:0.75376197 
1 1:1.3823529 2:1.0835735 3:0.36535662 4:0.54730713 5:0.72334294 
1 1:1.0729167 2:0.90748899 3:0.57183099 4:0.58028169 5:0.89427313 
1 1:1.2242991 2:0.98219306 3:0.3878527 4:0.5011956 5:0.76007498 
1 1:1.0869565 2:0.91116173 3:0.49672346 4:0.5242464 5:0.86332574 
1 1:1.2741935 2:1 3:0.36196319 4:0.48466258 5:0.74683544 
1 1:1.2916667 2:0.97637795 3:0.3909465 4:0.51028807 5:0.7480315 
1 1:1.2619048 2:1.0241546 3:0.40664962 4:0.54219949 5:0.76811594 
1 1:1.1031746 2:0.96027634 3:0.42109852 4:0.48474281 5:0.83419689 
1 1:1.3173077 2:1.083004 3:0.32495512 4:0.49192101 5:0.71541502 
1 1:1.3571429 2:1.0666667 3:0.47305389 4:0.60678643 5:0.83157895 
1 1:1.1578947 2:0.91666667 3:0.51282051 4:0.56410256 5:0.83333333 
1 1:1.2567568 2:0.97894737 3:0.40314136 4:0.48691099 5:0.81052632 
1 1:1.2612613 2:1.0438024 3:0.39572447 4:0.53206651 5:0.77632805 
1 1:1.25 2:0.9375 3:0.42857143 4:0.53571429 5:0.75 
1 1:1.2027027 2:0.90585242 3:0.42469471 4:0.48303935 5:0.79643766 
1 1:1.2931034 2:1.0221465 3:0.44186047 4:0.55813953 5:0.80919932 
1 1:1.25 2:1.097561 3:0.38823529 4:0.52941176 5:0.80487805 
1 1:1.2066667 2:0.91414141 3:0.4695122 4:0.55182927 5:0.77777778 
1 1:1.125 2:0.94845361 3:0.50303849 4:0.5590817 5:0.85337915 
1 1:1.25 2:1.0240964 3:0.4248366 4:0.55555556 5:0.78313253 
1 1:1.2352941 2:1.1313131 3:0.43338954 4:0.56661046 5:0.86531987 
1 1:1.2702703 2:1.0502793 3:0.38292011 4:0.51790634 5:0.77653631 
1 1:1.2857143 2:0.95681063 3:0.39963834 4:0.52079566 5:0.73421927 
1 1:1.3888889 2:0.95238095 3:0.37823834 4:0.51813472 5:0.6952381 
1 1:1.25 2:1.0179641 3:0.42857143 4:0.53968254 5:0.80838323 
1 1:1.0441176 2:0.94666667 3:0.44055944 4:0.4965035 5:0.84 
1 1:1.1223404 2:0.92139738 3:0.51724138 4:0.5596817 5:0.85152838 
1 1:1.2076923 2:1.0031949 3:0.39968404 4:0.49605055 5:0.80830671 
1 1:1.1681416 2:1.0076336 3:0.44 4:0.528 5:0.83969466 
1 1:1.1875 2:0.94214876 3:0.44700461 4:0.52534562 5:0.80165289 
1 1:1.5657895 2:1.3757225 3:0.28888889 4:0.58765432 5:0.67630058 
1 1:1.2352941 2:1.0980392 3:0.38658147 4:0.53674121 5:0.79084967 
1 1:1.4305556 2:1.1873199 3:0.33592737 4:0.53437095 5:0.74639769 
1 1:1.0714286 2:0.93603744 3:0.48966757 4:0.53908356 5:0.85023401 
1 1:1.125 2:0.92150171 3:0.48133595 4:0.53045187 5:0.83617747 
1 1:1.2894737 2:1.0888889 3:0.31775701 4:0.45794393 5:0.75555556 
1 1:1.0961538 2:0.9539749 3:0.46308725 4:0.51006711 5:0.86610879 
1 1:1.1764706 2:0.99688474 3:0.43837754 4:0.49921997 5:0.87538941 
1 1:1.234375 2:0.97530864 3:0.37724551 4:0.47305389 5:0.77777778 
1 1:1.1216216 2:0.92479109 3:0.50584307 4:0.5542571 5:0.84401114 
1 1:1.2328767 2:0.97297297 3:0.40495868 4:0.49586777 5:0.79459459 
1 1:1.2555556 2:0.95560254 3:0.42792281 4:0.51305335 5:0.79704017 
1 1:1.2066667 2:1.031339 3:0.39142462 4:0.50069156 5:0.80626781 
1 1:1.2720588 2:0.9558011 3:0.40425532 4:0.52583587 5:0.73480663 
1 1:1.5 2:1.362776 3:0.38950715 4:0.68680445 5:0.77287066 
1 1:1.3125 2:1.0588235 3:0.4185022 4:0.55506608 5:0.79831933 
1 1:1.3510638 2:1.0346232 3:0.36642027 4:0.53643083 5:0.70672098 
1 1:1.3 2:1.0985915 3:0.34591195 4:0.49056604 5:0.77464789 
1 1:1.2666667 2:1.0201342 3:0.46245059 4:0.60079051 5:0.7852349 
1 1:1.1076923 2:0.87671233 3:0.45683152 4:0.48281643 5:0.82952816 
1 1:1.2819149 2:1.0094241 3:0.41833966 4:0.52306023 5:0.80732984 
1 1:1.3181818 2:1.0481928 3:0.33333333 4:0.50877193 5:0.68674699 
1 1:1.2676056 2:0.97693351 3:0.41321714 4:0.52287582 5:0.77204885 
1 1:0.7 2:0.52830189 3:0.44250871 4:0.29268293 5:0.79874214 
1 1:1.3098592 2:1.1121076 3:0.35658363 4:0.52953737 5:0.74887892 
1 1:1.1216216 2:0.92997199 3:0.46508172 4:0.49331352 5:0.8767507 
1 1:1.3684211 2:1.106383 3:0.32038835 4:0.50485437 5:0.70212766 
1 1:1.375 2:1.3333333 3:0.38108883 4:0.63037249 5:0.80606061 
1 1:1.2619048 2:0.96803653 3:0.42431762 4:0.52605459 5:0.78082192 
1 1:1.359375 2:0.96935933 3:0.37709924 4:0.53129771 5:0.68802228 
1 1:1.3037383 2:1.0909091 3:0.38922717 4:0.52271663 5:0.81231672 
1 1:1.3157895 2:1.0443864 3:0.37959184 4:0.54421769 5:0.72845953 
1 1:1.0230769 2:0.84444444 3:0.51816444 4:0.50860421 5:0.86031746 
1 1:1.2777778 2:1.1084337 3:0.38348624 4:0.50642202 5:0.83935743 
1 1:1.125 2:0.96716418 3:0.4528406 4:0.53612796 5:0.81691542 
1 1:1.1261682 2:1.0083682 3:0.42443064 4:0.4989648 5:0.85774059 
1 1:1.125 2:0.87804878 3:0.46919431 4:0.51184834 5:0.80487805 
1 1:1.2943925 2:0.98752228 3:0.42681679 4:0.56704197 5:0.74331551 
1 1:1.1846154 2:0.9903537 3:0.53816047 4:0.60273973 5:0.88424437 
1 1:1.3625 2:0.93562232 3:0.41147132 4:0.5436409 5:0.70815451 
1 1:1.2363636 2:1.0750988 3:0.44086022 4:0.58494624 5:0.81027668 
1 1:1.224359 2:0.93284493 3:0.44314266 4:0.52653343 5:0.78510379 
1 1:1.2560976 2:1.0147783 3:0.424 4:0.54933333 5:0.78325123 
1 1:1.1447368 2:0.94436906 3:0.43494424 4:0.51747212 5:0.79375848 
1 1:1.2857143 2:0.96644295 3:0.36212625 4:0.47840532 5:0.73154362 
1 1:1.1785714 2:0.94623656 3:0.42314991 4:0.50094877 5:0.79928315 
1 1:1.1315789 2:0.96089385 3:0.44668588 4:0.49567723 5:0.86592179 
1 1:1.1160714 2:0.9765625 3:0.43089431 4:0.50813008 5:0.828125 
1 1:1.1953125 2:0.97142857 3:0.53398058 4:0.59417476 5:0.87301587 
1 1:1.4 2:1.1666667 3:0.2962963 4:0.51851852 5:0.66666667 
1 1:1.2659574 2:1.0577778 3:0.2962298 4:0.42728905 5:0.73333333 
1 1:1.221519 2:0.97969543 3:0.39845758 4:0.49614396 5:0.78680203 
1 1:1.2321429 2:0.98571429 3:0.39552239 4:0.51492537 5:0.75714286 
1 1:1.1463415 2:0.92383292 3:0.49925484 4:0.56035768 5:0.82309582 
1 1:1.2619048 2:0.97996918 3:0.38759065 4:0.51248993 5:0.74114022 
1 1:1.25 2:1.0227273 3:0.37209302 4:0.52325581 5:0.72727273 
1 1:1.3636364 2:1.025641 3:0.39901478 4:0.591133 5:0.69230769 
1 1:1.280303 2:0.98830409 3:0.39465875 4:0.50148368 5:0.77777778 
1 1:1.25 2:1.0179641 3:0.42857143 4:0.53968254 5:0.80838323 
1 1:1.2211538 2:1.0409836 3:0.3968254 4:0.50396825 5:0.81967213 
1 1:1.1666667 2:1.0094877 3:0.4911366 4:0.55474453 5:0.89373814 
1 1:1.1585366 2:0.98360656 3:0.51538837 4:0.55691255 5:0.91026747 
1 1:1.0722892 2:0.92708333 3:0.45604396 4:0.48901099 5:0.86458333 
1 1:1.1785714 2:0.98876404 3:0.47346072 4:0.56050955 5:0.83520599 
1 1:1.1428571 2:1.015873 3:0.38906089 4:0.4623323 5:0.85487528 
1 1:1.1698113 2:0.95384615 3:0.41353383 4:0.46616541 5:0.84615385 
1 1:1.1282051 2:0.97777778 3:0.45669291 4:0.51968504 5:0.85925926 
1 1:1.1981132 2:0.98069498 3:0.43468951 4:0.54389722 5:0.78378378 
1 1:1.0151515 2:0.85897436 3:0.47142857 4:0.47857143 5:0.84615385 
1 1:1.2133333 2:1.1097561 3:0.40740741 4:0.5617284 5:0.80487805 
1 1:1.1555556 2:1.0097087 3:0.39013453 4:0.46636771 5:0.84466019 
1 1:1.1834862 2:0.98850575 3:0.41782178 4:0.51089109 5:0.80842912 
1 1:1.2666667 2:1.0013175 3:0.3918452 4:0.5252246 5:0.74703557 
1 1:1.3125 2:1.1052632 3:0.34883721 4:0.48837209 5:0.78947368 
1 1:1.16 2:0.92430279 3:0.47812251 4:0.55369928 5:0.79814077 
1 1:1.1576087 2:0.87564234 3:0.46315159 4:0.51048532 5:0.79445015 
1 1:1.128 2:0.94314381 3:0.46915888 4:0.5271028 5:0.83946488 
1 1:1.28125 2:0.93181818 3:0.43589744 4:0.52564103 5:0.77272727 
1 1:1.2407407 2:1.0592885 3:0.42300195 4:0.52241715 5:0.85770751 
1 1:2.0438596 2:1.8167641 3:0.2896915 4:0.70127916 5:0.75048733 
1 1:1.3 2:1.0833333 3:0.34210526 4:0.51315789 5:0.72222222 
1 1:1.25 2:0.92592593 3:0.41176471 4:0.49019608 5:0.77777778 
1 1:1.1875 2:0.99068901 3:0.39765555 4:0.47971145 5:0.82122905 
1 1:1.2954545 2:1.0363636 3:0.37614679 4:0.52293578 5:0.74545455 
1 1:1.3804348 2:1.1981132 3:0.34453782 4:0.53361345 5:0.77358491 
1 1:1.4 2:1.09375 3:0.36764706 4:0.51470588 5:0.78125 
0.09914898627530197 1:1.1363636 2:0.86206897 3:0.4893617 4:0.53191489 5:0.79310345 
1 1:1.2177419 2:0.96025437 3:0.403895 4:0.51143099 5:0.75834658 
1 1:1.2096774 2:1.0309278 3:0.43403442 4:0.57361377 5:0.78006873 
1 1:1.0921053 2:0.86010363 3:0.47774481 4:0.4925816 5:0.83419689 
1 1:1.1907895 2:1.0154278 3:0.52124892 4:0.62792715 5:0.84291725 
1 1:1.3 2:1.0284302 3:0.37235969 4:0.50211225 5:0.76266996 
1 1:1.3 2:1.136612 3:0.46355685 4:0.60641399 5:0.86885246 
1 1:1.25 2:0.98701299 3:0.39027595 4:0.49934297 5:0.77142857 
0.07056886966954784 1:1.2016129 2:0.94303797 3:0.3803681 4:0.45705521 5:0.78481013 
1 1:1.25 2:0.92592593 3:0.45652174 4:0.54347826 5:0.77777778 
1 1:1.1973684 2:0.98644986 3:0.41325811 4:0.51339915 5:0.79403794 
1 1:1.1097561 2:0.93333333 3:0.46355685 4:0.53061224 5:0.81538462 
1 1:1.1893939 2:0.94152924 3:0.54396135 4:0.60676329 5:0.84407796 
1 1:1.1542553 2:0.96767001 3:0.44911639 4:0.52894576 5:0.82162765 
1 1:1.1621622 2:1.0289133 3:0.4202315 4:0.51937594 5:0.83250249 
1 1:1.4883721 2:1.2736318 3:0.32603939 4:0.56017505 5:0.74129353 
1 1:1.2380952 2:0.97652582 3:0.41644562 4:0.55172414 5:0.7370892 
1 1:1.2459016 2:0.97749196 3:0.40173913 4:0.52869565 5:0.74276527 
1 1:1.2678571 2:0.99649123 3:0.33023256 4:0.44031008 5:0.74736842 
1 1:1.1111111 2:0.96385542 3:0.41787942 4:0.4989605 5:0.80722892 
1 1:1.2884615 2:1.046875 3:0.41935484 4:0.54032258 5:0.8125 
1 1:1.4090909 2:1.1376147 3:0.3304721 4:0.53218884 5:0.70642202 
1 1:1.3125 2:1.1052632 3:0.31100478 4:0.50239234 5:0.68421053 
1 1:1.1969697 2:0.97530864 3:0.41935484 4:0.50967742 5:0.80246914 
1 1:1.3380282 2:1.0570236 3:0.35709294 4:0.53109713 5:0.71070932 
1 1:1.2093023 2:1.022113 3:0.39928486 4:0.49582837 5:0.82309582 
1 1:1.2352941 2:1.0181818 3:0.37993921 4:0.5106383 5:0.75757576 
1 1:1.3214286 2:1.0206897 3:0.45381526 4:0.59437751 5:0.77931034 
1 1:0.98809524 2:0.85128205 3:0.46049046 4:0.45231608 5:0.86666667 
1 1:1.0930233 2:1.0217391 3:0.37755102 4:0.47959184 5:0.80434783 
1 1:1.3108108 2:1.0346667 3:0.359199 4:0.48560701 5:0.76533333 
1 1:1.2647059 2:1.0955414 3:0.37993921 4:0.52279635 5:0.79617834 
1 1:1.0609756 2:0.87 3:0.50588235 4:0.51176471 5:0.86 
1 1:1.3083333 2:0.97667185 3:0.42186089 4:0.56729901 5:0.72628305 
1 1:1.2142857 2:0.97142857 3:0.41463415 4:0.49756098 5:0.80952381 
1 1:1.0084746 2:0.78032787 3:0.52475248 4:0.47128713 5:0.86885246 
1 1:1.3306452 2:1.0891089 3:0.39899833 4:0.5509182 5:0.78877888 
1 1:1.0744681 2:0.94392523 3:0.4863388 4:0.55191257 5:0.8317757 
1 1:1.3795181 2:1.2883263 3:0.44200152 4:0.6944655 5:0.81997187 
1 1:1.3333333 2:1.0833333 3:0.38947368 4:0.54736842 5:0.77083333 
1 1:1.2794118 2:1.0609756 3:0.32222222 4:0.48333333 5:0.70731707 
1 1:1.2126437 2:0.98025552 3:0.46338125 4:0.57768652 5:0.78629501 
1 1:1.7619048 2:1.5456919 3:0.28382503 4:0.60223805 5:0.72845953 
1 1:1.2464789 2:1.0275762 3:0.39698492 4:0.50825556 5:0.80261248 
1 1:1.5294118 2:1.3913043 3:0.31693198 4:0.60202605 5:0.73244147 
1 1:1.3714286 2:1.0578512 3:0.42583732 4:0.61244019 5:0.73553719 
1 1:1.2857143 2:1 3:0.37671233 4:0.49315068 5:0.76388889 
1 1:1.2345679 2:1.0062893 3:0.4349835 4:0.52805281 5:0.82893082 
1 1:1.2105263 2:1.0222222 3:0.40350877 4:0.48421053 5:0.85185185 
1 1:1.3035714 2:1 3:0.35664336 4:0.51048951 5:0.69863014 
1 1:1.1160714 2:0.98425197 3:0.41176471 4:0.49019608 5:0.82677165 
1 1:1.3571429 2:1.1129707 3:0.38126362 4:0.5795207 5:0.73221757 
1 1:1.2027027 2:1.0318841 3:0.41463415 4:0.5107604 5:0.83768116 
1 1:1.3101266 2:0.99161677 3:0.44186047 4:0.58350951 5:0.7508982 
1 1:1.1666667 2:0.93333333 3:0.44303797 4:0.53164557 5:0.77777778 
1 1:1.3857143 2:1.3108108 3:0.35897436 4:0.62179487 5:0.75675676 
1 1:1.1944444 2:0.94505495 3:0.47712418 4:0.5620915 5:0.8021978 
1 1:1.3717949 2:1.0780856 3:0.38461538 4:0.57759784 5:0.71788413 
1 1:1.2037037 2:1 3:0.53271028 4:0.60747664 5:0.87692308 
1 1:1.4210526 2:1.0553746 3:0.36497545 4:0.53027823 5:0.72638436 
1 1:1.3518519 2:1.1060606 3:0.51851852 4:0.67592593 5:0.84848485 
1 1:1.195122 2:0.98 3:0.40425532 4:0.5212766 5:0.76 
1 1:1.25 2:0.96551724 3:0.46887967 4:0.58091286 5:0.77931034 
1 1:1.2291667 2:0.9516129 3:0.43396226 4:0.55660377 5:0.74193548 
1 1:1.1964286 2:0.96925859 3:0.43859649 4:0.55314757 5:0.76853526 
1 1:1.1315789 2:0.92972973 3:0.45472249 4:0.50243427 5:0.84144144 
1 1:1.3846154 2:1.0359712 3:0.36917563 4:0.51612903 5:0.74100719 
1 1:1.0661765 2:0.85798817 3:0.48821549 4:0.48821549 5:0.85798817 
1 1:1.3225806 2:1.0825083 3:0.32041729 4:0.48882265 5:0.70957096 
1 1:1.1630435 2:0.93859649 3:0.43119266 4:0.49082569 5:0.8245614 
1 1:1.3103448 2:1.027027 3:0.40277778 4:0.52777778 5:0.78378378 
1 1:1.25 2:1.0869565 3:0.39534884 4:0.58139535 5:0.73913043 
1 1:1.1575342 2:0.97266187 3:0.44893112 4:0.53523357 5:0.81582734 
1 1:1.2836538 2:1.0298939 3:0.42534633 4:0.54797332 5:0.79942141 
1 1:1.5897436 2:1.3156499 3:0.33104238 4:0.56815578 5:0.76657825 
1 1:1.2727273 2:1.1089109 3:0.37327189 4:0.51612903 5:0.8019802 
1 1:1.3333333 2:1.152 3:0.3122807 4:0.50526316 5:0.712 
1 1:1.2317073 2:1.0150754 3:0.48169014 4:0.56901408 5:0.85929648 
1 1:1.3275862 2:0.9903537 3:0.39019964 4:0.55898367 5:0.69131833 
1 1:1.1590909 2:0.92030075 3:0.54731707 4:0.59707317 5:0.84360902 
1 1:1.3520408 2:1.2311266 3:0.34301452 4:0.53079619 5:0.79558653 
1 1:1.2567568 2:0.97637795 3:0.3888131 4:0.50750341 5:0.7480315 
1 1:1.2916667 2:1.0247934 3:0.45568487 4:0.55505819 5:0.84132231 
1 1:1.1875 2:0.93538462 3:0.42378559 4:0.50921273 5:0.77846154 
1 1:1.287234 2:1.0567686 3:0.39784946 4:0.52043011 5:0.80786026 
1 1:1.1969697 2:1.0095847 3:0.40640809 4:0.53288364 5:0.76996805 
1 1:1.4098361 2:1.1025641 3:0.3986014 4:0.6013986 5:0.73076923 
1 1:1.1388889 2:0.99696049 3:0.48086522 4:0.54575707 5:0.87841945 
1 1:1.255814 2:0.98855835 3:0.4087346 4:0.4837626 5:0.83524027 
1 1:1.3421053 2:0.97607656 3:0.3974026 4:0.52987013 5:0.73205742 
1 1:1.2027027 2:0.90585242 3:0.42469471 4:0.48303935 5:0.79643766 
1 1:1.3333333 2:1.0847458 3:0.33858268 4:0.50393701 5:0.72881356 
1 1:1.35 2:1.1530249 3:0.32605304 4:0.50546022 5:0.74377224 
1 1:1.3333333 2:0.94117647 3:0.375 4:0.5 5:0.70588235 
1 1:1.2941176 2:1.042963 3:0.36707056 4:0.5017819 5:0.76296296 
1 1:1.2638889 2:0.94915254 3:0.43410276 4:0.54206999 5:0.7601043 
1 1:1.3229167 2:0.92870201 3:0.45717464 4:0.5650723 5:0.75137112 
1 1:1.1287879 2:0.94006309 3:0.4446281 4:0.49256198 5:0.84858044 
1 1:1.1636364 2:0.94117647 3:0.43089431 4:0.5203252 5:0.77941176 
1 1:1.5 2:1.362776 3:0.38950715 4:0.68680445 5:0.77287066 
1 1:1.2730496 2:1.0961832 3:0.37023724 4:0.51617541 5:0.78625954 
1 1:1.1818182 2:1.04 3:0.43145161 4:0.52419355 5:0.856 
1 1:1.1105263 2:0.9017094 3:0.45327103 4:0.49299065 5:0.82905983 
1 1:1.2604167 2:1.0637363 3:0.49442379 4:0.59975217 5:0.87692308 
1 1:1.2361111 2:1.0853659 3:0.46575342 4:0.60958904 5:0.82926829 
1 1:1.0932203 2:0.85430464 3:0.52191235 4:0.51394422 5:0.86754967 
1 1:1.2692308 2:0.93617021 3:0.38245614 4:0.46315789 5:0.77304965 
1 1:1.2948718 2:1.0860215 3:0.37688442 4:0.50753769 5:0.80645161 
1 1:1.0941176 2:0.90510949 3:0.43968872 4:0.48249027 5:0.82481752 
1 1:1.1341463 2:1.0026954 3:0.35808383 4:0.44550898 5:0.80592992 
1 1:1.5151515 2:1.4814815 3:0.30847458 4:0.6779661 5:0.67407407 
1 1:1.0757576 2:0.8847352 3:0.47237077 4:0.50623886 5:0.82554517 
1 1:1.3152174 2:1.0386266 3:0.40527578 4:0.58033573 5:0.72532189 
1 1:1.1607143 2:0.99616858 3:0.50551876 4:0.57395143 5:0.87739464 
1 1:1.4411765 2:1.2405063 3:0.39622642 4:0.6163522 5:0.79746835 
1 1:1.1 2:0.83412322 3:0.50442478 4:0.51917404 5:0.81042654 
1 1:1.1666667 2:0.94915254 3:0.42342342 4:0.5045045 5:0.79661017 
1 1:1.2 2:0.98630137 3:0.48062016 4:0.55813953 5:0.84931507 
1 1:1.4111111 2:1.1519274 3:0.3419227 4:0.50346878 5:0.78231293 
1 1:1.1233766 2:0.87153652 3:0.53322528 4:0.56077796 5:0.82871537 
1 1:1.1818182 2:1.0113452 3:0.39680122 4:0.47524752 5:0.84440843 
1 1:1.3 2:1.029703 3:0.44262295 4:0.56830601 5:0.8019802 
1 1:1.1478873 2:0.88707483 3:0.4893617 4:0.55489362 5:0.78231293 
1 1:1.3541667 2:1.0143043 3:0.44018059 4:0.58690745 5:0.76072822 
1 1:1.59375 2:1.2670807 3:0.3427762 4:0.57790368 5:0.7515528 
1 1:1.2368421 2:0.95918367 3:0.40659341 4:0.51648352 5:0.75510204 
1 1:1.4166667 2:1.1390285 3:0.29334212 4:0.44825313 5:0.74539363 
1 1:1.34375 2:1.1740614 3:0.38358459 4:0.57621441 5:0.78156997 
1 1:1.4084507 2:1.1782032 3:0.38841699 4:0.61776062 5:0.74079529 
1 1:1.1838235 2:0.97428139 3:0.41633624 4:0.51070579 5:0.79425113 
1 1:1.4032258 2:1.1638796 3:0.34008683 4:0.50361795 5:0.78595318 
1 1:1.1538462 2:1 3:0.49019608 4:0.58823529 5:0.83333333 
1 1:1.2702703 2:0.98947368 3:0.43646409 4:0.51933702 5:0.83157895 
1 1:1.1630435 2:0.9532294 3:0.50066401 4:0.56839309 5:0.83964365 
1 1:1.2142857 2:1.0029499 3:0.42242704 4:0.52227343 5:0.81120944 
1 1:1.2291667 2:1.0630631 3:0.47826087 4:0.57004831 5:0.89189189 
1 1:1.1548673 2:0.99904306 3:0.47693867 4:0.52914344 5:0.90047847 
1 1:1.384058 2:1.1735791 3:0.45469659 4:0.63507897 5:0.84024578 
1 1:1.35 2:1.1134021 3:0.25291829 4:0.42023346 5:0.67010309 
1 1:1.1398305 2:1.0792377 3:0.54259577 4:0.61520869 5:0.95185557 
1 1:1.1291667 2:1.047343 3:0.44036236 4:0.54554605 5:0.84541063 
1 1:0.9893617 2:0.85321101 3:0.44700461 4:0.42857143 5:0.88990826 
1 1:1.1685393 2:0.91629956 3:0.44416873 4:0.51612903 5:0.78854626 
1 1:1.1886792 2:0.98054475 3:0.41020794 4:0.47637051 5:0.84435798 
1 1:1.0909091 2:0.96385542 3:0.44186047 4:0.50739958 5:0.83935743 
1 1:1.2837838 2:0.9947644 3:0.41880342 4:0.54131054 5:0.76963351 
1 1:1.1917808 2:1.0609756 3:0.4251497 4:0.52095808 5:0.86585366 
1 1:1.287234 2:1.0731707 3:0.42536476 4:0.54320988 5:0.84035477 
1 1:1.1410256 2:0.94933333 3:0.45064378 4:0.509299 5:0.84 
1 1:1.1666667 2:0.99324324 3:0.40764331 4:0.46815287 5:0.86486486 
1 1:1.3222222 2:1.1497585 3:0.34675615 4:0.53243848 5:0.74879227 
1 1:1.1666667 2:1.003876 3:0.44758065 4:0.52217742 5:0.86046512 
1 1:1.1636364 2:0.95522388 3:0.47457627 4:0.54237288 5:0.8358209 
1 1:1.1458333 2:0.92827004 3:0.45080092 4:0.50343249 5:0.83122363 
1 1:1.1546392 2:0.97074756 3:0.37294059 4:0.44732901 5:0.80931744 
1 1:1.2604167 2:1.0297872 3:0.54046997 4:0.63185379 5:0.88085106 
1 1:1.1875 2:0.96938776 3:0.5125 4:0.59375 5:0.83673469 
1 1:1.2857143 2:1.0076336 3:0.44787078 4:0.5814978 5:0.77608142 
1 1:1.2833333 2:1.0065359 3:0.4789272 4:0.59003831 5:0.81699346 
1 1:1.3513514 2:1.0582011 3:0.4269341 4:0.5730659 5:0.78835979 
1 1:1.2954545 2:1.3255814 3:0.27559055 4:0.4488189 5:0.81395349 
1 1:1.3157895 2:1.0152284 3:0.39946381 4:0.53619303 5:0.75634518 
1 1:1.2272727 2:1 3:0.41176471 4:0.52941176 5:0.77777778 
1 1:1.2261905 2:1.0813648 3:0.3899139 4:0.50676507 5:0.832021 
1 1:1.1666667 2:0.95789474 3:0.38536585 4:0.44390244 5:0.83157895 
1 1:1.3823529 2:1.0742857 3:0.35522388 4:0.56119403 5:0.68 
1 1:1.2352941 2:0.97109827 3:0.46272666 4:0.564137 5:0.79653179 
1 1:1.3636364 2:1.1764706 3:0.36448598 4:0.56074766 5:0.76470588 
1 1:1.31 2:1.0860104 3:0.43792921 4:0.55361859 5:0.85906736 
1 1:1.4375 2:1.2026144 3:0.34346505 4:0.55927052 5:0.73856209 
1 1:1.3409091 2:1.2040816 3:0.35087719 4:0.51754386 5:0.81632653 
1 1:1.2380952 2:1.0146341 3:0.37292162 4:0.49406176 5:0.76585366 
1 1:1.245614 2:1.040293 3:0.39816514 4:0.52110092 5:0.79487179 
1 1:1.2924528 2:1.1264132 3:0.50395137 4:0.6662614 5:0.85200411 
1 1:1.2083333 2:0.91518738 3:0.41017653 4:0.48182762 5:0.7790927 
1 1:1.2758621 2:1.0422535 3:0.38461538 4:0.51748252 5:0.77464789 
1 1:1.3303571 2:1.1119403 3:0.41221374 4:0.56870229 5:0.80597015 
1 1:1.0882353 2:1 3:0.45833333 4:0.51388889 5:0.89189189 
1 1:1.3142857 2:1.0760234 3:0.37604457 4:0.51253482 5:0.78947368 
1 1:1.3225806 2:1.0412698 3:0.39495798 4:0.5512605 5:0.74603175 
1 1:1.3333333 2:1.047619 3:0.4025974 4:0.57142857 5:0.73809524 
1 1:1.1414141 2:1.0066815 3:0.454324 4:0.55054811 5:0.83073497 
1 1:1.2397959 2:0.99082569 3:0.42761319 4:0.54332029 5:0.77981651 
1 1:1.1333333 2:1 3:0.43 4:0.51 5:0.84313725 
1 1:1.2738095 2:0.96832579 3:0.40342298 4:0.52322738 5:0.74660633 
1 1:1.1883117 2:0.976 3:0.41355463 4:0.50622407 5:0.79733333 
1 1:1.28 2:0.98084291 3:0.46910755 4:0.58581236 5:0.78544061 
1 1:1.4081633 2:1.2212389 3:0.33609959 4:0.57261411 5:0.71681416 
1 1:1.2777778 2:0.98924731 3:0.41242938 4:0.51977401 5:0.78494624 
1 1:1.2522523 2:1.0411985 3:0.3957935 4:0.53154876 5:0.7752809 
1 1:1.175 2:0.98429319 3:0.43872778 4:0.52759588 5:0.81849913 
1 1:1.0909091 2:0.97959184 3:0.38738739 4:0.43243243 5:0.87755102 
1 1:1.1180556 2:0.97134238 3:0.44128933 4:0.49424405 5:0.86726998 
1 1:1.2753623 2:1.0914729 3:0.40485513 4:0.55129209 5:0.80155039 
1 1:1.2573529 2:0.97854077 3:0.39314369 4:0.49890591 5:0.77110157 
1 1:1.3246753 2:1.1012146 3:0.44515216 4:0.57749469 5:0.8488529 
1 1:1.0882353 2:0.87058824 3:0.48993289 4:0.4966443 5:0.85882353 
1 1:1.2863636 2:1.0235081 3:0.38669238 4:0.54580521 5:0.72513562 
1 1:1.3494624 2:1.1952381 3:0.33476395 4:0.53862661 5:0.74285714 
1 1:1.1393443 2:0.95697074 3:0.46175115 4:0.5124424 5:0.86230637 
1 1:1.2211538 2:1.0139721 3:0.43674367 4:0.55885589 5:0.79241517 
1 1:1.2553191 2:0.95740365 3:0.42790152 4:0.55334115 5:0.74036511 
1 1:1.3333333 2:1.0772277 3:0.3413506 4:0.50323774 5:0.73069307 
1 1:1.475 2:1.2519894 3:0.34060606 4:0.57212121 5:0.74535809 
1 1:1.1 2:0.96350365 3:0.40213523 4:0.46975089 5:0.82481752 
1 1:1.1163793 2:0.97643732 3:0.43838979 4:0.50859107 5:0.84165881 
1 1:1.1521739 2:1.0653266 3:0.387471 4:0.49187935 5:0.83919598 
1 1:1.2280702 2:1.0586011 3:0.39608574 4:0.52190121 5:0.80340265 
1 1:1.22 2:0.98387097 3:0.40322581 4:0.49193548 5:0.80645161 
1 1:1.3 2:1.0390554 3:0.3797291 4:0.53432975 5:0.73841962 
1 1:1.3666667 2:1.1213675 3:0.35235158 4:0.50578258 5:0.78119658 
1 1:1.3088235 2:1.0755287 3:0.3582296 4:0.49239281 5:0.78247734 
1 1:1.2857143 2:1 3:0.42424242 4:0.54545455 5:0.77777778 
1 1:1.0819672 2:0.93121693 3:0.43330267 4:0.48574057 5:0.83068783 
1 1:1.2608696 2:1.0175439 3:0.38738739 4:0.52252252 5:0.75438596 
1 1:1.3208955 2:1.026087 3:0.38552437 4:0.52289513 5:0.75652174 
1 1:1.1397059 2:0.86834734 3:0.50087873 4:0.54481547 5:0.79831933 
1 1:1.2027027 2:0.97400821 3:0.4001442 4:0.51333814 5:0.75923393 
1 1:1.3214286 2:1 3:0.36 4:0.49333333 5:0.72972973 
1 1:1.2727273 2:1.12 3:0.35248042 4:0.51174935 5:0.77142857 
1 1:1.3295455 2:1.1386861 3:0.43381389 4:0.61336828 5:0.8053528 
1 1:1.1578947 2:0.94623656 3:0.42196532 4:0.50867052 5:0.78494624 
1 1:1.1447368 2:0.93048128 3:0.48623853 4:0.53211009 5:0.85026738 
1 1:1.35 2:1.173913 3:0.42553191 4:0.57446809 5:0.86956522 
1 1:1.1320755 2:0.98663926 3:0.45835572 4:0.51585169 5:0.87667009 
1 1:1.3235294 2:1.01983 3:0.38461538 4:0.52249637 5:0.75070822 
1 1:1.1076923 2:0.87671233 3:0.45683152 4:0.48281643 5:0.82952816 
1 1:1.2380952 2:1.0097087 3:0.37440758 4:0.492891 5:0.76699029 
1 1:1.3243243 2:1.0195059 3:0.36081167 4:0.49714648 5:0.73992198 
1 1:1.3055556 2:1.1140741 3:0.37003484 4:0.52404181 5:0.78666667 
1 1:1.2575758 2:1.0607029 3:0.4165316 4:0.53808752 5:0.82108626 
1 1:1.1666667 2:0.97777778 3:0.41396934 4:0.52470187 5:0.77142857 
1 1:1.1527778 2:0.98809524 3:0.43421053 4:0.54605263 5:0.78571429 
1 1:1.3297872 2:1.1261261 3:0.37021277 4:0.53191489 5:0.78378378 
1 1:1.3035714 2:1.0695971 3:0.35726496 4:0.4991453 5:0.76556777 
1 1:1.1 2:0.87301587 3:0.48571429 4:0.52380952 5:0.80952381 
1 1:1.3020833 2:1.0288066 3:0.37154989 4:0.53078556 5:0.72016461 
1 1:1.3717949 2:1.0780856 3:0.38461538 4:0.57759784 5:0.71788413 
1 1:1.35 2:1.1950207 3:0.3830721 4:0.54169279 5:0.8450899 
1 1:1.2117117 2:0.99353647 3:0.49856239 4:0.61874641 5:0.80055402 
1 1:1.4615385 2:1.0629371 3:0.41700405 4:0.61538462 5:0.72027972 
1 1:1.4230769 2:1.0277778 3:0.46428571 4:0.66071429 5:0.72222222 
1 1:1.2202381 2:1.0186335 3:0.50769231 4:0.6007326 5:0.86086957 
1 1:1.1964286 2:0.97810219 3:0.47679325 4:0.56540084 5:0.82481752 
1 1:1.2980769 2:0.98720293 3:0.42555438 4:0.57022175 5:0.73674589 
1 1:1.1875 2:0.98701299 3:0.412527 4:0.4924406 5:0.82683983 
1 1:1.0769231 2:0.88537549 3:0.44654088 4:0.46960168 5:0.84189723 
1 1:1.1834862 2:0.98850575 3:0.41782178 4:0.51089109 5:0.80842912 
1 1:1.38 2:1.0298507 3:0.35251799 4:0.49640288 5:0.73134328 
1 1:1.5 2:1.1552795 3:0.36102236 4:0.5942492 5:0.70186335 
1 1:1.1559633 2:0.95184136 3:0.48136143 4:0.5445705 5:0.84135977 
1 1:1.1223404 2:0.92240437 3:0.5222296 4:0.56005309 5:0.86010929 
1 1:1.2844037 2:1.0656518 3:0.4202315 4:0.56366381 5:0.79448145 
1 1:1.2612613 2:1.0438024 3:0.39572447 4:0.53206651 5:0.77632805 
1 1:1.2888889 2:1.0765661 3:0.4081381 4:0.57213317 5:0.76798144 
1 1:1.2384615 2:0.98470948 3:0.43441227 4:0.54855196 5:0.77981651 
1 1:1.1956522 2:0.97777778 3:0.404814 4:0.48140044 5:0.82222222 
1 1:1.2264151 2:0.98484848 3:0.40833333 4:0.54166667 5:0.74242424 
1 1:1.3333333 2:1.1801418 3:0.43416102 4:0.62603461 5:0.81843972 
1 1:1.2333333 2:1.0496454 3:0.34384858 4:0.46687697 5:0.77304965 
1 1:1.3142857 2:1.010989 3:0.42331288 4:0.56441718 5:0.75824176 
1 1:1.6842105 2:1.3653333 3:0.29723225 4:0.61612515 5:0.65866667 
1 1:1.3882979 2:1.1485149 3:0.33366584 4:0.52069825 5:0.7359736 
1 1:1.4393939 2:1.3718412 3:0.29927007 4:0.55474453 5:0.7400722 
1 1:1.3181818 2:1.0691244 3:0.41818182 4:0.6025974 5:0.74193548 
1 1:1.1818182 2:1.0162866 3:0.40869565 4:0.5426087 5:0.76547231 
1 1:1.2088608 2:0.9397294 3:0.48406227 4:0.56634544 5:0.80319803 
1 1:1.44 2:1.1119691 3:0.35755258 4:0.55066922 5:0.72200772 
1 1:1.2941176 2:1.0414201 3:0.37694704 4:0.5482866 5:0.71597633 
1 1:1.2013889 2:1.0829421 3:0.32416503 4:0.45317616 5:0.77464789 
1 1:1.34375 2:1.068323 3:0.3427762 4:0.48725212 5:0.7515528 
1 1:1.2894737 2:0.99872611 3:0.41518808 4:0.556423 5:0.74522293 
1 1:1.3823529 2:1.1058824 3:0.35260116 4:0.5433526 5:0.71764706 
1 1:1.204918 2:1.0297723 3:0.41645462 4:0.49872774 5:0.85989492 
1 1:1.3392857 2:1.1111111 3:0.34767025 4:0.53763441 5:0.71851852 
1 1:1.125 2:0.984375 3:0.45 4:0.525 5:0.84375 
1 1:1.3 2:1.0139276 3:0.42410016 4:0.56964006 5:0.75487465 
1 1:1.2705882 2:0.95469613 3:0.43661972 4:0.52908757 5:0.7878453 
1 1:1.3852459 2:1.106383 3:0.40714908 4:0.58936356 5:0.76432079 
1 1:1.1492537 2:0.89665211 3:0.47215081 4:0.52784919 5:0.80203785 
1 1:1.2121212 2:0.90523338 3:0.45587045 4:0.51821862 5:0.79632249 
1 1:1.3125 2:1.3298153 3:0.42111507 4:0.59786477 5:0.93667546 
1 1:1.2432432 2:1.0193906 3:0.44130758 4:0.54680535 5:0.82271468 
1 1:1.25 2:0.95238095 3:0.41772152 4:0.50632911 5:0.78571429 
1 1:1.2564103 2:0.97755611 3:0.44906743 4:0.56241033 5:0.78054863 
1 1:1.375 2:1.2154696 3:0.34814815 4:0.54320988 5:0.77900552 
1 1:1.2214286 2:0.98986975 3:0.4026174 4:0.52655889 5:0.7568741 
1 1:1.1393443 2:0.97202797 3:0.45816733 4:0.55378486 5:0.8041958 
1 1:1.3863636 2:1.0295359 3:0.35181237 4:0.52025586 5:0.69620253 
1 1:1.1269841 2:0.9015873 3:0.44804089 4:0.48381601 5:0.83492063 
1 1:1.1875 2:0.91566265 3:0.43225806 4:0.49032258 5:0.80722892 
1 1:1.7 2:1.316129 3:0.27648579 4:0.52713178 5:0.69032258 
1 1:1.2105263 2:1.1151515 3:0.37981037 4:0.51310653 5:0.82545455 
1 1:1.25 2:1.0086957 3:0.40091324 4:0.52968037 5:0.76347826 
1 1:1.2822581 2:0.9695122 3:0.38461538 4:0.50961538 5:0.73170732 
1 1:1.125 2:1.04 3:0.41573034 4:0.5258427 5:0.82222222 
1 1:1.16 2:0.95342466 3:0.40720961 4:0.46461949 5:0.83561644 
1 1:1.2128713 2:1.0348469 3:0.44145135 4:0.53875756 5:0.84794087 
1 1:1.0909091 2:0.91866029 3:0.48985507 4:0.55652174 5:0.80861244 
1 1:1.2037037 2:1.0358566 3:0.46038544 4:0.55674518 5:0.85657371 
1 1:1.3333333 2:1.122807 3:0.37190083 4:0.52892562 5:0.78947368 
1 1:1.3478261 2:0.9750983 3:0.3312539 4:0.46412976 5:0.69593709 
1 1:1.2209302 2:1.0447761 3:0.36430318 4:0.51344743 5:0.74129353 
1 1:1.2962963 2:0.9671848 3:0.45623069 4:0.57672503 5:0.76511226 
1 1:1.2863636 2:1.0235081 3:0.38669238 4:0.54580521 5:0.72513562 
1 1:1.2631579 2:1.1851852 3:0.36723164 4:0.54237288 5:0.80246914 
1 1:1.1666667 2:0.97180043 3:0.39978564 4:0.48017149 5:0.80911063 
1 1:1.3095238 2:1.047619 3:0.47089947 4:0.58201058 5:0.84761905 
1 1:1.2612613 2:1.0438024 3:0.39572447 4:0.53206651 5:0.77632805 
1 1:1.3888889 2:1.0869565 3:0.36170213 4:0.53191489 5:0.73913043 
1 1:1.0042017 2:0.86437613 3:0.55077658 4:0.57108722 5:0.83363472 
1 1:1.2307692 2:0.98272553 3:0.44126984 4:0.54179894 5:0.80038388 
1 1:1.1909091 2:1.0335306 3:0.46325879 4:0.55804047 5:0.85798817 
1 1:1.1639344 2:0.96763203 3:0.43681086 4:0.48176421 5:0.87734242 
1 1:1.2681159 2:1.0279001 3:0.39566193 4:0.52356021 5:0.77679883 
1 1:1.202381 2:0.98536585 3:0.51367781 4:0.61398176 5:0.82439024 
1 1:1.1785714 2:1 3:0.47368421 4:0.57894737 5:0.81818182 
1 1:1.2285714 2:1.0487805 3:0.36431227 4:0.4795539 5:0.79674797 
1 1:1.2073171 2:0.99123905 3:0.43510424 4:0.53261601 5:0.8097622 
1 1:1.2340426 2:1.0892019 3:0.39393939 4:0.54079254 5:0.79342723 
1 1:1.2916667 2:1.1324201 3:0.37684211 4:0.52210526 5:0.8173516 
1 1:1.1607143 2:0.98984772 3:0.41854637 4:0.4887218 5:0.84771574 
1 1:1.2681159 2:0.95497954 3:0.43940643 4:0.57708162 5:0.7271487 
1 1:1.2651515 2:1.0503145 3:0.41896024 4:0.51070336 5:0.86163522 
1 1:1.2666667 2:0.96815287 3:0.5256917 4:0.60079051 5:0.84713376 
1 1:1.3636364 2:1.192053 3:0.33944954 4:0.55045872 5:0.73509934 
1 1:1.1923077 2:1.0247934 3:0.41630901 4:0.53218884 5:0.80165289 
1 1:1.24 2:0.95019157 3:0.4129979 4:0.51991614 5:0.75478927 
1 1:1.2619048 2:0.94642857 3:0.44 4:0.53 5:0.78571429 
1 1:1.0882353 2:0.8969697 3:0.41348974 4:0.4340176 5:0.85454545 
1 1:1.4189189 2:1.0243902 3:0.38983051 4:0.50847458 5:0.78536585 
1 1:1.3455882 2:1.0237762 3:0.38284066 4:0.52775775 5:0.74265734 
1 1:1.25 2:1.0659898 3:0.41561713 4:0.52896725 5:0.83756345 
1 1:1.2916667 2:1.0973451 3:0.39555556 4:0.55111111 5:0.78761062 
1 1:1.25 2:1.05919 3:0.42959002 4:0.60606061 5:0.75077882 
1 1:1.1123596 2:0.98263027 3:0.46666667 4:0.49811321 5:0.92059553 
1 1:1.1953125 2:0.97142857 3:0.53398058 4:0.59417476 5:0.87301587 
1 1:1.2765957 2:1.0491803 3:0.40965817 4:0.52088985 5:0.82513661 
1 1:1.0637255 2:0.88121827 3:0.49355742 4:0.48627451 5:0.89441624 
1 1:1.33 2:1.1822222 3:0.47188264 4:0.65036675 5:0.85777778 
1 1:1.4565217 2:1.2072072 3:0.31983806 4:0.54251012 5:0.71171171 
1 1:1.1 2:0.93950178 3:0.4358047 4:0.47739602 5:0.85765125 
1 1:1.3225806 2:1.0379747 3:0.40559441 4:0.57342657 5:0.73417722 
1 1:1.2931034 2:1.0067114 3:0.42641509 4:0.56603774 5:0.75838926 
1 1:1.4459459 2:1.2193732 3:0.36758893 4:0.56389987 5:0.79487179 
1 1:1.3235294 2:1.1368421 3:0.45717464 4:0.60066741 5:0.86526316 
1 1:1.1590909 2:0.97142857 3:0.47089947 4:0.53968254 5:0.84761905 
1 1:1.2317073 2:0.96650718 3:0.38983051 4:0.48910412 5:0.77033493 
1 1:1.425 2:1.1480363 3:0.46349378 4:0.61654949 5:0.86304129 
1 1:1.175 2:0.93377483 3:0.44649446 4:0.5202952 5:0.8013245 
1 1:1.3243243 2:1.1789474 3:0.44890235 4:0.59348978 5:0.89172932 
1 1:1.2522523 2:1.0411985 3:0.3957935 4:0.53154876 5:0.7752809 
1 1:1.3163265 2:1.0661157 3:0.30795848 4:0.44636678 5:0.73553719 
1 1:1.4090909 2:1.1121076 3:0.37360179 4:0.55480984 5:0.74887892 
1 1:1.1666667 2:0.97391304 3:0.44827586 4:0.55172414 5:0.79130435 
1 1:1.4864865 2:1.2979351 3:0.38035961 4:0.60857538 5:0.81120944 
1 1:1.21875 2:0.96 3:0.3827534 4:0.4720121 5:0.77846154 
1 1:1.48 2:1.2489451 3:0.37821782 4:0.58613861 5:0.80590717 
1 1:1.3571429 2:1.0604651 3:0.37588652 4:0.53900709 5:0.73953488 
1 1:1.375 2:1.1 3:0.38297872 4:0.58510638 5:0.72 
1 1:1.1846154 2:0.9903537 3:0.53816047 4:0.60273973 5:0.88424437 
1 1:1.1588235 2:0.96097561 3:0.4488189 4:0.51706037 5:0.83414634 
1 1:1.2735849 2:1.0505837 3:0.41443299 4:0.55670103 5:0.78210117 
1 1:1.2727273 2:1.0873786 3:0.39336493 4:0.53080569 5:0.80582524 
1 1:1.2352941 2:1.037037 3:0.46099291 4:0.59574468 5:0.80246914 
1 1:1.1834862 2:0.98850575 3:0.41782178 4:0.51089109 5:0.80842912 
1 1:1.2932692 2:1.0990807 3:0.43529412 4:0.55038363 5:0.86925434 
1 1:1.2333333 2:0.99328859 3:0.42238267 4:0.53429603 5:0.7852349 
1 1:1.1702128 2:0.92827004 3:0.42604857 4:0.48565121 5:0.81434599 
1 1:0.91176471 2:0.77018634 3:0.48821549 4:0.41750842 5:0.90062112 
1 1:1.1666667 2:0.93333333 3:0.45679012 4:0.51851852 5:0.82222222 
1 1:1.2666667 2:0.97435897 3:0.37984496 4:0.49095607 5:0.75384615 
1 1:1.1575342 2:0.99265786 3:0.41361257 4:0.50560957 5:0.81204112 
1 1:1.2592593 2:1.0448143 3:0.43118069 4:0.53228963 5:0.84635083 
1 1:1.4038462 2:1.140625 3:0.31081081 4:0.49324324 5:0.71875 
1 1:1.3870968 2:1.033033 3:0.35503876 4:0.53333333 5:0.68768769 
1 1:1.4285714 2:1.0789981 3:0.35014006 4:0.52287582 5:0.72254335 
1 1:1.3 2:1.0196078 3:0.4 4:0.52 5:0.78431373 
1 1:1.15625 2:1.0136986 3:0.40939597 4:0.4966443 5:0.83561644 
1 1:1.1075949 2:0.94979647 3:0.43971119 4:0.50541516 5:0.82632293 
1 1:1.2619048 2:0.97846154 3:0.4516696 4:0.55887522 5:0.79076923 
1 1:1.4736842 2:1.1181364 3:0.34642577 4:0.52788688 5:0.73377704 
1 1:1.2361111 2:0.99441341 3:0.42686567 4:0.53134328 5:0.79888268 
1 1:1.5188679 2:1.1816514 3:0.3453919 4:0.55469423 5:0.73577982 
1 1:1.1666667 2:0.92857143 3:0.46428571 4:0.54166667 5:0.79591837 
1 1:1.2884615 2:1.0634921 3:0.34228188 4:0.44966443 5:0.80952381 
1 1:1.2368421 2:1 3:0.42528736 4:0.54022989 5:0.78723404 
1 1:1.2048193 2:0.92592593 3:0.45454545 4:0.53475936 5:0.78703704 
1 1:1.3219178 2:0.96863237 3:0.40095303 4:0.52552757 5:0.73902133 
1 1:1.2868852 2:0.9691358 3:0.38271605 4:0.4845679 5:0.7654321 
1 1:1.3157895 2:1.1235955 3:0.39896373 4:0.51813472 5:0.86516854 
1 1:1.3 2:1.1428571 3:0.47305389 4:0.62275449 5:0.86813187 
1 1:1.2333333 2:1.0136986 3:0.38255034 4:0.4966443 5:0.78082192 
1 1:1.2941176 2:1.1891892 3:0.38961039 4:0.57142857 5:0.81081081 
1 1:1.2658228 2:1.0269576 3:0.39091491 4:0.51183621 5:0.7843389 
1 1:1.3717949 2:1.0780856 3:0.38461538 4:0.57759784 5:0.71788413 
1 1:1.4130435 2:1.1403509 3:0.41284404 4:0.59633028 5:0.78947368 
1 1:1.3382353 2:1.0865672 3:0.33246415 4:0.47457627 5:0.76119403 
1 1:1.2522523 2:1.0411985 3:0.3957935 4:0.53154876 5:0.7752809 
1 1:1.2894737 2:1.1136364 3:0.37362637 4:0.53846154 5:0.77272727 
1 1:1.3529412 2:1.1572327 3:0.31070496 4:0.48041775 5:0.74842767 
1 1:1.3857143 2:1.231746 3:0.37765205 4:0.54879774 5:0.84761905 
1 1:1.5 2:1.1489362 3:0.32631579 4:0.56842105 5:0.65957447 
1 1:1.2568807 2:0.95221546 3:0.45498783 4:0.53333333 5:0.8123371 
1 1:1.15 2:0.94358974 3:0.4280543 4:0.49954751 5:0.80854701 
1 1:1.2444444 2:0.99334812 3:0.38797814 4:0.48961749 5:0.78713969 
1 1:1.1704545 2:0.97169811 3:0.48387097 4:0.55376344 5:0.8490566 
1 1:1.2631579 2:0.98969072 3:0.35609756 4:0.46829268 5:0.75257732 
1 1:1.2849462 2:1.059867 3:0.40495868 4:0.56434475 5:0.76053215 
1 1:1.2718447 2:1.0585859 3:0.42342342 4:0.52452452 5:0.85454545 
1 1:1.2093023 2:0.95852535 3:0.37639198 4:0.46325167 5:0.77880184 
1 1:1.3292683 2:1.016317 3:0.3899139 4:0.53628536 5:0.73892774 
1 1:1.2419355 2:0.92771084 3:0.45985401 4:0.5620438 5:0.75903614 
1 1:1.0990991 2:0.95219512 3:0.46809651 4:0.5233244 5:0.85170732 
1 1:1.3030303 2:1.0617284 3:0.37724551 4:0.51497006 5:0.77777778 
1 1:1.1287879 2:0.94006309 3:0.4446281 4:0.49256198 5:0.84858044 
1 1:1.2641509 2:1.0763052 3:0.40882917 4:0.51439539 5:0.85542169 
1 1:1.1956522 2:0.95444685 3:0.43063932 4:0.53075995 5:0.77440347 
1 1:1.2765957 2:1.0457516 3:0.47141042 4:0.60991105 5:0.80827887 
1 1:1.3392857 2:1.010101 3:0.37349398 4:0.51635112 5:0.73063973 
1 1:1.375 2:1.1354839 3:0.39273927 4:0.58085809 5:0.76774194 
1 1:1.3888889 2:1.1627907 3:0.31958763 4:0.51546392 5:0.72093023 
1 1:1.2553191 2:1.0751708 3:0.39931741 4:0.53697383 5:0.79954442 
1 1:1.1666667 2:0.94974874 3:0.45552561 4:0.50943396 5:0.84924623 
1 1:1.0595238 2:0.91752577 3:0.48538012 4:0.52046784 5:0.8556701 
1 1:1.2567568 2:1.0191781 3:0.35515152 4:0.45090909 5:0.80273973 
1 1:1.9 2:1.5670103 3:0.23651452 4:0.63070539 5:0.58762887 
1 1:1.2830189 2:1.0055453 3:0.42915392 4:0.55453619 5:0.77818854 
1 1:1.1923077 2:1.0247934 3:0.43111111 4:0.55111111 5:0.80165289 
1 1:1.1666667 2:0.92492492 3:0.49026549 4:0.54513274 5:0.83183183 
1 1:1.2217742 2:0.98616762 3:0.42271715 4:0.53986637 5:0.7721725 
1 1:1.1764706 2:0.96969697 3:0.45392491 4:0.54607509 5:0.80606061 
1 1:1.24 2:1.0829694 3:0.38969072 4:0.51134021 5:0.82532751 
1 1:1.2478261 2:0.96389589 3:0.42664743 4:0.55218855 5:0.74475231 
1 1:1.24 2:0.93584906 3:0.40740741 4:0.4834308 5:0.78867925 
1 1:1.1727273 2:0.96810507 3:0.41013825 4:0.47557604 5:0.83489681 
1 1:1.29 2:1.1072961 3:0.37917485 4:0.50687623 5:0.82832618 
1 1:1.3557692 2:1.1102362 3:0.37809187 4:0.49823322 5:0.84251969 
1 1:1.1794872 2:0.96335079 3:0.43362832 4:0.54277286 5:0.76963351 
1 1:1.1363636 2:1.0080645 3:0.43442623 4:0.51229508 5:0.85483871 
1 1:1.4123711 2:1.1440501 3:0.38304392 4:0.55975485 5:0.782881 
1 1:1.3043478 2:1.0810811 3:0.41361257 4:0.62827225 5:0.71171171 
1 1:1.1386139 2:0.98712446 3:0.44071588 4:0.51454139 5:0.84549356 
1 1:1.1511628 2:1.0250216 3:0.45775656 4:0.56706444 5:0.82743745 
1 1:1.1764706 2:0.98562628 3:0.43972445 4:0.5510907 5:0.78644764 
1 1:1.1470588 2:0.9689441 3:0.51698113 4:0.58867925 5:0.85093168 
1 1:1.1982759 2:1.0229991 3:0.38600451 4:0.5020316 5:0.78656854 
1 1:1.25 2:1.0621242 3:0.42795233 4:0.57421452 5:0.79158317 
1 1:1.3333333 2:1.1012783 3:0.49292308 4:0.68923077 5:0.78761062 
1 1:1.2553191 2:0.95740365 3:0.42790152 4:0.55334115 5:0.74036511 
1 1:1.2117647 2:1.0147783 3:0.41176471 4:0.52685422 5:0.79310345 
1 1:1.2368421 2:0.94 3:0.44827586 4:0.54022989 5:0.78 
1 1:1.2314815 2:0.99812383 3:0.40298507 4:0.52935323 5:0.75984991 
1 1:1.2336449 2:0.99716714 3:0.43001516 4:0.53360283 5:0.80358829 
1 1:1.1324786 2:0.97605893 3:0.46403941 4:0.52216749 5:0.86740331 
1 1:1.3611111 2:1.0888889 3:0.39784946 4:0.52688172 5:0.82222222 
1 1:1.2941176 2:1.047619 3:0.39473684 4:0.57894737 5:0.71428571 
1 1:1.2555556 2:0.98047722 3:0.39784946 4:0.54002389 5:0.72234273 
1 1:1.1551724 2:0.92413793 3:0.46245059 4:0.52964427 5:0.80689655 
1 1:1.2704918 2:1.0526316 3:0.39152982 4:0.53586863 5:0.76910017 
1 1:1.3194444 2:1.1275964 3:0.40564636 4:0.56463596 5:0.81008902 
1 1:1.3773585 2:1.1656687 3:0.42665174 4:0.65397536 5:0.76047904 
1 1:1.2291667 2:0.99159664 3:0.43127962 4:0.55924171 5:0.76470588 
1 1:1.25 2:1.0094637 3:0.37678855 4:0.50874404 5:0.74763407 
1 1:1.0805085 2:0.95149254 3:0.47916667 4:0.53125 5:0.85820896 
1 1:1.3 2:1.0381125 3:0.41028128 4:0.55480116 5:0.7676951 
1 1:1.2413793 2:0.94117647 3:0.46360153 4:0.55172414 5:0.79084967 
1 1:1.29 2:1.0530612 3:0.42231947 4:0.56455142 5:0.7877551 
1 1:1.1296296 2:1.0041152 3:0.39736347 4:0.45951036 5:0.86831276 
1 1:1.1590909 2:0.92030075 3:0.54731707 4:0.59707317 5:0.84360902 
1 1:1.0555556 2:0.91017964 3:0.41935484 4:0.4457478 5:0.85628743 
1 1:1.3023256 2:1.009009 3:0.41062802 4:0.5410628 5:0.76576577 
1 1:1.326087 2:0.96825397 3:0.41324921 4:0.57728707 5:0.69312169 
1 1:1.1904762 2:1.0238908 3:0.39059968 4:0.48622366 5:0.8225256 
1 1:1.1157895 2:0.91874323 3:0.51947195 4:0.55973597 5:0.85265439 
1 1:1.1527778 2:0.96793003 3:0.42947702 4:0.52614897 5:0.79008746 
1 1:1.4 2:1.0926829 3:0.34814815 4:0.55308642 5:0.68780488 
1 1:1.3125 2:1.05 3:0.41558442 4:0.54545455 5:0.8 
1 1:1.2972973 2:0.99224806 3:0.39677892 4:0.56222548 5:0.7002584 
1 1:1.3676471 2:1.1341463 3:0.35294118 4:0.54705882 5:0.73170732 
1 1:1.45 2:1.2384342 3:0.33017378 4:0.54976303 5:0.74377224 
1 1:1.1065574 2:0.89256198 3:0.52081218 4:0.54822335 5:0.84793388 
1 1:1.2727273 2:1 3:0.46808511 4:0.59574468 5:0.78571429 
1 1:1.4285714 2:1.2121212 3:0.35885167 4:0.57416268 5:0.75757576 
1 1:1.3026316 2:0.96585366 3:0.38873995 4:0.5308311 5:0.70731707 
1 1:1.3387097 2:0.98956781 3:0.35798584 4:0.52242329 5:0.6780924 
1 1:1.72 2:1.6862745 3:0.22758621 4:0.59310345 5:0.64705882 
1 1:1.2407407 2:1.0613861 3:0.42913776 4:0.53121903 5:0.85742574 
1 1:1.2727273 2:1.0228311 3:0.42431762 4:0.55583127 5:0.78082192 
1 1:1.25 2:1.010101 3:0.44508671 4:0.57803468 5:0.77777778 
1 1:1.4385965 2:1.1735242 3:0.43022137 4:0.63137632 5:0.79964222 
1 1:1.225 2:0.97836938 3:0.38051624 4:0.48959201 5:0.76039933 
1 1:1.2173913 2:1.0926829 3:0.32371134 4:0.46185567 5:0.76585366 
1 1:1.2126437 2:1.0419753 3:0.43989432 4:0.55746367 5:0.82222222 
1 1:1.2142857 2:0.94444444 3:0.4375 4:0.53125 5:0.77777778 
1 1:1.2894737 2:1.1395349 3:0.36842105 4:0.51578947 5:0.81395349 
1 1:1.515 2:1.2430769 3:0.37860283 4:0.59208598 5:0.79487179 
1 1:0.85465116 2:0.72952854 3:0.52256186 4:0.4279476 5:0.89081886 
1 1:1.1393443 2:0.96527778 3:0.41924399 4:0.47766323 5:0.84722222 
1 1:1.1489362 2:1.0297974 3:0.42346635 4:0.51459202 5:0.84743743 
1 1:1.2941176 2:1.0634441 3:0.37765205 4:0.49787836 5:0.80664653 
1 1:1.25 2:0.98404255 3:0.36787565 4:0.47927461 5:0.75531915 
1 1:1.1578947 2:0.89795918 3:0.44827586 4:0.50574713 5:0.79591837 
1 1:1.1195652 2:0.89565217 3:0.45365854 4:0.50243902 5:0.80869565 
1 1:1.2111111 2:0.97757848 3:0.46174142 4:0.57519789 5:0.78475336 
1 1:1.375 2:1.0819672 3:0.40057637 4:0.57060519 5:0.75956284 
1 1:1.4891304 2:1.1684435 3:0.30027051 4:0.49413886 5:0.71002132 
1 1:1.5555556 2:1.2873563 3:0.30434783 4:0.5410628 5:0.72413793 
1 1:1.4 2:1.2727273 3:0.36734694 4:0.57142857 5:0.81818182 
1 1:1.2368421 2:0.95431472 3:0.43695015 4:0.55131965 5:0.75634518 
1 1:1.469697 2:1.1213873 3:0.35410765 4:0.54957507 5:0.72254335 
1 1:1.1451613 2:0.94039735 3:0.46570397 4:0.51263538 5:0.85430464 
1 1:1.1397059 2:0.86834734 3:0.50087873 4:0.54481547 5:0.79831933 
1 1:1.2413793 2:1.1755102 3:0.27718224 4:0.44104135 5:0.73877551 
1 1:1.4285714 2:1.5238095 3:0.20249221 4:0.49844237 5:0.61904762 
1 1:1.3214286 2:1.1003717 3:0.39371534 4:0.54713494 5:0.79182156 
1 1:1.1333333 2:0.96113074 3:0.44933078 4:0.52007648 5:0.83038869 
1 1:1.2704918 2:1.0526316 3:0.39152982 4:0.53586863 5:0.76910017 
1 1:1.2318182 2:0.98635123 3:0.38723404 4:0.51252955 5:0.74522293 
1 1:1.2058824 2:1.2058824 3:0.325 4:0.5125 5:0.76470588 
1 1:1.2857143 2:1.0827068 3:0.35632184 4:0.55172414 5:0.69924812 
1 1:1.28125 2:0.96470588 3:0.38853503 4:0.52229299 5:0.71764706 
1 1:1.3529412 2:1.1311475 3:0.44144144 4:0.62162162 5:0.80327869 
1 1:1.2096774 2:1.0676157 3:0.36466775 4:0.48622366 5:0.80071174 
1 1:1.2173913 2:0.96969697 3:0.45864662 4:0.56140351 5:0.79220779 
1 1:1.2638889 2:0.96551724 3:0.40315638 4:0.52223816 5:0.74535809 
1 1:1.2222222 2:0.933687 3:0.42942051 4:0.5230312 5:0.76657825 
1 1:1.3611111 2:0.95843521 3:0.41383989 4:0.53188602 5:0.74572127 
1 1:1.3214286 2:0.98013245 3:0.39784946 4:0.53046595 5:0.73509934 
1 1:1.2017544 2:0.98916968 3:0.44466801 4:0.55130785 5:0.79783394 
1 1:1.2027027 2:0.90585242 3:0.42469471 4:0.48303935 5:0.79643766 
1 1:1.0990991 2:0.95219512 3:0.46809651 4:0.5233244 5:0.85170732 
1 1:1.2 2:0.92307692 3:0.43478261 4:0.52173913 5:0.76923077 
1 1:1.2336449 2:0.94201606 3:0.41950985 4:0.50744834 5:0.77876896 
1 1:1.25 2:1.0280374 3:0.34801762 4:0.4845815 5:0.73831776 
1 1:1.3636364 2:1.0155148 3:0.38884645 4:0.5500382 5:0.71791255 
1 1:1.2142857 2:1.0271903 3:0.47495682 4:0.58721934 5:0.83081571 
1 1:1.5540541 2:1.2201592 3:0.38335607 4:0.62755798 5:0.74535809 
1 1:1.2384615 2:1.0046802 3:0.34299517 4:0.44444444 5:0.77535101 
1 1:1.3020833 2:1.0309278 3:0.41081703 4:0.57537399 5:0.73608247 
1 1:1.3333333 2:1.0963597 3:0.41162515 4:0.60735469 5:0.74304069 
1 1:1.2407407 2:1.1308017 3:0.3752381 4:0.51047619 5:0.83122363 
1 1:1.3181818 2:0.95867769 3:0.42583732 4:0.55502392 5:0.73553719 
1 1:1.0491803 2:0.87521368 3:0.46716004 4:0.47363552 5:0.86324786 
1 1:1.195122 2:0.91588785 3:0.43414634 4:0.47804878 5:0.8317757 
1 1:1.25 2:1.0643016 3:0.47718866 4:0.5918619 5:0.85809313 
1 1:1.2857143 2:1.0714286 3:0.43589744 4:0.57692308 5:0.80952381 
1 1:1.1585366 2:0.90692124 3:0.50207469 4:0.52558783 5:0.86634845 
1 1:1.1984127 2:1.0202703 3:0.39041096 4:0.51712329 5:0.77027027 
1 1:1.3666667 2:1.0186335 3:0.34346505 4:0.49848024 5:0.70186335 
1 1:1.3222222 2:1.1497585 3:0.34675615 4:0.53243848 5:0.74879227 
1 1:1.3275862 2:1.0405405 3:0.453125 4:0.6015625 5:0.78378378 
1 1:1.3285714 2:1.0362117 3:0.39687055 4:0.52916074 5:0.77715877 
1 1:1.1710526 2:1.0056497 3:0.40175953 4:0.52199413 5:0.7740113 
1 1:1.1130435 2:0.92335437 3:0.46348733 4:0.50869349 5:0.84129847 
1 1:1.1547619 2:0.92934132 3:0.44677966 4:0.52610169 5:0.78922156 
1 1:1.1184211 2:0.97142857 3:0.41210375 4:0.48991354 5:0.81714286 
1 1:1.1458333 2:0.96069869 3:0.46666667 4:0.54320988 5:0.82532751 
1 1:1.2598039 2:1.0889831 3:0.38818565 4:0.54219409 5:0.77966102 
1 1:1.3076923 2:1.0381679 3:0.36 4:0.49454545 5:0.75572519 
1 1:1.2368421 2:1.0835735 3:0.41355463 4:0.52005533 5:0.86167147 
1 1:1.2985075 2:1.1030111 3:0.37302185 4:0.52449133 5:0.7844691 
1 1:1.2083333 2:1.0577508 3:0.43513957 4:0.57142857 5:0.80547112 
1 1:1.4473684 2:1.0784314 3:0.42528736 4:0.63218391 5:0.7254902 
1 1:1.2067308 2:1.0854054 3:0.4589156 4:0.56120738 5:0.88756757 
1 1:1.3615385 2:1.0759878 3:0.39485628 4:0.53555219 5:0.79331307 
1 1:1.137931 2:0.91034483 3:0.46360153 4:0.50574713 5:0.83448276 
1 1:1.2323944 2:1.0463378 3:0.40696812 4:0.51890289 5:0.8206278 
1 1:1.1756757 2:0.93048128 3:0.44542773 4:0.51327434 5:0.80748663 
1 1:1.4285714 2:1.2403101 3:0.28434505 4:0.51118211 5:0.68992248 
1 1:0.91071429 2:0.73913043 3:0.5042735 4:0.43589744 5:0.85507246 
1 1:1.1847826 2:0.98866213 3:0.44622991 4:0.53893696 5:0.8185941 
1 1:1.1904762 2:0.90909091 3:0.48314607 4:0.56179775 5:0.78181818 
1 1:1.1176471 2:0.93251534 3:0.44126984 4:0.48253968 5:0.85276074 
1 1:1.1818182 2:0.94977169 3:0.42431762 4:0.51612903 5:0.78082192 
1 1:1.0795455 2:0.91566265 3:0.4992722 4:0.55312955 5:0.82650602 
1 1:1.3225806 2:1.0789474 3:0.45454545 4:0.62121212 5:0.78947368 
1 1:1.1764706 2:0.91954023 3:0.44654088 4:0.50314465 5:0.81609195 
1 1:1.443662 2:1.0918775 3:0.36268344 4:0.57302586 5:0.69107856 
1 1:1.22 2:1.0082645 3:0.42616034 4:0.51476793 5:0.83471074 
1 1:0.97368421 2:0.82681564 3:0.51839465 4:0.49498328 5:0.86592179 
1 1:1.3333333 2:1.0566038 3:0.41747573 4:0.54368932 5:0.81132075 
1 1:1.1 2:0.96350365 3:0.40213523 4:0.46975089 5:0.82481752 
1 1:1.2272727 2:0.99386503 3:0.42857143 4:0.51428571 5:0.82822086 
1 1:1.3684211 2:1.1324864 3:0.35403727 4:0.55368234 5:0.72413793 
1 1:1.1489362 2:0.90376569 3:0.48825065 4:0.56396867 5:0.78242678 
1 1:1.3728814 2:1.1408451 3:0.53389831 4:0.68644068 5:0.88732394 
1 1:1.09375 2:0.97222222 3:0.42857143 4:0.5 5:0.83333333 
1 1:1.4375 2:1.1948052 3:0.46130653 4:0.64723618 5:0.85157699 
1 1:1.125 2:0.92307692 3:0.41899441 4:0.46927374 5:0.82417582 
1 1:1.2777778 2:1.0823529 3:0.41317365 4:0.5508982 5:0.81176471 
1 1:1.4047619 2:1.1184834 3:0.38173302 4:0.55269321 5:0.77251185 
1 1:1.1041667 2:0.96583144 3:0.43053961 4:0.48679679 5:0.85421412 
1 1:1.1559633 2:0.95184136 3:0.48136143 4:0.5445705 5:0.84135977 
1 1:1.1923077 2:0.91176471 3:0.51923077 4:0.59615385 5:0.79411765 
1 1:1.2142857 2:0.93150685 3:0.42857143 4:0.5112782 5:0.78082192 
1 1:1.2826087 2:1.0396476 3:0.42316785 4:0.55791962 5:0.78854626 
1 1:1.2123288 2:0.98607242 3:0.44913928 4:0.55399061 5:0.7994429 
1 1:1.3070175 2:1.0915751 3:0.39181287 4:0.58089669 5:0.73626374 
1 1:1.326087 2:1.0295359 3:0.36886994 4:0.52025586 5:0.72995781 
1 1:1.25 2:0.94182825 3:0.424 4:0.544 5:0.73407202 
1 1:1.4058824 2:1.146283 3:0.33701657 4:0.5281768 5:0.73141487 
1 1:1.152381 2:0.99793814 3:0.44062153 4:0.53718091 5:0.8185567 
1 1:1.2863636 2:1.0235081 3:0.38669238 4:0.54580521 5:0.72513562 
1 1:1.3888889 2:1.0416667 3:0.32 4:0.5 5:0.66666667 
1 1:1.1525424 2:0.96283186 3:0.43733093 4:0.49053201 5:0.85840708 
1 1:1.2431193 2:1.0149813 3:0.46947368 4:0.57052632 5:0.83520599 
1 1:1.1834862 2:0.98850575 3:0.41782178 4:0.51089109 5:0.80842912 
1 1:1.2291667 2:0.97925311 3:0.45323741 4:0.56594724 5:0.78423237 
1 1:1.1559633 2:0.95184136 3:0.48136143 4:0.5445705 5:0.84135977 
1 1:1.2130435 2:1.0333333 3:0.41603053 4:0.53244275 5:0.80740741 
1 1:1.6666667 2:1.5469613 3:0.22123894 4:0.49557522 5:0.69060773 
1 1:1.3245614 2:1.0577933 3:0.45549738 4:0.63246073 5:0.76182137 
1 1:1.2324561 2:0.96646604 3:0.44654088 4:0.54378326 5:0.79363715 
1 1:1.3064516 2:1.0872483 3:0.43295019 4:0.62068966 5:0.75838926 
1 1:1.4142857 2:1.2036474 3:0.31614654 4:0.53731343 5:0.70820669 
1 1:1.1818182 2:0.93483146 3:0.42509135 4:0.50669915 5:0.78426966 
1 1:1.2384615 2:0.98470948 3:0.39256866 4:0.52019386 5:0.74311927 
1 1:1.3656716 2:1.0397727 3:0.35195531 4:0.51117318 5:0.71590909 
1 1:1.4452055 2:1.1657459 3:0.36193029 4:0.56568365 5:0.74585635 
1 1:1.3472222 2:1.0104167 3:0.40963855 4:0.58433735 5:0.70833333 
1 1:1.4 2:1.258427 3:0.3492823 4:0.53588517 5:0.82022472 
1 1:1.2291667 2:1.0283224 3:0.39510117 4:0.50266241 5:0.80827887 
1 1:1.6375 2:1.4086022 3:0.27962085 4:0.62085308 5:0.6344086 
1 1:1.1759259 2:1.0409836 3:0.46491228 4:0.55701754 5:0.86885246 
1 1:1.1363636 2:0.91463415 3:0.41975309 4:0.46296296 5:0.82926829 
1 1:1.2460317 2:0.94011976 3:0.39076923 4:0.48307692 5:0.76047904 
1 1:1.3194444 2:1.1078717 3:0.46165884 4:0.59467919 5:0.86005831 
1 1:1.1304348 2:0.97014925 3:0.47540984 4:0.53278689 5:0.86567164 
1 1:1.5 2:1.0120482 3:0.34623656 4:0.54193548 5:0.64658635 
1 1:1.2666667 2:1.1135531 3:0.36221837 4:0.52686308 5:0.76556777 
1 1:1.35 2:1.2272727 3:0.34782609 4:0.58695652 5:0.72727273 
1 1:1.4342105 2:1.2011019 3:0.34246575 4:0.54296389 5:0.75757576 
1 1:1.35 2:1.0854271 3:0.33178654 4:0.50116009 5:0.71859296 
1 1:1.1590909 2:0.92030075 3:0.54731707 4:0.59707317 5:0.84360902 
1 1:1.1973684 2:1.0282486 3:0.44807122 4:0.54005935 5:0.85310734 
1 1:1.1914894 2:0.98461538 3:0.43972445 4:0.51435132 5:0.84175824 
1 1:1.1875 2:0.96202532 3:0.42857143 4:0.5170068 5:0.79746835 
1 1:1.3571429 2:1.043956 3:0.39393939 4:0.57575758 5:0.71428571 
1 1:1.2777778 2:1.0254777 3:0.41694915 4:0.54576271 5:0.78343949 
1 1:1.3243243 2:1.0181818 3:0.43458647 4:0.58947368 5:0.75064935 
1 1:1.2636364 2:1.0018018 3:0.3707113 4:0.46527197 5:0.7981982 
1 1:1.3055556 2:1.0681818 3:0.31914894 4:0.5 5:0.68181818 
1 1:1.3257576 2:0.96286107 3:0.34672715 4:0.4536617 5:0.73590096 
1 1:1.1 2:0.88 3:0.42857143 4:0.44897959 5:0.84 
1 1:1.38 2:1.0454545 3:0.42372881 4:0.58474576 5:0.75757576 
1 1:1.7380952 2:1.4923339 3:0.34314485 4:0.67854376 5:0.75468484 
1 1:1.2380952 2:0.98113208 3:0.40206186 4:0.53608247 5:0.73584906 
1 1:1.3333333 2:1.2581197 3:0.42048293 4:0.61282265 5:0.86324786 
1 1:1.2752294 2:1.0966469 3:0.34317984 4:0.48305821 5:0.7790927 
1 1:1.3488372 2:1.0545455 3:0.3362069 4:0.5 5:0.70909091 
1 1:1.3 2:1.0446429 3:0.38679245 4:0.55188679 5:0.73214286 
1 1:1.1875 2:0.89940828 3:0.51698113 4:0.57358491 5:0.81065089 
1 1:1.4117647 2:1.1779141 3:0.40057637 4:0.55331412 5:0.85276074 
1 1:1.2553191 2:1.0751708 3:0.39931741 4:0.53697383 5:0.79954442 
1 1:1.1712963 2:1.0160643 3:0.43610548 4:0.51318458 5:0.86345382 
1 1:1.25 2:1.0084034 3:0.42600897 4:0.53811659 5:0.79831933 
1 1:1.18 2:0.944 3:0.43891403 4:0.53393665 5:0.776 
1 1:1.1818182 2:0.96834264 3:0.44410876 4:0.52366566 5:0.82122905 
1 1:1.2575758 2:1.1608392 3:0.39799331 4:0.55518395 5:0.83216783 
1 1:1.2894737 2:1.0537634 3:0.4556213 4:0.57988166 5:0.82795699 
1 1:1.3111111 2:1.0442478 3:0.35064935 4:0.51082251 5:0.71681416 
1 1:1.3 2:1.1111111 3:0.39591837 4:0.53061224 5:0.82905983 
1 1:1.2669492 2:0.90468986 3:0.47133139 4:0.58114674 5:0.73373676 
1 1:1.1339286 2:0.90391459 3:0.45419103 4:0.49512671 5:0.82918149 
1 1:1.2575758 2:1.0607029 3:0.4165316 4:0.53808752 5:0.82108626 
1 1:1.0813953 2:0.93939394 3:0.46745562 4:0.55029586 5:0.7979798 
1 1:1.2054795 2:0.97506925 3:0.42611191 4:0.50502152 5:0.82271468 
1 1:1.137931 2:0.96526508 3:0.43538038 4:0.48395967 5:0.86837294 
1 1:1.2121212 2:0.99378882 3:0.42295082 4:0.52459016 5:0.80124224 
1 1:1.2142857 2:1.02 3:0.36363636 4:0.46363636 5:0.8 
1 1:1.2096774 2:1.0135135 3:0.40277778 4:0.52083333 5:0.78378378 
1 1:1.1764706 2:1.0810811 3:0.39240506 4:0.50632911 5:0.83783784 
1 1:1.4318182 2:1.26 3:0.35185185 4:0.58333333 5:0.76 
-1 1:1.1785714 2:0.95652174 3:0.39310345 4:0.45517241 5:0.82608696 
-1 1:1.125 2:0.96644295 3:0.36 4:0.44307692 5:0.7852349 
-1 1:1.2142857 2:1.1056911 3:0.42 4:0.544 5:0.85365854 
-1 1:1.3033333 2:1.1092199 3:0.50198255 4:0.62014274 5:0.89787234 
-1 1:1.2532468 2:1.1060172 3:0.50702028 4:0.60218409 5:0.93123209 
-1 1:1.2195122 2:0.97560976 3:0.3933162 4:0.51413882 5:0.74634146 
-1 1:1.3205128 2:1.0827858 3:0.41437206 4:0.55339154 5:0.8107753 
-1 1:1.1916667 2:1.0088183 3:0.44985673 4:0.54632283 5:0.83068783 
-1 1:1.490566 2:1.0896552 3:0.42412451 4:0.61478599 5:0.75172414 
-1 1:1.28 2:1.0666667 3:0.38095238 4:0.50793651 5:0.8 
-1 1:1.4705882 2:1.1976048 3:0.36182336 4:0.56980057 5:0.76047904 
-1 1:1.3125 2:1.0888889 3:0.47598253 4:0.6419214 5:0.80740741 
-1 1:1.40625 2:1.1238293 3:0.40942646 4:0.6132879 5:0.75026015 
-1 1:1.1851852 2:0.98084291 3:0.4158215 4:0.51926978 5:0.78544061 
-1 1:1.0757576 2:0.9015873 3:0.43615257 4:0.47097844 5:0.83492063 
-1 1:1.2164179 2:1.0349206 3:0.45797599 4:0.55917667 5:0.84761905 
-1 1:1.091954 2:0.92682927 3:0.44757033 4:0.4859335 5:0.85365854 
-1 1:1.0333333 2:0.82666667 3:0.39007092 4:0.43971631 5:0.73333333 
-1 1:1.0588235 2:0.88343558 3:0.30114943 4:0.33103448 5:0.80368098 
-1 1:1.4054054 2:1.0918635 3:0.43279173 4:0.61447563 5:0.76902887 
-1 1:1.1458333 2:0.88709677 3:0.48979592 4:0.56122449 5:0.77419355 
-1 1:1.2037037 2:0.83870968 3:0.40363636 4:0.47272727 5:0.71612903 
-1 1:1.2083333 2:1.0513595 3:0.44012442 4:0.54121306 5:0.85498489 
-1 1:1.143617 2:0.96304591 3:0.49631614 4:0.57602143 5:0.82978723 
-1 1:1.1538462 2:0.9439528 3:0.40179839 4:0.45433034 5:0.83480826 
-1 1:1.171875 2:1.0600707 3:0.37480064 4:0.4784689 5:0.83038869 
-1 1:1.2413793 2:1 3:0.45 4:0.6 5:0.75 
-1 1:1.4545455 2:1.187935 3:0.3709856 4:0.56699889 5:0.77726218 
-1 1:1.2150538 2:1.087846 3:0.40591848 4:0.50474595 5:0.87484958 
-1 1:1.0324675 2:0.75177305 3:0.44055944 4:0.44475524 5:0.74468085 
-1 1:1.2058824 2:1.0597738 3:0.49071618 4:0.58001768 5:0.89660743 
-1 1:1.1442308 2:0.98347107 3:0.507109 4:0.56398104 5:0.88429752 
-1 1:1.225 2:1.0068493 3:0.42361111 4:0.51041667 5:0.83561644 
-1 1:1.7025316 2:1.3500627 3:0.35626217 4:0.69824789 5:0.68883312 
-1 1:1.46875 2:1.2051282 3:0.3253012 4:0.56626506 5:0.69230769 
-1 1:1.2674419 2:1.0556901 3:0.44575163 4:0.56993464 5:0.82566586 
-1 1:1.5982143 2:1.2831541 3:0.3619211 4:0.61406518 5:0.7562724 
-1 1:1.315534 2:1.0775348 3:0.44287269 4:0.58977149 5:0.80914513 
-1 1:1.2272727 2:0.95294118 3:0.4248366 4:0.52941176 5:0.76470588 
-1 1:1.45 2:1.1958763 3:0.36318408 4:0.57711443 5:0.75257732 
-1 1:1.2647059 2:0.95027624 3:0.43384615 4:0.52923077 5:0.77900552 
-1 1:0.99568966 2:0.84926471 3:0.49790795 4:0.4832636 5:0.875 
-1 1:1.2673267 2:1.0168818 3:0.42888766 4:0.56668511 5:0.76961271 
-1 1:1.2469136 2:1.1592539 3:0.38699292 4:0.52028332 5:0.86226686 
-1 1:1.23 2:1.0336134 3:0.41552511 4:0.56164384 5:0.76470588 
-1 1:1.3148148 2:1.2241379 3:0.43478261 4:0.6173913 5:0.86206897 
-1 1:1.4126984 2:1.088685 3:0.37481032 4:0.54021244 5:0.75535168 
-1 1:1.3571429 2:1.0497238 3:0.45846154 4:0.58461538 5:0.82320442 
-1 1:1.1447368 2:0.99713467 3:0.49758454 4:0.56038647 5:0.88538682 
-1 1:1.1363636 2:0.89552239 3:0.4064915 4:0.46367852 5:0.78507463 
-1 1:1.3333333 2:1.1179039 3:0.44055944 4:0.5967366 5:0.82532751 
-1 1:1.35 2:1.083612 3:0.43652174 4:0.56347826 5:0.83946488 
-1 1:1.3181818 2:1.0357143 3:0.4125 4:0.54375 5:0.78571429 
-1 1:1.48 2:1.2595745 3:0.41463415 4:0.65631929 5:0.79574468 
-1 1:1.2894737 2:1.0909091 3:0.43574879 4:0.56811594 5:0.83673469 
-1 1:1.1551724 2:0.93542757 3:0.48285994 4:0.52497551 5:0.86038394 
-1 1:1.275 2:1 3:0.39130435 4:0.51170569 5:0.76470588 
-1 1:1.3660714 2:1.1007194 3:0.39636364 4:0.55636364 5:0.78417266 
-1 1:1.2583333 2:0.96485623 3:0.39573071 4:0.49589491 5:0.76996805 
-1 1:1.15 2:0.80600751 3:0.36516476 4:0.43308675 5:0.6795995 
-1 1:1.1714286 2:0.92655367 3:0.34217507 4:0.43501326 5:0.72881356 
-1 1:1.3076923 2:1.086758 3:0.41724942 4:0.55477855 5:0.8173516 
-1 1:1.234375 2:1.1087719 3:0.30150068 4:0.43110505 5:0.7754386 
-1 1:1.3333333 2:1.1636364 3:0.39130435 4:0.55652174 5:0.81818182 
-1 1:1.2794118 2:1.0265487 3:0.40279938 4:0.54121306 5:0.7640118 
-1 1:1.21875 2:0.98113208 3:0.39803708 4:0.51035987 5:0.76519916 
-1 1:1.0741935 2:0.80874317 3:0.44638575 4:0.45632066 5:0.7911354 
-1 1:1.2083333 2:0.98305085 3:0.49514563 4:0.5631068 5:0.86440678 
-1 1:1.1742424 2:0.95826893 3:0.4454776 4:0.52409129 5:0.81452859 
-1 1:1.1081081 2:0.86089239 3:0.44740973 4:0.51491366 5:0.7480315 
-1 1:1.2592593 2:1.1102041 3:0.35883424 4:0.49544627 5:0.80408163 
-1 1:1.2666667 2:1.1681076 3:0.43149094 4:0.56479331 5:0.89241114 
-1 1:1.3818182 2:1.1968504 3:0.40239044 4:0.60557769 5:0.79527559 
-1 1:1.2380952 2:0.99363057 3:0.39936102 4:0.49840256 5:0.79617834 
-1 1:1.1206897 2:0.93862816 3:0.44294004 4:0.50290135 5:0.8267148 
-1 1:1.285124 2:0.99919679 3:0.44489796 4:0.56417234 5:0.78795181 
-1 1:1.0833333 2:0.99047619 3:0.36 4:0.46222222 5:0.77142857 
-1 1:1.3979592 2:1.0682261 3:0.37069813 4:0.53883972 5:0.73489279 
-1 1:1.2894737 2:0.89908257 3:0.49132948 4:0.56647399 5:0.77981651 
-1 1:1.5232558 2:1.1936219 3:0.34748603 4:0.58547486 5:0.70842825 
-1 1:1.1666667 2:1.0434783 3:0.44812834 4:0.53903743 5:0.86749482 
-1 1:1.2109375 2:1.0367893 3:0.37242472 4:0.49128368 5:0.78595318 
-1 1:1.3090909 2:1.0746269 3:0.44444444 4:0.61538462 5:0.7761194 
-1 1:1.2386364 2:1 3:0.46524064 4:0.5828877 5:0.79816514 
-1 1:1.4615385 2:1.1875 3:0.32432432 4:0.51351351 5:0.75 
-1 1:1.3482143 2:1.0671378 3:0.46561886 4:0.59332024 5:0.83745583 
-1 1:1 2:0.82474227 3:0.47928994 4:0.47337278 5:0.83505155 
-1 1:1.2073171 2:0.98019802 3:0.39487179 4:0.50769231 5:0.76237624 
-1 1:1.1463415 2:0.93300248 3:0.41721854 4:0.49801325 5:0.78163772 
-1 1:1.240566 2:0.89001692 3:0.42110553 4:0.52864322 5:0.70896785 
-1 1:1.3970588 2:1.027027 3:0.49473684 4:0.66666667 5:0.76216216 
-1 1:1.24 2:1.0961326 3:0.40298507 4:0.54836926 5:0.80552486 
-1 1:1.1428571 2:0.98084291 3:0.41463415 4:0.48030019 5:0.8467433 
-1 1:1.2583333 2:0.96485623 3:0.39573071 4:0.49589491 5:0.76996805 
-1 1:1.2638889 2:0.95039164 3:0.40143885 4:0.52374101 5:0.72845953 
-1 1:1.3623188 2:1.1898734 3:0.4 4:0.5875 5:0.81012658 
-1 1:1.3947368 2:1.1397849 3:0.44099379 4:0.65838509 5:0.76344086 
-1 1:1.1491228 2:1.0174757 3:0.44433095 4:0.53524004 5:0.84466019 
-1 1:1.3444444 2:1.1177829 3:0.43634116 4:0.59826947 5:0.81524249 
-1 1:1.2205882 2:1.0278638 3:0.40029985 4:0.49775112 5:0.82662539 
-1 1:1.1171875 2:0.93159609 3:0.5142315 4:0.5426945 5:0.88273616 
-1 1:1.2909091 2:1.1181102 3:0.44129555 4:0.57489879 5:0.85826772 
-1 1:1.2980769 2:1.0567515 3:0.45957918 4:0.59800664 5:0.81213307 
-1 1:1.4090909 2:1.1121076 3:0.48746518 4:0.6908078 5:0.78475336 
-1 1:1.24 2:1.0040486 3:0.47990544 4:0.58628842 5:0.82186235 
-1 1:1.2307692 2:1.1130435 3:0.34693878 4:0.46098439 5:0.83768116 
-1 1:1.1111111 2:0.8839779 3:0.40869565 4:0.46376812 5:0.77900552 
-1 1:1.1315789 2:0.93989071 3:0.46438746 4:0.49002849 5:0.89071038 
-1 1:1.3780488 2:1.1229814 3:0.38832029 4:0.54425045 5:0.80124224 
-1 1:1.0921053 2:0.96793003 3:0.45038168 4:0.50687023 5:0.86005831 
-1 1:1.3461538 2:1.1463664 3:0.47088751 4:0.63312606 5:0.85261003 
-1 1:1.25 2:1.043956 3:0.40540541 4:0.51351351 5:0.82417582 
-1 1:1.5671642 2:1.2316716 3:0.35766423 4:0.61313869 5:0.71847507 
-1 1:1.3882353 2:1.0678733 3:0.38386308 4:0.57701711 5:0.71040724 
-1 1:1.1666667 2:0.95609756 3:0.54354354 4:0.58858859 5:0.88292683 
-1 1:1.3235294 2:1.1026034 3:0.40856031 4:0.56031128 5:0.80398162 
-1 1:1.2192982 2:0.9471891 3:0.44774688 4:0.53307766 5:0.7955707 
-1 1:1.4711538 2:1.1208791 3:0.40550459 4:0.56146789 5:0.80952381 
-1 1:1.1607143 2:0.97744361 3:0.42545455 4:0.47272727 5:0.87969925 
-1 1:1.27 2:0.99607843 3:0.46726862 4:0.57336343 5:0.81176471 
-1 1:1.2317073 2:0.99019608 3:0.48333333 4:0.56111111 5:0.85294118 
-1 1:1.28125 2:0.98203593 3:0.46909091 4:0.59636364 5:0.77245509 
-1 1:1.2333333 2:1.129771 3:0.34982332 4:0.5229682 5:0.75572519 
-1 1:1.244186 2:0.997669 3:0.4017744 4:0.54245881 5:0.73892774 
-1 1:1.1923077 2:1.0040486 3:0.41978022 4:0.54505495 5:0.77327935 
-1 1:1.3490566 2:1.1769547 3:0.39884393 4:0.55105973 5:0.85185185 
-1 1:0.93902439 2:0.68903803 3:0.43362832 4:0.38938053 5:0.76733781 
-1 1:1.4090909 2:1.1012433 3:0.4720169 4:0.65469905 5:0.79396092 
-1 1:1.0243902 2:0.86597938 3:0.47976879 4:0.48554913 5:0.8556701 
-1 1:1.1842105 2:1.011236 3:0.43502825 4:0.50847458 5:0.86516854 
-1 1:1.1285714 2:0.88515406 3:0.40209268 4:0.47234679 5:0.7535014 
-1 1:1.3076923 2:1.1286307 3:0.34971645 4:0.51417769 5:0.76763485 
-1 1:1.2 2:1.0140845 3:0.39568345 4:0.51798561 5:0.77464789 
-1 1:1.4176471 2:1.1067738 3:0.34163508 4:0.52192745 5:0.72445465 
-1 1:1.2386364 2:1.1354167 3:0.42857143 4:0.55612245 5:0.875 
-1 1:1.1071429 2:0.87323944 3:0.47008547 4:0.52991453 5:0.77464789 
-1 1:1.2428571 2:1.0357143 3:0.4375 4:0.54375 5:0.83333333 
-1 1:1.0535714 2:0.90248566 3:0.47583244 4:0.50698174 5:0.84703633 
-1 1:1.2564103 2:0.91803279 3:0.39622642 4:0.49308176 5:0.73770492 
-1 1:1.4274194 2:0.9971831 3:0.39903069 4:0.57189015 5:0.69577465 
-1 1:1.3416667 2:1.010989 3:0.40117746 4:0.54163162 5:0.74882261 
-1 1:1.0446429 2:0.84629295 3:0.47014115 4:0.50814332 5:0.78300181 
-1 1:1.1 2:0.89189189 3:0.38666667 4:0.44 5:0.78378378 
-1 1:1.3942308 2:1.2747253 3:0.34256694 4:0.5355494 5:0.81538462 
-1 1:1.4677419 2:1.3333333 3:0.37942664 4:0.61382799 5:0.82417582 
